{"learner":{"attributes":{"scikit_learn":"{\"_estimator_type\": \"classifier\"}"},"feature_names":[],"feature_types":[],"gradient_booster":{"model":{"gbtree_model_param":{"num_parallel_tree":"1","num_trees":"100"},"iteration_indptr":[0,1,2,3,4,5,6,7,8,9,10,11,12,13,14,15,16,17,18,19,20,21,22,23,24,25,26,27,28,29,30,31,32,33,34,35,36,37,38,39,40,41,42,43,44,45,46,47,48,49,50,51,52,53,54,55,56,57,58,59,60,61,62,63,64,65,66,67,68,69,70,71,72,73,74,75,76,77,78,79,80,81,82,83,84,85,86,87,88,89,90,91,92,93,94,95,96,97,98,99,100],"tree_info":[0,0,0,0,0,0,0,0,0,0,0,0,0,0,0,0,0,0,0,0,0,0,0,0,0,0,0,0,0,0,0,0,0,0,0,0,0,0,0,0,0,0,0,0,0,0,0,0,0,0,0,0,0,0,0,0,0,0,0,0,0,0,0,0,0,0,0,0,0,0,0,0,0,0,0,0,0,0,0,0,0,0,0,0,0,0,0,0,0,0,0,0,0,0,0,0,0,0,0,0],"trees":[{"base_weights":[1.9790146E-8,1.3992619E-2,-5.004713E-1,4.197798E-1,2.59826E-3,2.267395E-2,-9.24561E-1,2.517857E-1,3.3527903E-2,2.8045983E-3,-1.8685903E-1,2.6016492E-1,-9.7367816E-2,-3.232945E-1,2.2957039E-1],"categories":[],"categories_nodes":[],"categories_segments":[],"categories_sizes":[],"default_left":[0,0,0,0,0,0,0,0,0,0,0,0,0,0,0],"id":0,"left_children":[1,3,5,7,9,11,13,-1,-1,-1,-1,-1,-1,-1,-1],"loss_changes":[2.8522789E1,1.8318972E1,2.4598476E1,1.3889053E1,1.6282118E1,1.5112264E1,1.6657745E1,0E0,0E0,0E0,0E0,0E0,0E0,0E0,0E0],"parents":[2147483647,0,0,1,1,2,2,3,3,4,4,5,5,6,6],"right_children":[2,4,6,8,10,12,14,-1,-1,-1,-1,-1,-1,-1,-1],"split_conditions":[2.1739547E0,-1.398227E0,-5.437417E-1,-2.5578684E-1,2.2956061E0,-1.1061563E0,1.6883909E0,2.517857E-1,3.3527903E-2,2.8045983E-3,-1.8685903E-1,2.6016492E-1,-9.7367816E-2,-3.232945E-1,2.2957039E-1],"split_indices":[2,8,5,7,8,9,0,0,0,0,0,0,0,0,0],"split_type":[0,0,0,0,0,0,0,0,0,0,0,0,0,0,0],"sum_hessian":[4.071E3,3.961221E3,1.0977911E2,1.0721277E2,3.854008E3,4.957335E1,6.020577E1,4.4661533E1,6.255123E1,3.8138318E3,4.0176373E1,1.4007279E1,3.556607E1,5.5536674E1,4.669093E0],"tree_param":{"num_deleted":"0","num_feature":"10","num_nodes":"15","size_leaf_vector":"1"}},{"base_weights":[1.8643626E-5,-3.643874E-2,1.2105045E-1,-1.1942168E0,-2.7080014E-2,1.4377483E0,1.0322569E-1,9.717927E-2,-4.4372493E-1,-4.973393E-3,-2.969308E-1,2.6123054E-2,5.124317E-1,-9.51321E-4,7.9304025E-2],"categories":[],"categories_nodes":[],"categories_segments":[],"categories_sizes":[],"default_left":[0,0,0,0,0,0,0,0,0,0,0,0,0,0,0],"id":1,"left_children":[1,3,5,7,9,11,13,-1,-1,-1,-1,-1,-1,-1,-1],"loss_changes":[1.7959415E1,3.3859737E1,2.1964794E1,1.1315987E1,3.1364279E1,4.4184647E0,1.5955435E1,0E0,0E0,0E0,0E0,0E0,0E0,0E0,0E0],"parents":[2147483647,0,0,1,1,2,2,3,3,4,4,5,5,6,6],"right_children":[2,4,6,8,10,12,14,-1,-1,-1,-1,-1,-1,-1,-1],"split_conditions":[7.4010813E-1,-1.7032114E0,6.999317E-1,-1.1227034E0,6.248366E-1,-5.645538E-1,4.5428962E-1,9.717927E-2,-4.4372493E-1,-4.973393E-3,-2.969308E-1,2.6123054E-2,5.124317E-1,-9.51321E-4,7.9304025E-2],"split_indices":[8,4,9,2,9,2,1,0,0,0,0,0,0,0,0],"split_type":[0,0,0,0,0,0,0,0,0,0,0,0,0,0,0],"sum_hessian":[4.06812E3,3.1269226E3,9.4119745E2,2.4058151E1,3.1028645E3,1.15072565E1,9.296902E2,3.779388E0,2.0278765E1,3.0703867E3,3.247782E1,2.1396935E0,9.367562E0,5.605257E2,3.6916446E2],"tree_param":{"num_deleted":"0","num_feature":"10","num_nodes":"15","size_leaf_vector":"1"}},{"base_weights":[-1.8305334E-5,7.0779487E-3,-5.3841716E-1,1.5572734E-1,-1.7764838E-2,6.598559E-2,-9.874626E-1,8.393865E-2,-4.0500272E-2,3.3829927E-3,-5.247701E-2,1.7107108E-1,-4.380935E-1,2.0256542E-1,-3.3100152E-1],"categories":[],"categories_nodes":[],"categories_segments":[],"categories_sizes":[],"default_left":[0,0,0,0,0,0,0,0,0,0,0,0,0,0,0],"id":2,"left_children":[1,3,5,7,9,11,13,-1,-1,-1,-1,-1,-1,-1,-1],"loss_changes":[1.5539819E1,1.4827593E1,1.4425595E1,2.0775993E1,1.5704855E1,1.8912731E1,6.6058483E0,0E0,0E0,0E0,0E0,0E0,0E0,0E0,0E0],"parents":[2147483647,0,0,1,1,2,2,3,3,4,4,5,5,6,6],"right_children":[2,4,6,8,10,12,14,-1,-1,-1,-1,-1,-1,-1,-1],"split_conditions":[2.3017423E0,-1.235272E0,-7.663219E-1,2.5225314E-1,1.1341509E0,1.2617865E-1,2.281758E0,8.393865E-2,-4.0500272E-2,3.3829927E-3,-5.247701E-2,1.7107108E-1,-4.380935E-1,2.0256542E-1,-3.3100152E-1],"split_indices":[2,0,9,3,7,5,3,0,0,0,0,0,0,0,0],"split_type":[0,0,0,0,0,0,0,0,0,0,0,0,0,0,0],"sum_hessian":[4.0653628E3,4.0134512E3,5.1911602E1,5.739419E2,3.4395093E3,2.249159E1,2.9420012E1,4.0229868E2,1.7164319E2,2.903835E3,5.356743E2,1.7377035E1,5.1145563E0,1.602268E0,2.7817743E1],"tree_param":{"num_deleted":"0","num_feature":"10","num_nodes":"15","size_leaf_vector":"1"}},{"base_weights":[-1.9678874E-4,-9.472279E-3,2.9351008E-1,1.27639705E-2,-1.6335852E-1,5.086563E-1,-1.4932139E-1,1.6502586E-1,2.04941E-3,-2.0942895E-1,-9.292817E-3,7.991524E-2,3.2353622E-1,-4.007697E-1,7.18333E-2],"categories":[],"categories_nodes":[],"categories_segments":[],"categories_sizes":[],"default_left":[0,0,0,0,0,0,0,0,0,0,0,0,0,0,0],"id":3,"left_children":[1,3,5,7,9,11,13,-1,-1,-1,-1,-1,-1,-1,-1],"loss_changes":[1.1071005E1,1.3482147E1,1.1928942E1,1.097145E1,3.519211E1,1.1302698E1,1.9442081E1,0E0,0E0,0E0,0E0,0E0,0E0,0E0,0E0],"parents":[2147483647,0,0,1,1,2,2,3,3,4,4,5,5,6,6],"right_children":[2,4,6,8,10,12,14,-1,-1,-1,-1,-1,-1,-1,-1],"split_conditions":[1.5914853E0,1.1341509E0,-2.0374939E-1,-1.8911672E0,1.2327915E0,1.9037455E-2,8.349995E-2,1.6502586E-1,2.04941E-3,-2.0942895E-1,-9.292817E-3,7.991524E-2,3.2353622E-1,-4.007697E-1,7.18333E-2],"split_indices":[7,7,9,1,7,2,8,0,0,0,0,0,0,0,0],"split_type":[0,0,0,0,0,0,0,0,0,0,0,0,0,0,0],"sum_hessian":[4.0618147E3,3.9384045E3,1.2341011E2,3.4419646E3,4.9643985E2,8.2957306E1,4.0452805E1,3.6586254E1,3.4053784E3,9.766485E1,3.98775E2,5.923759E1,2.3719713E1,9.381784E0,3.1071022E1],"tree_param":{"num_deleted":"0","num_feature":"10","num_nodes":"15","size_leaf_vector":"1"}},{"base_weights":[-1.6124547E-4,3.936177E-3,-6.158162E-1,4.3318075E-1,-1.9678304E-3,-1.3827899E0,1.2964287E-1,-2.5941214E-1,1.7116408E-1,-1.2625352E-1,1.6551504E-3,1.03230365E-1,-5.091841E-1,3.1386593E-1,-2.9209194E-1],"categories":[],"categories_nodes":[],"categories_segments":[],"categories_sizes":[],"default_left":[0,0,0,0,0,0,0,0,0,0,0,0,0,0,0],"id":4,"left_children":[1,3,5,7,9,11,13,-1,-1,-1,-1,-1,-1,-1,-1],"loss_changes":[1.0244298E1,1.0224579E1,1.5530064E1,1.0252675E1,1.2482241E1,7.8175735E0,1.5711705E1,0E0,0E0,0E0,0E0,0E0,0E0,0E0,0E0],"parents":[2147483647,0,0,1,1,2,2,3,3,4,4,5,5,6,6],"right_children":[2,4,6,8,10,12,14,-1,-1,-1,-1,-1,-1,-1,-1],"split_conditions":[2.3244066E0,-1.7048861E0,-3.7981284E-1,-9.852051E-1,-1.6671602E0,-1.7032114E0,6.906772E-2,-2.5941214E-1,1.7116408E-1,-1.2625352E-1,1.6551504E-3,1.03230365E-1,-5.091841E-1,3.1386593E-1,-2.9209194E-1],"split_indices":[8,6,4,2,6,4,5,0,0,0,0,0,0,0,0],"split_type":[0,0,0,0,0,0,0,0,0,0,0,0,0,0,0],"sum_hessian":[4.0590493E3,4.0332004E3,2.5848907E1,5.373973E1,3.9794607E3,1.2319207E1,1.3529701E1,4.636586E0,4.9103146E1,6.8891884E1,3.9105688E3,1.8833625E0,1.0435844E1,7.4184103E0,6.1112905E0],"tree_param":{"num_deleted":"0","num_feature":"10","num_nodes":"15","size_leaf_vector":"1"}},{"base_weights":[-3.1632083E-4,-8.576102E-1,2.524623E-3,-1.3890225E0,7.2524107E-1,1.11572845E-2,-2.7543154E-1,-5.321906E-1,1.980076E-2,6.765514E-2,3.1816128E-1,1.1971607E-3,1.1991536E-1,2.267928E-1,-1.1209781E-1],"categories":[],"categories_nodes":[],"categories_segments":[],"categories_sizes":[],"default_left":[0,0,0,0,0,0,0,0,0,0,0,0,0,0,0],"id":5,"left_children":[1,3,5,7,9,11,13,-1,-1,-1,-1,-1,-1,-1,-1],"loss_changes":[9.885655E0,1.2284045E1,9.710615E0,5.930828E0,4.355104E-1,1.092771E1,1.2632764E1,0E0,0E0,0E0,0E0,0E0,0E0,0E0,0E0],"parents":[2147483647,0,0,1,1,2,2,3,3,4,4,5,5,6,6],"right_children":[2,4,6,8,10,12,14,-1,-1,-1,-1,-1,-1,-1,-1],"split_conditions":[-1.4404259E0,1.0167481E0,2.1358898E0,1.3172065E0,2.6823443E-1,2.0142813E0,-1.603153E0,-5.321906E-1,1.980076E-2,6.765514E-2,3.1816128E-1,1.1971607E-3,1.1991536E-1,2.267928E-1,-1.1209781E-1],"split_indices":[2,8,2,4,4,3,4,0,0,0,0,0,0,0,0],"split_type":[0,0,0,0,0,0,0,0,0,0,0,0,0,0,0],"sum_hessian":[4.0570557E3,1.2406307E1,4.0446492E3,9.379705E0,3.026602E0,3.9237468E3,1.20902435E2,7.244005E0,2.1357E0,1.8869271E0,1.1396749E0,3.8536785E3,7.006834E1,9.930842E0,1.1097159E2],"tree_param":{"num_deleted":"0","num_feature":"10","num_nodes":"15","size_leaf_vector":"1"}},{"base_weights":[-2.3210517E-4,2.8317115E-1,-8.106244E-3,-2.0738128E-1,4.8225087E-1,-4.5501277E-1,-3.2041222E-3,5.3434376E-2,-3.0979636E-1,6.668802E-2,3.2550907E-1,-4.42714E-1,-8.808779E-3,-8.022724E-3,2.360453E-2],"categories":[],"categories_nodes":[],"categories_segments":[],"categories_sizes":[],"default_left":[0,0,0,0,0,0,0,0,0,0,0,0,0,0,0],"id":6,"left_children":[1,3,5,7,9,11,13,-1,-1,-1,-1,-1,-1,-1,-1],"loss_changes":[9.052891E0,1.08099785E1,8.645733E0,1.0478101E1,1.2029675E1,1.855967E1,7.529286E0,0E0,0E0,0E0,0E0,0E0,0E0,0E0,0E0],"parents":[2147483647,0,0,1,1,2,2,3,3,4,4,5,5,6,6],"right_children":[2,4,6,8,10,12,14,-1,-1,-1,-1,-1,-1,-1,-1],"split_conditions":[-1.398227E0,-5.0164557E-1,-1.3686681E0,1.0204161E-1,9.149355E-1,-6.2969506E-1,8.679398E-1,5.3434376E-2,-3.0979636E-1,6.668802E-2,3.2550907E-1,-4.42714E-1,-8.808779E-3,-8.022724E-3,2.360453E-2],"split_indices":[8,4,8,1,0,6,9,0,0,0,0,0,0,0,0],"split_type":[0,0,0,0,0,0,0,0,0,0,0,0,0,0,0],"sum_hessian":[4.054732E3,1.0866695E2,3.9460652E3,3.1357418E1,7.730953E1,4.1818546E1,3.9042466E3,2.1908054E1,9.449363E0,5.497118E1,2.2338348E1,1.1580876E1,3.0237669E1,3.0330598E3,8.7118665E2],"tree_param":{"num_deleted":"0","num_feature":"10","num_nodes":"15","size_leaf_vector":"1"}},{"base_weights":[-2.2224564E-4,-5.435816E-1,3.2182275E-3,6.0081393E-3,-4.497408E-1,1.3663149E-2,-1.882363E-1,2.0985946E-1,-3.1366673E-1,-4.507772E-4,8.072943E-2,-1.4654799E-1,5.7195727E-2],"categories":[],"categories_nodes":[],"categories_segments":[],"categories_sizes":[],"default_left":[0,0,0,0,0,0,0,0,0,0,0,0,0],"id":7,"left_children":[1,3,5,7,-1,9,11,-1,-1,-1,-1,-1,-1],"loss_changes":[7.5783424E0,1.3404315E1,8.058311E0,1.3267303E1,0E0,1.4802221E1,2.3809624E1,0E0,0E0,0E0,0E0,0E0,0E0],"parents":[2147483647,0,0,1,1,2,2,3,3,5,5,6,6],"right_children":[2,4,6,8,-1,10,12,-1,-1,-1,-1,-1,-1],"split_conditions":[-1.940693E0,-3.7676293E-2,1.9719762E0,-1.9760473E0,-4.497408E-1,1.6059021E0,-1.4611633E-1,2.0985946E-1,-3.1366673E-1,-4.507772E-4,8.072943E-2,-1.4654799E-1,5.7195727E-2],"split_indices":[5,3,8,5,0,8,6,0,0,0,0,0,0],"split_type":[0,0,0,0,0,0,0,0,0,0,0,0,0],"sum_hessian":[4.0519258E3,2.4506958E1,4.0274187E3,1.6189331E1,8.317626E0,3.8199478E3,2.0747101E2,9.95718E0,6.232151E0,3.6067983E3,2.1314949E2,1.1558465E2,9.188635E1],"tree_param":{"num_deleted":"0","num_feature":"10","num_nodes":"13","size_leaf_vector":"1"}},{"base_weights":[-3.497062E-4,4.1633543E-2,-4.550383E-2,1.2474528E-1,-6.1892807E-2,-1.6389954E-1,4.069313E-2,7.352704E-2,-9.94423E-3,-3.659556E-2,1.1221454E-1,-2.4564214E-2,-1.3037796E-1,2.6205257E-1,5.502722E-3],"categories":[],"categories_nodes":[],"categories_segments":[],"categories_sizes":[],"default_left":[0,0,0,0,0,0,0,0,0,0,0,0,0,0,0],"id":8,"left_children":[1,3,5,7,9,11,13,-1,-1,-1,-1,-1,-1,-1,-1],"loss_changes":[7.6794496E0,1.806963E1,1.9925108E1,2.2139807E1,2.4551517E1,1.8225475E1,2.10228E1,0E0,0E0,0E0,0E0,0E0,0E0,0E0,0E0],"parents":[2147483647,0,0,1,1,2,2,3,3,4,4,5,5,6,6],"right_children":[2,4,6,8,10,12,14,-1,-1,-1,-1,-1,-1,-1,-1],"split_conditions":[-1.1847177E-1,1.3288599E-1,-1.8147513E-1,1.3944538E-1,1.6076078E0,6.947511E-1,-2.7274865E-1,7.352704E-2,-9.94423E-3,-3.659556E-2,1.1221454E-1,-2.4564214E-2,-1.3037796E-1,2.6205257E-1,5.502722E-3],"split_indices":[9,0,1,2,0,7,0,0,0,0,0,0,0,0,0],"split_type":[0,0,0,0,0,0,0,0,0,0,0,0,0,0,0],"sum_hessian":[4.048948E3,2.0981836E3,1.9507643E3,1.1637286E3,9.34455E2,8.214969E2,1.1292673E3,6.600729E2,5.0365576E2,8.218827E2,1.1257236E2,6.314678E2,1.9002911E2,2.8519352E1,1.100748E3],"tree_param":{"num_deleted":"0","num_feature":"10","num_nodes":"15","size_leaf_vector":"1"}},{"base_weights":[-1.805131E-4,9.620221E-2,-1.6242912E-2,5.0732087E-2,6.7407E-1,-3.216365E-1,-2.0623964E-3,-1.0265524E-2,9.414503E-2,2.3167291E-1,-3.571542E-1,-1.7275172E-1,-5.0647478E-3,4.5159668E-2,-4.9361517E-3],"categories":[],"categories_nodes":[],"categories_segments":[],"categories_sizes":[],"default_left":[0,0,0,0,0,0,0,0,0,0,0,0,0,0,0],"id":9,"left_children":[1,3,5,7,9,11,13,-1,-1,-1,-1,-1,-1,-1,-1],"loss_changes":[6.266247E0,1.5158068E1,1.5024084E1,1.2014285E1,8.624954E0,1.1916062E1,7.2856216E0,0E0,0E0,0E0,0E0,0E0,0E0,0E0,0E0],"parents":[2147483647,0,0,1,1,2,2,3,3,4,4,5,5,6,6],"right_children":[2,4,6,8,10,12,14,-1,-1,-1,-1,-1,-1,-1,-1],"split_conditions":[-1.235272E0,1.4555236E0,-1.0749818E0,1.0999812E0,2.900934E-1,4.4035128E-1,-1.4493498E0,-1.0265524E-2,9.414503E-2,2.3167291E-1,-3.571542E-1,-1.7275172E-1,-5.0647478E-3,4.5159668E-2,-4.9361517E-3],"split_indices":[0,6,1,4,9,6,4,0,0,0,0,0,0,0,0],"split_type":[0,0,0,0,0,0,0,0,0,0,0,0,0,0,0],"sum_hessian":[4.0455935E3,5.771864E2,3.4684072E3,5.360913E2,4.1095108E1,1.5294214E2,3.315465E3,4.0589655E2,1.3019476E2,3.959615E1,1.4989585E0,8.290205E1,7.0040085E1,2.849231E2,3.030542E3],"tree_param":{"num_deleted":"0","num_feature":"10","num_nodes":"15","size_leaf_vector":"1"}},{"base_weights":[-1.5133742E-4,5.1734585E-1,-3.0711393E-3,-4.969076E-1,8.9968294E-1,-6.55147E-1,-9.789667E-4,1.1089577E-1,-4.3925172E-1,3.7918368E-1,-1.6716495E-1,-3.2379222E-1,1.7046961E-1,-2.2398483E-3,6.1757088E-2],"categories":[],"categories_nodes":[],"categories_segments":[],"categories_sizes":[],"default_left":[0,0,0,0,0,0,0,0,0,0,0,0,0,0,0],"id":10,"left_children":[1,3,5,7,9,11,13,-1,-1,-1,-1,-1,-1,-1,-1],"loss_changes":[6.112222E0,9.248074E0,5.486984E0,6.28908E0,9.640157E0,7.288083E0,5.382857E0,0E0,0E0,0E0,0E0,0E0,0E0,0E0,0E0],"parents":[2147483647,0,0,1,1,2,2,3,3,4,4,5,5,6,6],"right_children":[2,4,6,8,10,12,14,-1,-1,-1,-1,-1,-1,-1,-1],"split_conditions":[-1.9685488E0,-1.5515657E-1,-1.4404259E0,-8.935845E-1,9.7830975E-1,1.0167481E0,1.5914853E0,1.1089577E-1,-4.3925172E-1,3.7918368E-1,-1.6716495E-1,-3.2379222E-1,1.7046961E-1,-2.2398483E-3,6.1757088E-2],"split_indices":[7,4,2,4,5,8,7,0,0,0,0,0,0,0,0],"split_type":[0,0,0,0,0,0,0,0,0,0,0,0,0,0,0],"sum_hessian":[4.043128E3,2.16955E1,4.0214324E3,5.8574243E0,1.5838075E1,1.1863123E1,4.0095693E3,3.4154255E0,2.441999E0,1.2776148E1,3.0619268E0,8.8963995E0,2.9667237E0,3.8885723E3,1.2099712E2],"tree_param":{"num_deleted":"0","num_feature":"10","num_nodes":"15","size_leaf_vector":"1"}},{"base_weights":[-1.4813797E-4,-4.6175146E-1,2.627854E-3,-3.9505612E-2,-3.799121E-1,6.2383465E-2,-1.9960893E-2,4.2469192E-1,-1.5243155E-1,-6.575932E-3,6.1237775E-2,-5.7490196E-2,5.2325977E-3],"categories":[],"categories_nodes":[],"categories_segments":[],"categories_sizes":[],"default_left":[0,0,0,0,0,0,0,0,0,0,0,0,0],"id":11,"left_children":[1,3,5,7,-1,9,11,-1,-1,-1,-1,-1,-1],"loss_changes":[5.1806874E0,8.1611E0,5.425909E0,1.2231195E1,0E0,1.3180972E1,1.87346E1,0E0,0E0,0E0,0E0,0E0,0E0],"parents":[2147483647,0,0,1,1,2,2,3,3,5,5,6,6],"right_children":[2,4,6,8,-1,10,12,-1,-1,-1,-1,-1,-1],"split_conditions":[-1.940693E0,-3.7676293E-2,-7.38644E-1,-9.452216E-1,-3.799121E-1,-1.102342E0,-2.518413E-1,4.2469192E-1,-1.5243155E-1,-6.575932E-3,6.1237775E-2,-5.7490196E-2,5.2325977E-3],"split_indices":[5,3,5,6,0,4,5,0,0,0,0,0,0],"split_type":[0,0,0,0,0,0,0,0,0,0,0,0,0],"sum_hessian":[4.0410203E3,2.3168268E1,4.017852E3,1.5882581E1,7.2856884E0,1.101696E3,2.916156E3,3.376503E0,1.2506078E1,6.91351E2,4.10345E2,5.209514E2,2.3952046E3],"tree_param":{"num_deleted":"0","num_feature":"10","num_nodes":"13","size_leaf_vector":"1"}},{"base_weights":[-1.7694787E-4,3.5424155E-1,-3.66743E-3,6.445535E-1,-5.9586877E-1,-4.203464E-1,1.0945771E-3,2.653602E-1,2.205E-2,5.3363033E-2,-5.014344E-1,6.297851E-2,-2.5996116E-1,3.724845E-3,-3.2378554E-2],"categories":[],"categories_nodes":[],"categories_segments":[],"categories_sizes":[],"default_left":[0,0,0,0,0,0,0,0,0,0,0,0,0,0,0],"id":12,"left_children":[1,3,5,7,9,11,13,-1,-1,-1,-1,-1,-1,-1,-1],"loss_changes":[4.998399E0,1.1252853E1,7.9393373E0,4.1369934E0,8.404745E0,1.2896321E1,4.8852425E0,0E0,0E0,0E0,0E0,0E0,0E0,0E0,0E0],"parents":[2147483647,0,0,1,1,2,2,3,3,4,4,5,5,6,6],"right_children":[2,4,6,8,10,12,14,-1,-1,-1,-1,-1,-1,-1,-1],"split_conditions":[-1.8911672E0,5.1923305E-1,-1.6821563E0,6.700236E-1,-2.1235743E-1,-1.2674125E-1,1.4185416E0,2.653602E-1,2.205E-2,5.3363033E-2,-5.014344E-1,6.297851E-2,-2.5996116E-1,3.724845E-3,-3.2378554E-2],"split_indices":[1,6,0,4,4,5,0,0,0,0,0,0,0,0,0],"split_type":[0,0,0,0,0,0,0,0,0,0,0,0,0,0,0],"sum_hessian":[4.0383938E3,3.8404152E1,3.9999897E3,2.966227E1,8.741884E0,4.4211163E1,3.9557786E3,2.049885E1,9.163421E0,5.569758E0,3.1721265E0,1.8544834E1,2.5666328E1,3.5844365E3,3.71342E2],"tree_param":{"num_deleted":"0","num_feature":"10","num_nodes":"15","size_leaf_vector":"1"}},{"base_weights":[-1.9365984E-4,-1.9162782E-2,6.8282746E-2,1.0111929E-2,-1.6393796E-1,9.771294E-1,2.9945517E-2,-2.4399994E-2,1.7211018E-2,-3.7105434E-2,-4.4217634E-1,3.4939367E-1,-4.417779E-2,-8.533299E-3,9.6558526E-2],"categories":[],"categories_nodes":[],"categories_segments":[],"categories_sizes":[],"default_left":[0,0,0,0,0,0,0,0,0,0,0,0,0,0,0],"id":13,"left_children":[1,3,5,7,9,11,13,-1,-1,-1,-1,-1,-1,-1,-1],"loss_changes":[5.2471333E0,1.3408388E1,3.0502739E1,1.137962E1,2.7876453E1,7.6428337E0,1.4358375E1,0E0,0E0,0E0,0E0,0E0,0E0,0E0,0E0],"parents":[2147483647,0,0,1,1,2,2,3,3,4,4,5,5,6,6],"right_children":[2,4,6,8,10,12,14,-1,-1,-1,-1,-1,-1,-1,-1],"split_conditions":[1.0127331E0,9.976451E-1,1.0299147E0,-6.9367814E-1,7.878817E-1,2.9325306E-1,1.2365192E0,-2.4399994E-2,1.7211018E-2,-3.7105434E-2,-4.4217634E-1,3.4939367E-1,-4.417779E-2,-8.533299E-3,9.6558526E-2],"split_indices":[1,2,1,3,4,3,2,0,0,0,0,0,0,0,0],"split_type":[0,0,0,0,0,0,0,0,0,0,0,0,0,0,0],"sum_hessian":[4.0375515E3,3.1622695E3,8.752819E2,2.6311582E3,5.311113E2,3.4435863E1,8.4084607E2,8.962258E2,1.7349324E3,5.163396E2,1.4771673E1,2.9483112E1,4.952751E0,7.01444E2,1.3940208E2],"tree_param":{"num_deleted":"0","num_feature":"10","num_nodes":"15","size_leaf_vector":"1"}},{"base_weights":[-1.8195681E-4,3.538533E-3,-3.026672E-1,2.0275865E-1,-1.9701035E-3,6.138589E-2,-8.115229E-1,1.6701505E-1,-1.6809583E-2,-7.8657344E-2,7.5044425E-4,-2.5625196E-1,1.0454224E-1,-6.910239E-2,-4.1506603E-1],"categories":[],"categories_nodes":[],"categories_segments":[],"categories_sizes":[],"default_left":[0,0,0,0,0,0,0,0,0,0,0,0,0,0,0],"id":14,"left_children":[1,3,5,7,9,11,13,-1,-1,-1,-1,-1,-1,-1,-1],"loss_changes":[4.5425034E0,4.37627E0,9.135069E0,9.859795E0,4.5166783E0,8.056606E0,6.5046234E0,0E0,0E0,0E0,0E0,0E0,0E0,0E0,0E0],"parents":[2147483647,0,0,1,1,2,2,3,3,4,4,5,5,6,6],"right_children":[2,4,6,8,10,12,14,-1,-1,-1,-1,-1,-1,-1,-1],"split_conditions":[2.3017423E0,-1.398227E0,-5.448128E-1,-2.5578684E-1,-1.6881768E0,-5.546312E-1,-3.139999E-1,1.6701505E-1,-1.6809583E-2,-7.8657344E-2,7.5044425E-4,-2.5625196E-1,1.0454224E-1,-6.910239E-2,-4.1506603E-1],"split_indices":[2,8,8,7,4,0,0,0,0,0,0,0,0,0,0],"split_type":[0,0,0,0,0,0,0,0,0,0,0,0,0,0,0],"sum_hessian":[4.034418E3,3.986375E3,4.8043076E1,1.0629792E2,3.8800771E3,2.8518974E1,1.9524103E1,4.440805E1,6.1889874E1,6.457442E1,3.8155027E3,6.336335E0,2.2182638E1,1.0380358E1,9.143744E0],"tree_param":{"num_deleted":"0","num_feature":"10","num_nodes":"15","size_leaf_vector":"1"}},{"base_weights":[-3.2843204E-4,2.8146054E-3,-3.2062525E-1,-2.3170996E-3,5.1297456E-1,-7.009431E-2,-4.4077414E-1,5.798632E-4,-1.826796E-1,2.4946742E-1,-5.2920334E-2,-3.8459414E-1,3.6456563E-2],"categories":[],"categories_nodes":[],"categories_segments":[],"categories_sizes":[],"default_left":[0,0,0,0,0,0,0,0,0,0,0,0,0],"id":15,"left_children":[1,3,5,7,9,11,-1,-1,-1,-1,-1,-1,-1],"loss_changes":[4.059739E0,1.0456439E1,1.1173931E1,1.0197145E1,8.882496E0,7.87028E0,0E0,0E0,0E0,0E0,0E0,0E0,0E0],"parents":[2147483647,0,0,1,1,2,2,3,3,4,4,5,5],"right_children":[2,4,6,8,10,12,-1,-1,-1,-1,-1,-1,-1],"split_conditions":[2.2956061E0,2.2248676E0,3.9233634E-1,2.1865482E0,3.6837676E-1,-1.3945041E0,-4.4077414E-1,5.798632E-4,-1.826796E-1,2.4946742E-1,-5.2920334E-2,-3.8459414E-1,3.6456563E-2],"split_indices":[8,8,6,9,1,6,0,0,0,0,0,0,0],"split_type":[0,0,0,0,0,0,0,0,0,0,0,0,0],"sum_hessian":[4.030804E3,3.9926162E3,3.8187893E1,3.9538398E3,3.877626E1,3.2221043E1,5.966848E0,3.9273218E3,2.6518217E1,2.6379274E1,1.2396988E1,3.6221595E0,2.8598885E1],"tree_param":{"num_deleted":"0","num_feature":"10","num_nodes":"13","size_leaf_vector":"1"}},{"base_weights":[-4.654102E-4,-1.7130481E-2,6.0445186E-2,2.6982298E-2,-1.0260945E-1,3.413127E-1,2.094872E-2,2.5979523E-2,-1.4129618E-2,-5.4217566E-2,1.6422175E-2,-1.2618612E-1,1.5523773E-1,-2.2766583E-1,1.3490212E-2],"categories":[],"categories_nodes":[],"categories_segments":[],"categories_sizes":[],"default_left":[0,0,0,0,0,0,0,0,0,0,0,0,0,0,0],"id":16,"left_children":[1,3,5,7,9,11,13,-1,-1,-1,-1,-1,-1,-1,-1],"loss_changes":[4.09184E0,1.1937335E1,9.599255E0,9.227671E0,1.3255123E1,1.4537558E1,1.42744255E1,0E0,0E0,0E0,0E0,0E0,0E0,0E0,0E0],"parents":[2147483647,0,0,1,1,2,2,3,3,4,4,5,5,6,6],"right_children":[2,4,6,8,10,12,14,-1,-1,-1,-1,-1,-1,-1,-1],"split_conditions":[8.679398E-1,-1.1847177E-1,1.0295836E0,1.3288599E-1,7.648976E-1,-1.2230222E0,1.0508548E0,2.5979523E-2,-1.4129618E-2,-5.4217566E-2,1.6422175E-2,-1.2618612E-1,1.5523773E-1,-2.2766583E-1,1.3490212E-2],"split_indices":[9,9,9,0,4,6,8,0,0,0,0,0,0,0,0],"split_type":[0,0,0,0,0,0,0,0,0,0,0,0,0,0,0],"sum_hessian":[4.029034E3,3.1640674E3,8.649665E2,2.0874763E3,1.0765911E3,1.0569635E2,7.5927014E2,1.1565684E3,9.3090796E2,7.193327E2,3.572583E2,1.9586353E1,8.611E1,2.177235E1,7.374978E2],"tree_param":{"num_deleted":"0","num_feature":"10","num_nodes":"15","size_leaf_vector":"1"}},{"base_weights":[-3.7544852E-4,-4.700378E-2,2.5612352E-2,-3.6736265E-1,-8.064219E-3,1.3748366E-1,-1.3422776E-2,2.122638E-2,-1.895005E-1,2.4412446E-2,-5.53381E-2,7.405769E-2,-2.188861E-2,-7.093758E-2,6.384524E-3],"categories":[],"categories_nodes":[],"categories_segments":[],"categories_sizes":[],"default_left":[0,0,0,0,0,0,0,0,0,0,0,0,0,0,0],"id":17,"left_children":[1,3,5,7,9,11,13,-1,-1,-1,-1,-1,-1,-1,-1],"loss_changes":[4.879417E0,1.7973818E1,1.1293073E1,1.8127014E1,2.030244E1,1.5414857E1,1.48488245E1,0E0,0E0,0E0,0E0,0E0,0E0,0E0,0E0],"parents":[2147483647,0,0,1,1,2,2,3,3,4,4,5,5,6,6],"right_children":[2,4,6,8,10,12,14,-1,-1,-1,-1,-1,-1,-1,-1],"split_conditions":[-4.5640025E-1,-1.1524885E0,7.788378E-2,-5.0439066E-1,3.0399126E-1,1.9137725E-1,3.4260193E-1,2.122638E-2,-1.895005E-1,2.4412446E-2,-5.53381E-2,7.405769E-2,-2.188861E-2,-7.093758E-2,6.384524E-3],"split_indices":[1,3,0,8,3,8,1,0,0,0,0,0,0,0,0],"split_type":[0,0,0,0,0,0,0,0,0,0,0,0,0,0,0],"sum_hessian":[4.0246995E3,1.4400667E3,2.5846328E3,1.5515553E2,1.2849111E3,6.6791736E2,1.9167156E3,5.8657024E1,9.649851E1,8.5296606E2,4.319451E2,4.3938303E2,2.2853432E2,2.5730136E2,1.6594142E3],"tree_param":{"num_deleted":"0","num_feature":"10","num_nodes":"15","size_leaf_vector":"1"}},{"base_weights":[-3.3348522E-4,1.7287828E-2,-6.46468E-2,-1.2857803E-2,1.8730934E-1,-2.85105E-2,-4.6204558E-1,5.3635454E-3,-3.90926E-2,4.087652E-2,1.897663E-1,-3.349845E-3,-2.823484E-1,-5.3783494E-1,-5.6277324E-2],"categories":[],"categories_nodes":[],"categories_segments":[],"categories_sizes":[],"default_left":[0,0,0,0,0,0,0,0,0,0,0,0,0,0,0],"id":18,"left_children":[1,3,5,7,9,11,13,-1,-1,-1,-1,-1,-1,-1,-1],"loss_changes":[4.558422E0,1.6184666E1,1.2409523E1,9.686914E0,1.0723974E1,1.25582905E1,2.597434E1,0E0,0E0,0E0,0E0,0E0,0E0,0E0,0E0],"parents":[2147483647,0,0,1,1,2,2,3,3,4,4,5,5,6,6],"right_children":[2,4,6,8,10,12,14,-1,-1,-1,-1,-1,-1,-1,-1],"split_conditions":[8.976293E-1,7.099791E-1,3.0879354E-1,1.1162162E0,1.349367E0,8.2790047E-1,-1.0234337E0,5.3635454E-3,-3.90926E-2,4.087652E-2,1.897663E-1,-3.349845E-3,-2.823484E-1,-5.3783494E-1,-5.6277324E-2],"split_indices":[5,5,2,7,7,6,1,0,0,0,0,0,0,0,0],"split_type":[0,0,0,0,0,0,0,0,0,0,0,0,0,0,0],"sum_hessian":[4.0203223E3,3.1562637E3,8.640587E2,2.6817083E3,4.745554E2,7.9301953E2,7.1039185E1,2.1261528E3,5.555555E2,4.2690958E2,4.7645824E1,7.7922314E2,1.3796407E1,1.120034E1,5.9838844E1],"tree_param":{"num_deleted":"0","num_feature":"10","num_nodes":"15","size_leaf_vector":"1"}},{"base_weights":[-4.4954102E-4,5.1122554E-2,-2.350737E-2,5.6564547E-2,-3.672607E-1,-1.8602598E-1,3.4989072E-3,-5.1018618E-2,2.4321863E-2,5.1049807E-4,-1.4565349E-1,1.8682605E-1,-3.7138497E-3],"categories":[],"categories_nodes":[],"categories_segments":[],"categories_sizes":[],"default_left":[0,0,0,0,0,0,0,0,0,0,0,0,0],"id":19,"left_children":[1,3,5,7,-1,9,11,-1,-1,-1,-1,-1,-1],"loss_changes":[4.780092E0,8.688872E0,1.2192527E1,6.887956E0,0E0,2.2255728E1,2.3438913E1,0E0,0E0,0E0,0E0,0E0,0E0],"parents":[2147483647,0,0,1,1,2,2,3,3,5,5,6,6],"right_children":[2,4,6,8,-1,10,12,-1,-1,-1,-1,-1,-1],"split_conditions":[-6.362069E-1,2.3405762E0,-2.518413E-1,-1.3310558E0,-3.672607E-1,5.7817566E-1,-2.1014139E-1,-5.1018618E-2,2.4321863E-2,5.1049807E-4,-1.4565349E-1,1.8682605E-1,-3.7138497E-3],"split_indices":[5,8,5,6,0,7,5,0,0,0,0,0,0],"split_type":[0,0,0,0,0,0,0,0,0,0,0,0,0],"sum_hessian":[4.0177764E3,1.2409652E3,2.7768113E3,1.2366439E3,4.321292E0,3.948416E2,2.3819695E3,1.2010483E2,1.1165391E3,2.433168E2,1.5152481E2,5.8594032E1,2.3233755E3],"tree_param":{"num_deleted":"0","num_feature":"10","num_nodes":"13","size_leaf_vector":"1"}},{"base_weights":[-4.578216E-4,1.8552476E-1,-6.6671832E-3,9.789903E-1,-3.5714876E-2,-3.8312265E-1,4.4493093E-3,-3.7773153E-1,3.4989184E-1,1.2737629E-1,-9.1673136E-2,-6.680383E-2,-3.838941E-1,1.2782475E-1,-5.35334E-4],"categories":[],"categories_nodes":[],"categories_segments":[],"categories_sizes":[],"default_left":[0,0,0,0,0,0,0,0,0,0,0,0,0,0,0],"id":20,"left_children":[1,3,5,7,9,11,13,-1,-1,-1,-1,-1,-1,-1,-1],"loss_changes":[4.63833E0,2.2814535E1,1.6266663E1,1.3344511E1,1.2854162E1,1.5751757E1,9.925774E0,0E0,0E0,0E0,0E0,0E0,0E0,0E0,0E0],"parents":[2147483647,0,0,1,1,2,2,3,3,4,4,5,5,6,6],"right_children":[2,4,6,8,10,12,14,-1,-1,-1,-1,-1,-1,-1,-1],"split_conditions":[-1.3821636E0,-1.2093037E0,-1.2883619E0,-1.1405216E0,-5.2409625E-1,1.4492663E0,-1.2572888E0,-3.7773153E-1,3.4989184E-1,1.2737629E-1,-9.1673136E-2,-6.680383E-2,-3.838941E-1,1.2782475E-1,-5.35334E-4],"split_indices":[2,6,2,9,8,8,2,0,0,0,0,0,0,0,0],"split_type":[0,0,0,0,0,0,0,0,0,0,0,0,0,0,0],"sum_hessian":[4.0143794E3,1.2876408E2,3.8856152E3,2.7328102E1,1.01435974E2,1.1048892E2,3.7751265E3,1.6686645E0,2.565944E1,3.727791E1,6.4158066E1,9.477605E1,1.5712874E1,5.4019993E1,3.7211064E3],"tree_param":{"num_deleted":"0","num_feature":"10","num_nodes":"15","size_leaf_vector":"1"}},{"base_weights":[-4.2064307E-4,7.8746706E-2,-1.393384E-2,-9.582026E-1,9.992564E-2,-1.1010876E-1,1.50149E-2,2.5245324E-3,-4.817186E-1,-3.9642014E-2,5.68622E-2,-2.6793385E-2,-4.4476423E-1,1.618667E-1,2.3575132E-3],"categories":[],"categories_nodes":[],"categories_segments":[],"categories_sizes":[],"default_left":[0,0,0,0,0,0,0,0,0,0,0,0,0,0,0],"id":21,"left_children":[1,3,5,7,9,11,13,-1,-1,-1,-1,-1,-1,-1,-1],"loss_changes":[4.294128E0,1.2948687E1,9.547544E0,7.4045563E0,1.1971444E1,2.2513226E1,9.892077E0,0E0,0E0,0E0,0E0,0E0,0E0,0E0,0E0],"parents":[2147483647,0,0,1,1,2,2,3,3,4,4,5,5,6,6],"right_children":[2,4,6,8,10,12,14,-1,-1,-1,-1,-1,-1,-1,-1],"split_conditions":[-1.2215211E0,-1.6574161E0,-5.391607E-1,-1.9171234E0,-7.188808E-1,-5.546312E-1,-5.1166046E-1,2.5245324E-3,-4.817186E-1,-3.9642014E-2,5.68622E-2,-2.6793385E-2,-4.4476423E-1,1.618667E-1,2.3575132E-3],"split_indices":[0,4,0,5,8,0,0,0,0,0,0,0,0,0,0],"split_type":[0,0,0,0,0,0,0,0,0,0,0,0,0,0,0],"sum_hessian":[4.011913E3,5.842492E2,3.4276638E3,1.0808473E1,5.7344073E2,7.923792E2,2.6352847E3,4.731845E0,6.0766273E0,1.596191E2,4.1382166E2,7.816002E2,1.07790365E1,3.446901E1,2.6008157E3],"tree_param":{"num_deleted":"0","num_feature":"10","num_nodes":"15","size_leaf_vector":"1"}},{"base_weights":[-5.2441953E-4,-5.637504E-1,1.0975979E-3,-9.0036255E-1,3.7057525E-1,1.9540252E-1,-4.8088483E-3,-3.7718293E-1,4.5153502E-2,-1.4117875E-2,2.2676332E-1,8.019167E-2,-4.799774E-1,-8.257547E-2,9.2868594E-4],"categories":[],"categories_nodes":[],"categories_segments":[],"categories_sizes":[],"default_left":[0,0,0,0,0,0,0,0,0,0,0,0,0,0,0],"id":22,"left_children":[1,3,5,7,9,11,13,-1,-1,-1,-1,-1,-1,-1,-1],"loss_changes":[3.664705E0,3.956522E0,4.5918307E0,3.474832E0,6.405081E-1,1.5664814E1,8.302019E0,0E0,0E0,0E0,0E0,0E0,0E0,0E0,0E0],"parents":[2147483647,0,0,1,1,2,2,3,3,4,4,5,5,6,6],"right_children":[2,4,6,8,10,12,14,-1,-1,-1,-1,-1,-1,-1,-1],"split_conditions":[-1.5078231E0,1.0167481E0,-1.3821636E0,1.3472646E0,1.2363498E0,1.60373E0,-1.2883619E0,-3.7718293E-1,4.5153502E-2,-1.4117875E-2,2.2676332E-1,8.019167E-2,-4.799774E-1,-8.257547E-2,9.2868594E-4],"split_indices":[3,8,2,5,0,4,2,0,0,0,0,0,0,0,0],"split_type":[0,0,0,0,0,0,0,0,0,0,0,0,0,0,0],"sum_hessian":[4.0097676E3,1.0519262E1,3.9992483E3,7.7599235E0,2.7593393E0,1.1703556E2,3.8822126E3,5.6459503E0,2.1139731E0,1.7453706E0,1.0139687E0,1.1334711E2,3.6884522E0,1.092861E2,3.7729265E3],"tree_param":{"num_deleted":"0","num_feature":"10","num_nodes":"15","size_leaf_vector":"1"}},{"base_weights":[-5.7042594E-4,9.108997E-3,-9.565756E-2,-1.3844094E-2,1.5277085E-1,-1.3774216E0,-5.2769966E-2,-9.733346E-4,-1.04973204E-1,2.0606235E-1,3.4118325E-2,6.615972E-2,-5.3732586E-1,-4.97701E-2,1.0737818E-1],"categories":[],"categories_nodes":[],"categories_segments":[],"categories_sizes":[],"default_left":[0,0,0,0,0,0,0,0,0,0,0,0,0,0,0],"id":23,"left_children":[1,3,5,7,9,11,13,-1,-1,-1,-1,-1,-1,-1,-1],"loss_changes":[3.6901543E0,1.200157E1,2.0290197E1,1.1179074E1,1.0377457E1,8.296267E0,1.6761244E1,0E0,0E0,0E0,0E0,0E0,0E0,0E0,0E0],"parents":[2147483647,0,0,1,1,2,2,3,3,4,4,5,5,6,6],"right_children":[2,4,6,8,10,12,14,-1,-1,-1,-1,-1,-1,-1,-1],"split_conditions":[1.4185416E0,1.0127331E0,-1.7031839E0,9.304043E-1,1.0299147E0,-1.9171234E0,1.151845E0,-9.733346E-4,-1.04973204E-1,2.0606235E-1,3.4118325E-2,6.615972E-2,-5.3732586E-1,-4.97701E-2,1.0737818E-1],"split_indices":[0,1,5,0,1,5,2,0,0,0,0,0,0,0,0],"split_type":[0,0,0,0,0,0,0,0,0,0,0,0,0,0,0],"sum_hessian":[4.0073977E3,3.6379734E3,3.6942438E2,3.1375806E3,5.003928E2,1.095321E1,3.5847116E2,3.042625E3,9.4955696E1,3.295676E1,4.6743604E2,2.3484006E0,8.604809E0,2.8151993E2,7.6951225E1],"tree_param":{"num_deleted":"0","num_feature":"10","num_nodes":"15","size_leaf_vector":"1"}},{"base_weights":[-4.597606E-4,1.4286678E-1,-7.4686706E-3,3.2666644E-1,-4.6272272E-1,-1.3701937E-1,3.0639858E-3,-8.264318E-2,1.5091553E-1,-4.2877957E-1,5.4665178E-2,-2.1757255E-1,2.4599722E-2,1.5024975E-1,-8.2275603E-4],"categories":[],"categories_nodes":[],"categories_segments":[],"categories_sizes":[],"default_left":[0,0,0,0,0,0,0,0,0,0,0,0,0,0,0],"id":24,"left_children":[1,3,5,7,9,11,13,-1,-1,-1,-1,-1,-1,-1,-1],"loss_changes":[4.0246725E0,2.0941708E1,5.2122383E0,1.5420072E1,2.7628849E1,3.7060894E1,1.0213763E1,0E0,0E0,0E0,0E0,0E0,0E0,0E0,0E0],"parents":[2147483647,0,0,1,1,2,2,3,3,4,4,5,5,6,6],"right_children":[2,4,6,8,10,12,14,-1,-1,-1,-1,-1,-1,-1,-1],"split_conditions":[-1.603153E0,1.0645452E0,-1.2996941E0,-5.532897E-1,1.3852363E0,-4.8908004E-1,-1.3849945E0,-8.264318E-2,1.5091553E-1,-4.2877957E-1,5.4665178E-2,-2.1757255E-1,2.4599722E-2,1.5024975E-1,-8.2275603E-4],"split_indices":[4,6,4,2,7,6,5,0,0,0,0,0,0,0,0],"split_type":[0,0,0,0,0,0,0,0,0,0,0,0,0,0,0],"sum_hessian":[4.0043303E3,1.8578542E2,3.818545E3,1.4288087E2,4.2904533E1,2.8620773E2,3.5323372E3,3.2244144E1,1.10636734E2,1.6684341E1,2.622019E1,7.7026E1,2.0918172E2,3.974683E1,3.4925903E3],"tree_param":{"num_deleted":"0","num_feature":"10","num_nodes":"15","size_leaf_vector":"1"}},{"base_weights":[-4.992001E-4,7.6370984E-3,-1.2051888E-1,5.390315E-3,1.0814198E0,-5.0792974E-1,2.5657434E-2,1.8426958E-2,-4.6552937E-3,3.2139227E-2,4.4350824E-1,-3.4004772E-1,1.1202207E-2,1.583403E-1,-3.3848107E-2],"categories":[],"categories_nodes":[],"categories_segments":[],"categories_sizes":[],"default_left":[0,0,0,0,0,0,0,0,0,0,0,0,0,0,0],"id":25,"left_children":[1,3,5,7,9,11,13,-1,-1,-1,-1,-1,-1,-1,-1],"loss_changes":[3.909314E0,9.039389E0,1.440624E1,4.3853E0,2.8672419E0,2.3808702E1,1.2958034E1,0E0,0E0,0E0,0E0,0E0,0E0,0E0,0E0],"parents":[2147483647,0,0,1,1,2,2,3,3,4,4,5,5,6,6],"right_children":[2,4,6,8,10,12,14,-1,-1,-1,-1,-1,-1,-1,-1],"split_conditions":[1.8568155E0,1.8600427E0,2.0142813E0,-7.802195E-1,6.278978E-1,2.8757742E-1,2.0816388E0,1.8426958E-2,-4.6552937E-3,3.2139227E-2,4.4350824E-1,-3.4004772E-1,1.1202207E-2,1.583403E-1,-3.3848107E-2],"split_indices":[2,3,3,4,0,0,3,0,0,0,0,0,0,0,0],"split_type":[0,0,0,0,0,0,0,0,0,0,0,0,0,0,0],"sum_hessian":[4.0013857E3,3.7482249E3,2.5316092E2,3.7414014E3,6.823489E0,6.8675514E1,1.844854E2,1.01616455E3,2.7252368E3,2.3428557E0,4.4806333E0,3.1480583E1,3.719493E1,3.927247E1,1.4521294E2],"tree_param":{"num_deleted":"0","num_feature":"10","num_nodes":"15","size_leaf_vector":"1"}},{"base_weights":[-3.050052E-4,2.2965528E-1,-4.172074E-3,4.440983E-1,1.3526435E-1,-5.392271E-1,1.1532264E-3,-9.0826206E-2,1.2148728E-1,6.563701E-2,-3.4658334E-1,3.52424E-3,-3.148738E-2],"categories":[],"categories_nodes":[],"categories_segments":[],"categories_sizes":[],"default_left":[0,0,0,0,0,0,0,0,0,0,0,0,0],"id":26,"left_children":[1,3,5,-1,7,9,11,-1,-1,-1,-1,-1,-1],"loss_changes":[3.557366E0,7.609823E0,1.1210097E1,0E0,7.5194206E0,1.8358097E1,4.3813305E0,0E0,0E0,0E0,0E0,0E0,0E0],"parents":[2147483647,0,0,1,1,2,2,4,4,5,5,6,6],"right_children":[2,4,6,-1,8,10,12,-1,-1,-1,-1,-1,-1],"split_conditions":[-1.9057773E0,-1.7693602E0,-1.8340386E0,4.440983E-1,-1.5515657E-1,-4.1938683E-1,1.4185416E0,-9.0826206E-2,1.2148728E-1,6.563701E-2,-3.4658334E-1,3.52424E-3,-3.148738E-2],"split_indices":[7,5,7,0,4,4,0,0,0,0,0,0,0],"split_type":[0,0,0,0,0,0,0,0,0,0,0,0,0],"sum_hessian":[3.9982334E3,6.5157715E1,3.9330757E3,3.5421085E0,6.161561E1,3.7771374E1,3.8953044E3,2.343363E1,3.818198E1,1.7223558E1,2.0547815E1,3.5425063E3,3.5279797E2],"tree_param":{"num_deleted":"0","num_feature":"10","num_nodes":"13","size_leaf_vector":"1"}},{"base_weights":[-2.0234167E-4,-4.450332E-3,1.8787013E-1,8.935586E-3,-9.168675E-2,5.8047973E-2,1.0684066E0,1.1156603E-3,1.3689029E-1,-1.9632518E-2,-4.9239603E-1,1.3548994E-1,-9.592717E-2,2.4970513E-2,3.7577143E-1],"categories":[],"categories_nodes":[],"categories_segments":[],"categories_sizes":[],"default_left":[0,0,0,0,0,0,0,0,0,0,0,0,0,0,0],"id":27,"left_children":[1,3,5,7,9,11,13,-1,-1,-1,-1,-1,-1,-1,-1],"loss_changes":[3.1943536E0,4.566597E0,1.0033497E1,7.911442E0,2.1050495E1,1.1746524E1,1.9441652E0,0E0,0E0,0E0,0E0,0E0,0E0,0E0,0E0],"parents":[2147483647,0,0,1,1,2,2,3,3,4,4,5,5,6,6],"right_children":[2,4,6,8,10,12,14,-1,-1,-1,-1,-1,-1,-1,-1],"split_conditions":[1.651013E0,1.1341509E0,7.51764E-1,1.1072487E0,4.7386926E-1,-6.2456363E-1,-8.712222E-1,1.1156603E-3,1.3689029E-1,-1.9632518E-2,-4.9239603E-1,1.3548994E-1,-9.592717E-2,2.4970513E-2,3.7577143E-1],"split_indices":[6,7,4,7,2,2,8,0,0,0,0,0,0,0,0],"split_type":[0,0,0,0,0,0,0,0,0,0,0,0,0,0,0],"sum_hessian":[3.9962432E3,3.9089287E3,8.7314575E1,3.389697E3,5.192316E2,7.702438E1,1.029019E1,3.3516223E3,3.8074883E1,5.1160907E2,7.6225247E0,3.762866E1,3.9395725E1,1.8493305E0,8.440859E0],"tree_param":{"num_deleted":"0","num_feature":"10","num_nodes":"15","size_leaf_vector":"1"}},{"base_weights":[-1.2448423E-4,-3.7973437E-1,1.9618773E-3,6.519674E-2,-9.730148E-1,1.9995189E-1,-3.0093752E-3,1.4221862E-1,-3.552096E-1,1.6309085E-1,-3.7957075E-1,-1.4703253E-1,1.518129E-1,-3.6804116E-1,-8.3612584E-5],"categories":[],"categories_nodes":[],"categories_segments":[],"categories_sizes":[],"default_left":[0,0,0,0,0,0,0,0,0,0,0,0,0,0,0],"id":28,"left_children":[1,3,5,7,9,11,13,-1,-1,-1,-1,-1,-1,-1,-1],"loss_changes":[3.1647813E0,5.8289914E0,3.9121783E0,7.415062E0,4.864172E0,2.0811619E1,1.2958325E1,0E0,0E0,0E0,0E0,0E0,0E0,0E0,0E0],"parents":[2147483647,0,0,1,1,2,2,3,3,4,4,5,5,6,6],"right_children":[2,4,6,8,10,12,14,-1,-1,-1,-1,-1,-1,-1,-1],"split_conditions":[-1.940693E0,-1.9760473E0,-1.7929298E0,5.660209E-1,-1.7048861E0,-2.055816E-1,-1.668649E0,1.4221862E-1,-3.552096E-1,1.6309085E-1,-3.7957075E-1,-1.4703253E-1,1.518129E-1,-3.6804116E-1,-8.3612584E-5],"split_indices":[5,5,5,0,6,3,4,0,0,0,0,0,0,0,0],"split_type":[0,0,0,0,0,0,0,0,0,0,0,0,0,0,0],"sum_hessian":[3.9939778E3,2.0841793E1,3.9731362E3,1.2418578E1,8.423215E0,9.635574E1,3.8767803E3,9.823816E0,2.5947618E0,1.2217698E0,7.2014446E0,2.9422853E1,6.6932884E1,7.6330457E0,3.8691472E3],"tree_param":{"num_deleted":"0","num_feature":"10","num_nodes":"15","size_leaf_vector":"1"}},{"base_weights":[-3.5998013E-4,-2.3225513E-1,3.2999453E-3,-7.2313085E-2,-4.3221283E-1,5.414822E-1,-1.9607157E-3,-1.5804002E-1,7.4537314E-2,-3.9413658E-1,2.0333059E-1,1.8085808E-3,-4.5573033E-2],"categories":[],"categories_nodes":[],"categories_segments":[],"categories_sizes":[],"default_left":[0,0,0,0,0,0,0,0,0,0,0,0,0],"id":29,"left_children":[1,3,5,7,-1,9,11,-1,-1,-1,-1,-1,-1],"loss_changes":[3.3886662E0,1.1886321E1,1.1129765E1,8.271294E0,0E0,1.0512371E1,4.665531E0,0E0,0E0,0E0,0E0,0E0,0E0],"parents":[2147483647,0,0,1,1,2,2,3,3,5,5,6,6],"right_children":[2,4,6,8,-1,10,12,-1,-1,-1,-1,-1,-1],"split_conditions":[-1.864545E0,1.3643067E0,-1.8192189E0,-2.1436736E-1,-4.3221283E-1,-1.2218851E0,1.9719762E0,-1.5804002E-1,7.4537314E-2,-3.9413658E-1,2.0333059E-1,1.8085808E-3,-4.5573033E-2],"split_indices":[5,2,5,3,0,8,8,0,0,0,0,0,0],"split_type":[0,0,0,0,0,0,0,0,0,0,0,0,0],"sum_hessian":[3.9907808E3,6.103611E1,3.9297446E3,5.4837997E1,6.198111E0,3.705418E1,3.8926904E3,2.2424023E1,3.2413975E1,1.9444468E0,3.5109734E1,3.6966902E3,1.9600021E2],"tree_param":{"num_deleted":"0","num_feature":"10","num_nodes":"13","size_leaf_vector":"1"}},{"base_weights":[-4.808473E-4,-3.6573764E-3,2.3428123E-1,2.0762875E-3,-5.4510033E-1,-4.9622965E-1,7.3543644E-1,-8.319227E-4,1.4145884E-1,3.2379873E-2,-2.3096853E-1,-3.1400132E-1,5.3062018E-2,3.257612E-1,-4.543498E-1],"categories":[],"categories_nodes":[],"categories_segments":[],"categories_sizes":[],"default_left":[0,0,0,0,0,0,0,0,0,0,0,0,0,0,0],"id":30,"left_children":[1,3,5,7,9,11,13,-1,-1,-1,-1,-1,-1,-1,-1],"loss_changes":[2.9758189E0,1.2223553E1,1.9868458E1,8.872571E0,6.139827E0,8.437658E0,2.68751E1,0E0,0E0,0E0,0E0,0E0,0E0,0E0,0E0],"parents":[2147483647,0,0,1,1,2,2,3,3,4,4,5,5,6,6],"right_children":[2,4,6,8,10,12,14,-1,-1,-1,-1,-1,-1,-1,-1],"split_conditions":[1.6991223E0,1.6500438E0,-2.4760851E-1,1.6161724E0,-1.0488812E0,-1.0701714E-1,2.8684837E-1,-8.319227E-4,1.4145884E-1,3.2379873E-2,-2.3096853E-1,-3.1400132E-1,5.3062018E-2,3.257612E-1,-4.543498E-1],"split_indices":[4,4,2,4,9,9,2,0,0,0,0,0,0,0,0],"split_type":[0,0,0,0,0,0,0,0,0,0,0,0,0,0,0],"sum_hessian":[3.9883362E3,3.9360623E3,5.2273827E1,3.8958035E3,4.025883E1,2.1273806E1,3.100002E1,3.856956E3,3.884754E1,1.0442634E1,2.9816198E1,1.1397947E1,9.875859E0,2.727001E1,3.7300076E0],"tree_param":{"num_deleted":"0","num_feature":"10","num_nodes":"15","size_leaf_vector":"1"}},{"base_weights":[-4.4808257E-4,3.7229186E-1,-2.4194675E-3,-9.240648E-1,1.0911226E0,-1.701405E-2,5.182781E-2,1.296778E-1,-5.235649E-1,7.785527E-2,4.0073684E-1,-1.9520171E-1,-4.087343E-3,4.039943E-2,-1.9748274E-2],"categories":[],"categories_nodes":[],"categories_segments":[],"categories_sizes":[],"default_left":[0,0,0,0,0,0,0,0,0,0,0,0,0,0,0],"id":31,"left_children":[1,3,5,7,9,11,13,-1,-1,-1,-1,-1,-1,-1,-1],"loss_changes":[2.9306042E0,2.0560926E1,3.1416354E0,9.693324E0,2.4929886E0,6.7068825E0,8.207976E0,0E0,0E0,0E0,0E0,0E0,0E0,0E0,0E0],"parents":[2147483647,0,0,1,1,2,2,3,3,4,4,5,5,6,6],"right_children":[2,4,6,8,10,12,14,-1,-1,-1,-1,-1,-1,-1,-1],"split_conditions":[-1.4318279E0,-9.556062E-2,8.9085E-1,-1.1952628E0,4.5945546E-1,-1.49318E0,-3.4296384E-1,1.296778E-1,-5.235649E-1,7.785527E-2,4.0073684E-1,-1.9520171E-1,-4.087343E-3,4.039943E-2,-1.9748274E-2],"split_indices":[8,1,9,1,0,3,2,0,0,0,0,0,0,0,0],"split_type":[0,0,0,0,0,0,0,0,0,0,0,0,0,0,0],"sum_hessian":[3.986001E3,1.9982374E1,3.9660186E3,7.026002E0,1.2956372E1,3.1257573E3,8.402613E2,2.8281846E0,4.1978173E0,3.4138026E0,9.54257E0,1.5615314E1,3.1101418E3,4.930077E2,3.472536E2],"tree_param":{"num_deleted":"0","num_feature":"10","num_nodes":"15","size_leaf_vector":"1"}},{"base_weights":[-3.101804E-4,1.2073141E-1,-5.7070344E-3,-4.6496794E-1,1.6912444E-1,-5.364004E-1,1.5805057E-3,6.1411347E-2,-3.6104548E-1,5.26439E-2,-2.8337735E-1,4.553169E-2,-1.8130674E-3],"categories":[],"categories_nodes":[],"categories_segments":[],"categories_sizes":[],"default_left":[0,0,0,0,0,0,0,0,0,0,0,0,0],"id":32,"left_children":[1,3,5,-1,7,9,11,-1,-1,-1,-1,-1,-1],"loss_changes":[2.6037927E0,1.4016933E1,1.475808E1,0E0,8.365433E0,1.5186421E1,4.312183E0,0E0,0E0,0E0,0E0,0E0,0E0],"parents":[2147483647,0,0,1,1,2,2,4,4,5,5,6,6],"right_children":[2,4,6,-1,8,10,12,-1,-1,-1,-1,-1,-1],"split_conditions":[-1.3584653E0,-1.3138458E0,-1.2992374E0,-4.6496794E-1,1.6500438E0,-3.5790452E-1,-1.1825192E0,6.1411347E-2,-3.6104548E-1,5.26439E-2,-2.8337735E-1,4.553169E-2,-1.8130674E-3],"split_indices":[3,8,2,0,4,5,2,0,0,0,0,0,0],"split_type":[0,0,0,0,0,0,0,0,0,0,0,0,0],"sum_hessian":[3.9838882E3,1.691347E2,3.8147537E3,3.887942E0,1.6524675E2,5.06915E1,3.764062E3,1.6190091E2,3.345843E0,1.8681421E1,3.201008E1,1.8092796E2,3.583134E3],"tree_param":{"num_deleted":"0","num_feature":"10","num_nodes":"13","size_leaf_vector":"1"}},{"base_weights":[-5.344113E-4,-2.6474368E-2,2.6558053E-2,9.252333E-4,-1.7515312E-1,3.0562994E-1,-6.175442E-3,2.0919982E-3,-1.8225132E-1,3.416912E-2,-1.3920614E-1,1.3444711E-1,-8.5510276E-2,3.4328405E-2,-1.5456283E-2],"categories":[],"categories_nodes":[],"categories_segments":[],"categories_sizes":[],"default_left":[0,0,0,0,0,0,0,0,0,0,0,0,0,0,0],"id":33,"left_children":[1,3,5,7,9,11,13,-1,-1,-1,-1,-1,-1,-1,-1],"loss_changes":[2.7995985E0,8.290571E0,1.7801743E1,6.331355E0,2.6495197E1,1.7350264E1,9.548754E0,0E0,0E0,0E0,0E0,0E0,0E0,0E0,0E0],"parents":[2147483647,0,0,1,1,2,2,3,3,4,4,5,5,6,6],"right_children":[2,4,6,8,10,12,14,-1,-1,-1,-1,-1,-1,-1,-1],"split_conditions":[8.3152175E-2,-1.584694E-1,2.9479173E-1,-1.0694178E-1,-1.3041471E-1,1.1162162E0,-8.835007E-1,2.0919982E-3,-1.8225132E-1,3.416912E-2,-1.3920614E-1,1.3444711E-1,-8.5510276E-2,3.4328405E-2,-1.5456283E-2],"split_indices":[4,5,5,4,3,7,7,0,0,0,0,0,0,0,0],"split_type":[0,0,0,0,0,0,0,0,0,0,0,0,0,0,0],"sum_hessian":[3.9816204E3,2.0340864E3,1.9475339E3,1.7184008E3,3.156856E2,2.0357794E2,1.7439559E3,1.702466E3,1.5934822E1,1.5809561E2,1.5758998E2,1.6419823E2,3.937971E1,4.7611914E2,1.2678368E3],"tree_param":{"num_deleted":"0","num_feature":"10","num_nodes":"15","size_leaf_vector":"1"}},{"base_weights":[-4.4523872E-4,2.6389217E-2,-2.9348155E-2,6.148196E-3,2.2700551E-1,-1.6534809E-2,-4.1338676E-1,2.062426E-2,-2.7455816E-2,-1.0781751E-1,1.0515588E-1,-2.7327938E-2,1.3581358E-2,-4.5326915E-1,-6.95912E-2],"categories":[],"categories_nodes":[],"categories_segments":[],"categories_sizes":[],"default_left":[0,0,0,0,0,0,0,0,0,0,0,0,0,0,0],"id":34,"left_children":[1,3,5,7,9,11,13,-1,-1,-1,-1,-1,-1,-1,-1],"loss_changes":[3.0876691E0,8.381458E0,9.424614E0,1.1477412E1,1.3827163E1,8.55593E0,1.1962606E1,0E0,0E0,0E0,0E0,0E0,0E0,0E0,0E0],"parents":[2147483647,0,0,1,1,2,2,3,3,4,4,5,5,6,6],"right_children":[2,4,6,8,10,12,14,-1,-1,-1,-1,-1,-1,-1,-1],"split_conditions":[-1.1847177E-1,1.450894E0,1.9303287E0,1.3288599E-1,-9.3807906E-1,-6.119416E-2,2.0142813E0,2.062426E-2,-2.7455816E-2,-1.0781751E-1,1.0515588E-1,-2.7327938E-2,1.3581358E-2,-4.5326915E-1,-6.95912E-2],"split_indices":[9,1,3,0,5,1,3,0,0,0,0,0,0,0,0],"split_type":[0,0,0,0,0,0,0,0,0,0,0,0,0,0,0],"sum_hessian":[3.9790393E3,2.0633975E3,1.9156418E3,1.8752284E3,1.8816904E2,1.8547999E3,6.0841854E1,1.1429554E3,7.32273E2,3.240636E1,1.5576268E2,8.40458E2,1.0143419E3,7.590907E0,5.3250946E1],"tree_param":{"num_deleted":"0","num_feature":"10","num_nodes":"15","size_leaf_vector":"1"}},{"base_weights":[-5.013231E-4,-2.4507854E-2,3.0644124E-2,-4.500993E-3,-2.8307122E-1,-1.4322591E-1,8.464829E-2,3.3820357E-2,-1.11614475E-2,1.6987033E-1,-1.3637505E-1,-1.9404829E-2,-1.5253748E-1,1.2894103E-1,1.5475979E-2],"categories":[],"categories_nodes":[],"categories_segments":[],"categories_sizes":[],"default_left":[0,0,0,0,0,0,0,0,0,0,0,0,0,0,0],"id":35,"left_children":[1,3,5,7,9,11,13,-1,-1,-1,-1,-1,-1,-1,-1],"loss_changes":[2.9733884E0,1.1616016E1,1.6265732E1,7.99997E0,2.374934E1,1.1745895E1,1.5056857E1,0E0,0E0,0E0,0E0,0E0,0E0,0E0,0E0],"parents":[2147483647,0,0,1,1,2,2,3,3,4,4,5,5,6,6],"right_children":[2,4,6,8,10,12,14,-1,-1,-1,-1,-1,-1,-1,-1],"split_conditions":[-5.7738426E-4,-9.52717E-2,-9.452216E-1,-8.835007E-1,-1.0687857E0,-1.0718147E0,-7.82314E-1,3.3820357E-2,-1.11614475E-2,1.6987033E-1,-1.3637505E-1,-1.9404829E-2,-1.5253748E-1,1.2894103E-1,1.5475979E-2],"split_indices":[2,3,6,7,8,7,6,0,0,0,0,0,0,0,0],"split_type":[0,0,0,0,0,0,0,0,0,0,0,0,0,0,0],"sum_hessian":[3.9747395E3,2.2447368E3,1.7300027E3,2.0844646E3,1.6027223E2,4.0960373E2,1.3203989E3,4.541166E2,1.630348E3,2.6541397E1,1.3373083E2,3.3807736E2,7.152638E1,1.1437324E2,1.2060256E3],"tree_param":{"num_deleted":"0","num_feature":"10","num_nodes":"15","size_leaf_vector":"1"}},{"base_weights":[-3.3535255E-4,-4.092337E-2,1.533343E-2,2.7302189E-2,-2.384221E-1,2.1656561E-1,-8.836059E-3,2.987168E-3,2.054001E-1,-1.0133868E-1,2.1770929E-1,-4.480321E-2,1.17528975E-1,-4.401319E-2,3.6281308E-3],"categories":[],"categories_nodes":[],"categories_segments":[],"categories_sizes":[],"default_left":[0,0,0,0,0,0,0,0,0,0,0,0,0,0,0],"id":36,"left_children":[1,3,5,7,9,11,13,-1,-1,-1,-1,-1,-1,-1,-1],"loss_changes":[2.5277607E0,1.492324E1,1.3949305E1,9.3849745E0,2.7486984E1,1.977346E1,7.3923993E0,0E0,0E0,0E0,0E0,0E0,0E0,0E0,0E0],"parents":[2147483647,0,0,1,1,2,2,3,3,4,4,5,5,6,6],"right_children":[2,4,6,8,10,12,14,-1,-1,-1,-1,-1,-1,-1,-1],"split_conditions":[-7.0268244E-1,-9.230136E-1,-5.2409625E-1,-9.356449E-1,1.5197463E0,-2.7094087E-1,-1.3049656E0,2.987168E-3,2.054001E-1,-1.0133868E-1,2.1770929E-1,-4.480321E-2,1.17528975E-1,-4.401319E-2,3.6281308E-3],"split_indices":[9,8,8,8,7,4,7,0,0,0,0,0,0,0,0],"split_type":[0,0,0,0,0,0,0,0,0,0,0,0,0,0,0],"sum_hessian":[3.9727E3,1.1060374E3,2.8666626E3,8.226992E2,2.833381E2,3.0653442E2,2.5601282E3,8.025389E2,2.0160322E1,2.5745172E2,2.5886362E1,9.929632E1,2.0723813E2,3.366233E2,2.223505E3],"tree_param":{"num_deleted":"0","num_feature":"10","num_nodes":"15","size_leaf_vector":"1"}},{"base_weights":[-1.2124416E-4,6.0384475E-2,-1.0457685E-2,-7.805206E-3,3.3488798E-1,-2.1924366E-1,-1.6627985E-3,-9.08642E-2,4.1963242E-2,1.979538E-1,-7.843964E-2,9.169393E-2,-1.0265725E-1,1.1258299E-1,-2.370976E-3],"categories":[],"categories_nodes":[],"categories_segments":[],"categories_sizes":[],"default_left":[0,0,0,0,0,0,0,0,0,0,0,0,0,0,0],"id":37,"left_children":[1,3,5,7,9,11,13,-1,-1,-1,-1,-1,-1,-1,-1],"loss_changes":[2.4839396E0,1.0849863E1,6.2284946E0,2.031319E1,2.2522812E1,8.952673E0,7.662101E0,0E0,0E0,0E0,0E0,0E0,0E0,0E0,0E0],"parents":[2147483647,0,0,1,1,2,2,3,3,4,4,5,5,6,6],"right_children":[2,4,6,8,10,12,14,-1,-1,-1,-1,-1,-1,-1,-1],"split_conditions":[-1.2215211E0,-1.2983588E0,-1.0749818E0,-5.219466E-1,-1.8732858E-1,-1.0801544E0,-1.0234337E0,-9.08642E-2,4.1963242E-2,1.979538E-1,-7.843964E-2,9.169393E-2,-1.0265725E-1,1.1258299E-1,-2.370976E-3],"split_indices":[0,1,1,9,8,8,1,0,0,0,0,0,0,0,0],"split_type":[0,0,0,0,0,0,0,0,0,0,0,0,0,0,0],"sum_hessian":[3.9696643E3,5.784995E2,3.3911648E3,4.641669E2,1.1433258E2,1.3610785E2,3.255057E3,1.5447308E2,3.0969382E2,7.393714E1,4.039544E1,2.5548664E1,1.1055918E2,5.2048653E1,3.2030083E3],"tree_param":{"num_deleted":"0","num_feature":"10","num_nodes":"15","size_leaf_vector":"1"}},{"base_weights":[-1.835765E-5,1.2803657E-2,-4.6762105E-2,6.878558E-3,4.933392E-1,-5.954537E-1,-1.9758092E-2,2.9996305E-3,-2.2678813E-1,-6.5364785E-2,2.4865146E-1,-9.816061E-3,-3.7828234E-1,-8.570873E-2,1.0158036E-2],"categories":[],"categories_nodes":[],"categories_segments":[],"categories_sizes":[],"default_left":[0,0,0,0,0,0,0,0,0,0,0,0,0,0,0],"id":38,"left_children":[1,3,5,7,9,11,13,-1,-1,-1,-1,-1,-1,-1,-1],"loss_changes":[2.3786025E0,8.863882E0,1.2646034E1,7.332542E0,9.228563E0,1.4952397E1,1.1634341E1,0E0,0E0,0E0,0E0,0E0,0E0,0E0,0E0],"parents":[2147483647,0,0,1,1,2,2,3,3,4,4,5,5,6,6],"right_children":[2,4,6,8,10,12,14,-1,-1,-1,-1,-1,-1,-1,-1],"split_conditions":[8.976293E-1,8.5683554E-1,9.4839436E-1,9.3632793E-1,-2.759796E-1,-1.8237723E-2,-1.0813376E0,2.9996305E-3,-2.2678813E-1,-6.5364785E-2,2.4865146E-1,-9.816061E-3,-3.7828234E-1,-8.570873E-2,1.0158036E-2],"split_indices":[5,5,5,4,1,1,2,0,0,0,0,0,0,0,0],"split_type":[0,0,0,0,0,0,0,0,0,0,0,0,0,0,0],"sum_hessian":[3.9666445E3,3.1133618E3,8.532827E2,3.076443E3,3.6918842E1,3.903731E1,8.142454E2,3.0648938E3,1.1549317E1,1.1945736E1,2.4973106E1,2.1720072E1,1.731724E1,1.3589581E2,6.783496E2],"tree_param":{"num_deleted":"0","num_feature":"10","num_nodes":"15","size_leaf_vector":"1"}},{"base_weights":[-1.4076103E-4,1.8523838E-1,-3.2156752E-3,3.1061068E-1,-7.668824E-1,-4.2257103E-1,1.7307833E-4,-3.644678E-1,1.0883098E-1,-3.4762758E-1,2.5867748E-1,6.283135E-2,-3.1209978E-1,-9.820973E-3,7.821212E-3],"categories":[],"categories_nodes":[],"categories_segments":[],"categories_sizes":[],"default_left":[0,0,0,0,0,0,0,0,0,0,0,0,0,0,0],"id":39,"left_children":[1,3,5,7,9,11,13,-1,-1,-1,-1,-1,-1,-1,-1],"loss_changes":[2.261404E0,7.965107E0,5.545779E0,5.048642E0,5.9916515E0,1.2431571E1,3.3010108E0,0E0,0E0,0E0,0E0,0E0,0E0,0E0,0E0],"parents":[2147483647,0,0,1,1,2,2,3,3,4,4,5,5,6,6],"right_children":[2,4,6,8,10,12,14,-1,-1,-1,-1,-1,-1,-1,-1],"split_conditions":[-1.9057773E0,1.0961578E0,-1.6843083E0,-1.351489E0,1.1538473E0,-9.475488E-3,-1.8509096E-1,-3.644678E-1,1.0883098E-1,-3.4762758E-1,2.5867748E-1,6.283135E-2,-3.1209978E-1,-9.820973E-3,7.821212E-3],"split_indices":[7,5,6,8,0,4,0,0,0,0,0,0,0,0,0],"split_type":[0,0,0,0,0,0,0,0,0,0,0,0,0,0,0],"sum_hessian":[3.965157E3,6.373094E1,3.901426E3,5.6910866E1,6.820076E0,3.0282597E1,3.8711433E3,1.1445378E0,5.5766327E1,5.7304053E0,1.0896705E0,1.5295406E1,1.4987189E1,1.7046628E3,2.1664807E3],"tree_param":{"num_deleted":"0","num_feature":"10","num_nodes":"15","size_leaf_vector":"1"}},{"base_weights":[-2.8199563E-4,-8.241678E-3,8.2042E-2,9.3582936E-4,-4.932443E-1,1.4255777E-1,-7.827576E-1,-5.0771586E-4,1.7186502E-1,1.2180008E-1,-2.811112E-1,6.598052E-2,-2.0797077E-1,8.590183E-2,-4.1752484E-1],"categories":[],"categories_nodes":[],"categories_segments":[],"categories_sizes":[],"default_left":[0,0,0,0,0,0,0,0,0,0,0,0,0,0,0],"id":40,"left_children":[1,3,5,7,9,11,13,-1,-1,-1,-1,-1,-1,-1,-1],"loss_changes":[2.598349E0,1.609422E1,1.8407167E1,5.336612E0,2.717821E1,2.1337221E1,1.5384525E1,0E0,0E0,0E0,0E0,0E0,0E0,0E0,0E0],"parents":[2147483647,0,0,1,1,2,2,3,3,4,4,5,5,6,6],"right_children":[2,4,6,8,10,12,14,-1,-1,-1,-1,-1,-1,-1,-1],"split_conditions":[1.3998431E0,1.3768269E0,3.0879354E-1,1.361965E0,-9.5236903E-1,2.3685232E-1,1.4651127E0,-5.0771586E-4,1.7186502E-1,1.2180008E-1,-2.811112E-1,6.598052E-2,-2.0797077E-1,8.590183E-2,-4.1752484E-1],"split_indices":[5,4,2,4,3,8,5,0,0,0,0,0,0,0,0],"split_type":[0,0,0,0,0,0,0,0,0,0,0,0,0,0,0],"sum_hessian":[3.9632612E3,3.6146687E3,3.4859256E2,3.5485195E3,6.6149124E1,3.265751E2,2.2017471E1,3.5332805E3,1.5239102E1,2.1886442E1,4.4262684E1,2.9957727E2,2.6997833E1,8.18259E0,1.3834882E1],"tree_param":{"num_deleted":"0","num_feature":"10","num_nodes":"15","size_leaf_vector":"1"}},{"base_weights":[-3.6819637E-4,8.36614E-3,-6.667108E-2,-8.970126E-3,1.4358889E-1,-1.0547479E0,-2.7583323E-2,-1.4893103E-3,-1.9610456E-1,2.2971425E-2,1.6560811E-1,-4.4040498E-1,1.08306065E-1,2.3605395E-3,-2.963365E-1],"categories":[],"categories_nodes":[],"categories_segments":[],"categories_sizes":[],"default_left":[0,0,0,0,0,0,0,0,0,0,0,0,0,0,0],"id":41,"left_children":[1,3,5,7,9,11,13,-1,-1,-1,-1,-1,-1,-1,-1],"loss_changes":[2.2945826E0,8.2087145E0,1.7783426E1,8.013453E0,1.0849484E1,1.078306E1,1.514515E1,0E0,0E0,0E0,0E0,0E0,0E0,0E0,0E0],"parents":[2147483647,0,0,1,1,2,2,3,3,4,4,5,5,6,6],"right_children":[2,4,6,8,10,12,14,-1,-1,-1,-1,-1,-1,-1,-1],"split_conditions":[1.3477979E0,1.0127331E0,1.3649812E0,1.0816584E0,1.5053521E0,1.4907304E0,1.5486026E0,-1.4893103E-3,-1.9610456E-1,2.2971425E-2,1.6560811E-1,-4.4040498E-1,1.08306065E-1,2.3605395E-3,-2.963365E-1],"split_indices":[1,1,1,0,8,0,4,0,0,0,0,0,0,0,0],"split_type":[0,0,0,0,0,0,0,0,0,0,0,0,0,0,0],"sum_hessian":[3.9602817E3,3.500077E3,4.602049E2,3.1031682E3,3.9690875E2,1.6523855E1,4.4368103E2,3.085008E3,1.816024E1,3.4198288E2,5.492588E1,1.27617445E1,3.7621105E0,4.2883963E2,1.484141E1],"tree_param":{"num_deleted":"0","num_feature":"10","num_nodes":"15","size_leaf_vector":"1"}},{"base_weights":[-4.510798E-4,5.447674E-2,-1.1271262E-2,1.5709896E-2,5.521804E-1,-9.674798E-2,4.93746E-3,4.6693705E-2,-3.7366044E-2,-1.7539796E-1,2.1716118E-1,-1.054806E-2,-1.8321468E-1,8.666396E-2,-1.5303591E-3],"categories":[],"categories_nodes":[],"categories_segments":[],"categories_sizes":[],"default_left":[0,0,0,0,0,0,0,0,0,0,0,0,0,0,0],"id":42,"left_children":[1,3,5,7,9,11,13,-1,-1,-1,-1,-1,-1,-1,-1],"loss_changes":[2.3531082E0,1.2563175E1,4.5831294E0,1.190454E1,9.607755E0,1.666946E1,7.9294767E0,0E0,0E0,0E0,0E0,0E0,0E0,0E0,0E0],"parents":[2147483647,0,0,1,1,2,2,3,3,4,4,5,5,6,6],"right_children":[2,4,6,8,10,12,14,-1,-1,-1,-1,-1,-1,-1,-1],"split_conditions":[-1.1562068E0,1.4761016E0,-6.625941E-1,-1.3024412E-1,-9.8269564E-1,-6.697892E-1,-5.852712E-1,4.6693705E-2,-3.7366044E-2,-1.7539796E-1,2.1716118E-1,-1.054806E-2,-1.8321468E-1,8.666396E-2,-1.5303591E-3],"split_indices":[0,6,1,7,9,0,1,0,0,0,0,0,0,0,0],"split_type":[0,0,0,0,0,0,0,0,0,0,0,0,0,0,0],"sum_hessian":[3.9572356E3,6.5058026E2,3.3066555E3,6.0452454E2,4.6055714E1,5.262909E2,2.7803645E3,3.0256076E2,3.0196378E2,5.727298E0,4.0328415E1,4.7092877E2,5.5362106E1,9.3993416E1,2.686371E3],"tree_param":{"num_deleted":"0","num_feature":"10","num_nodes":"15","size_leaf_vector":"1"}},{"base_weights":[-3.1366837E-4,-2.8717581E-2,2.1250516E-2,1.1522671E-2,-1.4918122E-1,3.6062393E-1,5.5007352E-3,-7.8784665E-3,8.534147E-2,-1.11453846E-1,-8.685628E-3,6.376737E-2,4.0347835E-1,2.994496E-3,-2.3714201E-1],"categories":[],"categories_nodes":[],"categories_segments":[],"categories_sizes":[],"default_left":[0,0,0,0,0,0,0,0,0,0,0,0,0,0,0],"id":43,"left_children":[1,3,5,7,9,11,13,-1,-1,-1,-1,-1,-1,-1,-1],"loss_changes":[2.4233446E0,8.278465E0,1.2019091E1,1.3216755E1,1.1419633E1,1.4248742E1,7.677278E0,0E0,0E0,0E0,0E0,0E0,0E0,0E0,0E0],"parents":[2147483647,0,0,1,1,2,2,3,3,4,4,5,5,6,6],"right_children":[2,4,6,8,10,12,14,-1,-1,-1,-1,-1,-1,-1,-1],"split_conditions":[-2.2499809E-1,8.574275E-1,-1.3024412E-1,4.3813524E-1,1.4070894E0,-1.3921145E-1,2.2956061E0,-7.8784665E-3,8.534147E-2,-1.11453846E-1,-8.685628E-3,6.376737E-2,4.0347835E-1,2.994496E-3,-2.3714201E-1],"split_indices":[6,2,7,2,3,7,8,0,0,0,0,0,0,0,0],"split_type":[0,0,0,0,0,0,0,0,0,0,0,0,0,0,0],"sum_hessian":[3.9544382E3,1.7064304E3,2.2480078E3,1.2798182E3,4.2661227E2,9.872843E1,2.1492793E3,1.12499E3,1.5482822E2,1.489953E2,2.7761697E2,8.6875885E1,1.1852545E1,2.1382297E3,1.1049654E1],"tree_param":{"num_deleted":"0","num_feature":"10","num_nodes":"15","size_leaf_vector":"1"}},{"base_weights":[-1.870935E-4,-2.9170937E-3,2.1076204E-1,5.5639155E-4,-3.418732E-1,-1.822764E-1,7.50369E-1,-8.133678E-4,9.643983E-2,1.5128887E-1,-1.5125385E-1,3.9669614E-2,-3.2091087E-1,3.290534E-1,-3.1285238E-1],"categories":[],"categories_nodes":[],"categories_segments":[],"categories_sizes":[],"default_left":[0,0,0,0,0,0,0,0,0,0,0,0,0,0,0],"id":44,"left_children":[1,3,5,7,9,11,13,-1,-1,-1,-1,-1,-1,-1,-1],"loss_changes":[2.2774794E0,4.5967307E0,1.0852641E1,4.054281E0,5.6933517E0,8.525068E0,1.4494573E1,0E0,0E0,0E0,0E0,0E0,0E0,0E0,0E0],"parents":[2147483647,0,0,1,1,2,2,3,3,4,4,5,5,6,6],"right_children":[2,4,6,8,10,12,14,-1,-1,-1,-1,-1,-1,-1,-1],"split_conditions":[1.6991223E0,1.6500438E0,-1.1904357E-1,1.6161724E0,-1.47853E0,4.8180056E-1,2.8684837E-1,-8.133678E-4,9.643983E-2,1.5128887E-1,-1.5125385E-1,3.9669614E-2,-3.2091087E-1,3.290534E-1,-3.1285238E-1],"split_indices":[4,4,2,4,6,0,2,0,0,0,0,0,0,0,0],"split_type":[0,0,0,0,0,0,0,0,0,0,0,0,0,0,0],"sum_hessian":[3.952637E3,3.903111E3,4.9525978E1,3.8645076E3,3.8603554E1,2.9037716E1,2.048826E1,3.826536E3,3.7971607E1,5.8738236E0,3.272973E1,2.2067778E1,6.9699388E0,1.7496084E1,2.9921772E0],"tree_param":{"num_deleted":"0","num_feature":"10","num_nodes":"15","size_leaf_vector":"1"}},{"base_weights":[-1.5867365E-4,-8.927139E-2,5.6597544E-3,-8.879691E-1,-4.0384468E-2,2.7166197E-1,-4.069702E-3,-6.403894E-2,-4.9833283E-1,4.889151E-4,-2.8267956E-1,1.2969923E-1,-9.648328E-3,1.5898377E-3,-3.1198757E-2],"categories":[],"categories_nodes":[],"categories_segments":[],"categories_sizes":[],"default_left":[0,0,0,0,0,0,0,0,0,0,0,0,0,0,0],"id":45,"left_children":[1,3,5,7,9,11,13,-1,-1,-1,-1,-1,-1,-1,-1],"loss_changes":[2.0488162E0,9.420619E0,9.600976E0,6.9052095E0,8.688897E0,6.4038153E0,3.3516681E0,0E0,0E0,0E0,0E0,0E0,0E0,0E0,0E0],"parents":[2147483647,0,0,1,1,2,2,3,3,4,4,5,5,6,6],"right_children":[2,4,6,8,10,12,14,-1,-1,-1,-1,-1,-1,-1,-1],"split_conditions":[-1.573284E0,-1.5218794E0,-1.4209011E0,-1.603153E0,1.9378694E0,5.512739E-1,1.416083E0,-6.403894E-2,-4.9833283E-1,4.889151E-4,-2.8267956E-1,1.2969923E-1,-9.648328E-3,1.5898377E-3,-3.1198757E-2],"split_indices":[1,5,0,4,8,7,6,0,0,0,0,0,0,0,0],"split_type":[0,0,0,0,0,0,0,0,0,0,0,0,0,0,0],"sum_hessian":[3.949486E3,2.41189E2,3.7082969E3,1.2921311E1,2.2826768E2,1.2990086E2,3.5783962E3,7.58237E0,5.338941E0,2.1906091E2,9.206778E0,8.469119E1,4.5209663E1,3.2725098E3,3.0588632E2],"tree_param":{"num_deleted":"0","num_feature":"10","num_nodes":"15","size_leaf_vector":"1"}},{"base_weights":[-3.1278408E-4,-2.3604138E-2,3.139514E-2,-1.0351626E-2,-5.465762E-1,5.4063004E-1,1.9440498E-2,-7.2014555E-2,-1.5270783E-4,-2.0367368E-1,2.2216599E-1,-1.913481E-1,2.0995852E-1,-4.7301483E-1,7.6986933E-3],"categories":[],"categories_nodes":[],"categories_segments":[],"categories_sizes":[],"default_left":[0,0,0,0,0,0,0,0,0,0,0,0,0,0,0],"id":46,"left_children":[1,3,5,7,9,11,13,-1,-1,-1,-1,-1,-1,-1,-1],"loss_changes":[2.9170146E0,1.5776343E1,1.0172345E1,5.023087E0,1.0085478E1,7.638835E0,1.6281178E1,0E0,0E0,0E0,0E0,0E0,0E0,0E0,0E0],"parents":[2147483647,0,0,1,1,2,2,3,3,4,4,5,5,6,6],"right_children":[2,4,6,8,10,12,14,-1,-1,-1,-1,-1,-1,-1,-1],"split_conditions":[3.7192705E-1,2.9116234E-1,3.9882883E-1,-1.6763817E0,1.9867206E0,-1.0217952E0,1.2996933E-1,-7.2014555E-2,-1.5270783E-4,-2.0367368E-1,2.2216599E-1,-1.913481E-1,2.0995852E-1,-4.7301483E-1,7.6986933E-3],"split_indices":[7,6,7,1,9,8,6,0,0,0,0,0,0,0,0],"split_type":[0,0,0,0,0,0,0,0,0,0,0,0,0,0,0],"sum_hessian":[3.9478044E3,2.276117E3,1.6716874E3,2.2208584E3,5.525846E1,3.7329514E1,1.6343579E3,9.029333E1,2.1305652E3,5.053523E1,4.723235E0,4.085737E0,3.3243774E1,5.365882E0,1.6289921E3],"tree_param":{"num_deleted":"0","num_feature":"10","num_nodes":"15","size_leaf_vector":"1"}},{"base_weights":[-3.6212837E-4,2.6011083E-1,-2.8798357E-3,-1.3627446E-1,6.548975E-1,-2.6296368E-1,7.076613E-5,-4.8367652E-1,4.1413795E-2,4.4808395E-2,3.104205E-1,1.3307498E-2,-2.6776573E-1,9.2495605E-2,-8.0269744E-4],"categories":[],"categories_nodes":[],"categories_segments":[],"categories_sizes":[],"default_left":[0,0,0,0,0,0,0,0,0,0,0,0,0,0,0],"id":47,"left_children":[1,3,5,7,9,11,13,-1,-1,-1,-1,-1,-1,-1,-1],"loss_changes":[2.5894926E0,6.004751E0,3.0010967E0,8.195059E0,3.515234E0,8.5275755E0,3.275243E0,0E0,0E0,0E0,0E0,0E0,0E0,0E0,0E0],"parents":[2147483647,0,0,1,1,2,2,3,3,4,4,5,5,6,6],"right_children":[2,4,6,8,10,12,14,-1,-1,-1,-1,-1,-1,-1,-1],"split_conditions":[-1.8911672E0,3.427077E-1,-1.6821563E0,-9.212141E-1,1.313667E-1,1.0371152E-1,-1.6632502E0,-4.8367652E-1,4.1413795E-2,4.4808395E-2,3.104205E-1,1.3307498E-2,-2.6776573E-1,9.2495605E-2,-8.0269744E-4],"split_indices":[1,8,0,6,4,8,0,0,0,0,0,0,0,0,0],"split_type":[0,0,0,0,0,0,0,0,0,0,0,0,0,0,0],"sum_hessian":[3.946491E3,3.6801746E1,3.9096892E3,1.869044E1,1.8111307E1,4.2868614E1,3.8668206E3,2.1649048E0,1.6525534E1,8.367712E0,9.743595E0,2.9431646E1,1.3436968E1,3.316574E1,3.8336548E3],"tree_param":{"num_deleted":"0","num_feature":"10","num_nodes":"15","size_leaf_vector":"1"}},{"base_weights":[-2.8947278E-4,-2.0898664E-2,2.6427478E-2,-1.7787755E-2,-1.1240066E0,9.9657863E-1,2.1203483E-2,2.5072085E-2,-1.3726497E-2,-4.530706E-1,1.07497506E-1,-3.7598318E-1,4.7850138E-1,1.0799908E-2,-8.059114E-2],"categories":[],"categories_nodes":[],"categories_segments":[],"categories_sizes":[],"default_left":[0,0,0,0,0,0,0,0,0,0,0,0,0,0,0],"id":48,"left_children":[1,3,5,7,9,11,13,-1,-1,-1,-1,-1,-1,-1,-1],"loss_changes":[2.1732874E0,7.6264415E0,8.6899605E0,6.305427E0,4.1194315E0,1.4364145E1,7.3458056E0,0E0,0E0,0E0,0E0,0E0,0E0,0E0,0E0],"parents":[2147483647,0,0,1,1,2,2,3,3,4,4,5,5,6,6],"right_children":[2,4,6,8,10,12,14,-1,-1,-1,-1,-1,-1,-1,-1],"split_conditions":[-5.7738426E-4,5.6038145E-2,-3.7676293E-2,-8.835007E-1,1.361965E0,4.6950316E-1,1.411735E0,2.5072085E-2,-1.3726497E-2,-4.530706E-1,1.07497506E-1,-3.7598318E-1,4.7850138E-1,1.0799908E-2,-8.059114E-2],"split_indices":[2,3,3,7,4,6,4,0,0,0,0,0,0,0,0],"split_type":[0,0,0,0,0,0,0,0,0,0,0,0,0,0,0],"sum_hessian":[3.9450168E3,2.2271968E3,1.71782E3,2.2219468E3,5.2500577E0,8.18406E0,1.7096359E3,4.800647E2,1.7418821E3,4.1499453E0,1.1001123E0,1.4895658E0,6.6944942E0,1.6274321E3,8.220376E1],"tree_param":{"num_deleted":"0","num_feature":"10","num_nodes":"15","size_leaf_vector":"1"}},{"base_weights":[-2.6145592E-4,-1.83636E-2,3.2626525E-2,-5.348846E-3,-4.985447E-1,4.605376E-3,3.5146046E-1,-7.775529E-2,1.5201695E-3,-5.5420574E-2,-4.789044E-1,6.9418163E-3,-4.0225524E-1,1.6837065E-1,-3.8031172E-2],"categories":[],"categories_nodes":[],"categories_segments":[],"categories_sizes":[],"default_left":[0,0,0,0,0,0,0,0,0,0,0,0,0,0,0],"id":49,"left_children":[1,3,5,7,9,11,13,-1,-1,-1,-1,-1,-1,-1,-1],"loss_changes":[2.348929E0,1.5900853E1,1.2512433E1,6.5547853E0,2.2835817E1,3.216353E1,1.1421936E1,0E0,0E0,0E0,0E0,0E0,0E0,0E0,0E0],"parents":[2147483647,0,0,1,1,2,2,3,3,4,4,5,5,6,6],"right_children":[2,4,6,8,10,12,14,-1,-1,-1,-1,-1,-1,-1,-1],"split_conditions":[5.1923305E-1,4.4035128E-1,1.0999812E0,-1.6763817E0,5.7033557E-1,9.0020996E-1,7.781706E-1,-7.775529E-2,1.5201695E-3,-5.5420574E-2,-4.789044E-1,6.9418163E-3,-4.0225524E-1,1.6837065E-1,-3.8031172E-2],"split_indices":[6,6,4,1,8,4,6,0,0,0,0,0,0,0,0],"split_type":[0,0,0,0,0,0,0,0,0,0,0,0,0,0,0],"sum_hessian":[3.9434993E3,2.5437917E3,1.3997076E3,2.477649E3,6.614268E1,1.2875629E3,1.1214475E2,9.6720795E1,2.3809282E3,5.2347347E1,1.3795327E1,1.2710367E3,1.6526064E1,7.783085E1,3.4313904E1],"tree_param":{"num_deleted":"0","num_feature":"10","num_nodes":"15","size_leaf_vector":"1"}},{"base_weights":[-4.5297993E-4,2.0294681E-1,-3.6876574E-3,3.377003E-1,-1.013539E0,-4.1369784E-1,-1.2662803E-3,6.0788587E-2,3.6845094E-1,1.6831183E-1,-4.6335202E-1,2.5059786E-3,-4.2765763E-1,9.036632E-2,-1.1283514E-3],"categories":[],"categories_nodes":[],"categories_segments":[],"categories_sizes":[],"default_left":[0,0,0,0,0,0,0,0,0,0,0,0,0,0,0],"id":50,"left_children":[1,3,5,7,9,11,13,-1,-1,-1,-1,-1,-1,-1,-1],"loss_changes":[2.5944011E0,1.0461123E1,3.8528852E0,6.525446E0,6.2221203E0,9.74188E0,2.9138772E0,0E0,0E0,0E0,0E0,0E0,0E0,0E0,0E0],"parents":[2147483647,0,0,1,1,2,2,3,3,4,4,5,5,6,6],"right_children":[2,4,6,8,10,12,14,-1,-1,-1,-1,-1,-1,-1,-1],"split_conditions":[-1.8568007E0,9.637715E-1,-1.6821563E0,8.2790047E-1,-1.2168894E0,1.0371152E-1,-1.6632502E0,6.0788587E-2,3.6845094E-1,1.6831183E-1,-4.6335202E-1,2.5059786E-3,-4.2765763E-1,9.036632E-2,-1.1283514E-3],"split_indices":[1,7,0,6,9,8,0,0,0,0,0,0,0,0,0],"split_type":[0,0,0,0,0,0,0,0,0,0,0,0,0,0,0],"sum_hessian":[3.9411248E3,6.072828E1,3.8803965E3,5.5322456E1,5.4058237E0,2.1784529E1,3.858612E3,4.9101936E1,6.220519E0,1.3489356E0,4.056888E0,1.6072252E1,5.7122755E0,3.0585686E1,3.8280264E3],"tree_param":{"num_deleted":"0","num_feature":"10","num_nodes":"15","size_leaf_vector":"1"}},{"base_weights":[-4.001279E-4,-1.8625814E-1,2.5021979E-3,-3.821834E-1,6.3787746E-1,4.1560328E-1,-1.5467244E-3,-2.5599492E-1,4.884525E-3,2.861763E-1,-3.6373997E-1,-1.2702313E-1,2.1658729E-1,-9.746827E-2,5.4148224E-4],"categories":[],"categories_nodes":[],"categories_segments":[],"categories_sizes":[],"default_left":[0,0,0,0,0,0,0,0,0,0,0,0,0,0,0],"id":51,"left_children":[1,3,5,7,9,11,13,-1,-1,-1,-1,-1,-1,-1,-1],"loss_changes":[2.125909E0,1.0028352E1,6.4914513E0,9.322203E0,8.182077E0,9.988152E0,4.166495E0,0E0,0E0,0E0,0E0,0E0,0E0,0E0,0E0],"parents":[2147483647,0,0,1,1,2,2,3,3,4,4,5,5,6,6],"right_children":[2,4,6,8,10,12,14,-1,-1,-1,-1,-1,-1,-1,-1],"split_conditions":[-1.6881768E0,1.7582434E0,-1.8192189E0,5.2437174E-1,-1.6952621E0,-2.0216393E-1,-1.7439774E0,-2.5599492E-1,4.884525E-3,2.861763E-1,-3.6373997E-1,-1.2702313E-1,2.1658729E-1,-9.746827E-2,5.4148224E-4],"split_indices":[4,8,5,7,4,2,5,0,0,0,0,0,0,0,0],"split_type":[0,0,0,0,0,0,0,0,0,0,0,0,0,0,0],"sum_hessian":[3.9392341E3,5.9597183E1,3.879637E3,4.8583485E1,1.1013698E1,3.6669765E1,3.842967E3,2.173875E1,2.6844736E1,9.820751E0,1.1929466E0,9.705951E0,2.6963816E1,3.844147E1,3.8045256E3],"tree_param":{"num_deleted":"0","num_feature":"10","num_nodes":"15","size_leaf_vector":"1"}},{"base_weights":[-3.4304007E-4,4.0424217E-2,-1.3377136E-2,-1.6160018E-3,4.421204E-1,-6.9285434E-1,-7.6227267E-3,2.1040243E-1,-5.0286553E-3,2.8685045E-1,2.4063576E-3,5.3462546E-2,-3.367176E-1,1.03512384E-1,-4.6801637E-3],"categories":[],"categories_nodes":[],"categories_segments":[],"categories_sizes":[],"default_left":[0,0,0,0,0,0,0,0,0,0,0,0,0,0,0],"id":52,"left_children":[1,3,5,7,9,11,13,-1,-1,-1,-1,-1,-1,-1,-1],"loss_changes":[2.0926197E0,1.6112705E1,1.1662518E1,9.218203E0,2.0163746E1,9.572064E0,8.333454E0,0E0,0E0,0E0,0E0,0E0,0E0,0E0,0E0],"parents":[2147483647,0,0,1,1,2,2,3,3,4,4,5,5,6,6],"right_children":[2,4,6,8,10,12,14,-1,-1,-1,-1,-1,-1,-1,-1],"split_conditions":[-8.592115E-1,-9.262942E-1,-9.8396564E-1,-1.6894529E0,-4.6396846E-1,-1.0833329E0,-8.633424E-1,2.1040243E-1,-5.0286553E-3,2.8685045E-1,2.4063576E-3,5.3462546E-2,-3.367176E-1,1.03512384E-1,-4.6801637E-3],"split_indices":[5,5,4,6,8,4,4,0,0,0,0,0,0,0,0],"split_type":[0,0,0,0,0,0,0,0,0,0,0,0,0,0,0],"sum_hessian":[3.9361833E3,9.530838E2,2.9830994E3,8.636889E2,8.93949E1,2.4048618E1,2.9590508E3,1.726129E1,8.464276E2,4.0377907E1,4.9016994E1,8.13556E0,1.5913057E1,6.452304E1,2.8945278E3],"tree_param":{"num_deleted":"0","num_feature":"10","num_nodes":"15","size_leaf_vector":"1"}},{"base_weights":[-1.3459972E-4,2.35226E-3,-2.1120618E-1,-2.3717368E-2,2.2062656E-2,-6.906653E-2,-3.4177E-1,-1.0386452E-3,-8.722595E-2,3.6821745E-3,1.6624704E-1,-3.425162E-1,2.2268109E-2],"categories":[],"categories_nodes":[],"categories_segments":[],"categories_sizes":[],"default_left":[0,0,0,0,0,0,0,0,0,0,0,0,0],"id":53,"left_children":[1,3,5,7,9,11,-1,-1,-1,-1,-1,-1,-1],"loss_changes":[2.0661001E0,1.9995539E0,5.967492E0,9.061325E0,1.153477E1,6.357796E0,0E0,0E0,0E0,0E0,0E0,0E0,0E0],"parents":[2147483647,0,0,1,1,2,2,3,3,4,4,5,5],"right_children":[2,4,6,8,10,12,-1,-1,-1,-1,-1,-1,-1],"split_conditions":[2.3017423E0,-2.2499809E-1,2.531824E-1,1.9378694E0,2.2132776E0,-1.3173372E0,-3.4177E-1,-1.0386452E-3,-8.722595E-2,3.6821745E-3,1.6624704E-1,-3.425162E-1,2.2268109E-2],"split_indices":[2,6,9,8,9,6,0,0,0,0,0,0,0],"split_type":[0,0,0,0,0,0,0,0,0,0,0,0,0],"sum_hessian":[3.9341912E3,3.8893555E3,4.4835793E1,1.6744579E3,2.2148975E3,3.9812416E1,5.0233765E0,1.5573431E3,1.17114746E2,2.1758916E3,3.900601E1,3.8705907E0,3.5941826E1],"tree_param":{"num_deleted":"0","num_feature":"10","num_nodes":"13","size_leaf_vector":"1"}},{"base_weights":[-3.1450996E-4,6.7904745E-3,-7.055224E-2,3.9765236E-4,3.93611E-1,7.37299E-1,-1.04410805E-1,1.2298047E-3,-2.3681167E-1,-1.134154E-1,2.3076588E-1,3.203734E-1,-3.5265464E-1,-5.0320405E-1,-1.889349E-2],"categories":[],"categories_nodes":[],"categories_segments":[],"categories_sizes":[],"default_left":[0,0,0,0,0,0,0,0,0,0,0,0,0,0,0],"id":54,"left_children":[1,3,5,7,9,11,13,-1,-1,-1,-1,-1,-1,-1,-1],"loss_changes":[1.9633157E0,8.835008E0,9.962507E0,1.0281477E1,1.7126543E1,1.052765E1,2.255731E1,0E0,0E0,0E0,0E0,0E0,0E0,0E0,0E0],"parents":[2147483647,0,0,1,1,2,2,3,3,4,4,5,5,6,6],"right_children":[2,4,6,8,10,12,14,-1,-1,-1,-1,-1,-1,-1,-1],"split_conditions":[1.4185416E0,1.4594857E0,-1.8519734E0,1.4251208E0,-4.70217E-1,1.3643067E0,-1.5779895E0,1.2298047E-3,-2.3681167E-1,-1.134154E-1,2.3076588E-1,3.203734E-1,-3.5265464E-1,-5.0320405E-1,-1.889349E-2],"split_indices":[0,1,7,1,6,2,6,0,0,0,0,0,0,0,0],"split_type":[0,0,0,0,0,0,0,0,0,0,0,0,0,0,0],"sum_hessian":[3.932241E3,3.5718313E3,3.6040967E2,3.5147456E3,5.708571E1,1.3662089E1,3.467476E2,3.4993386E3,1.5406792E1,1.868734E1,3.839837E1,1.202533E1,1.6367599E0,7.8858757E0,3.3886172E2],"tree_param":{"num_deleted":"0","num_feature":"10","num_nodes":"15","size_leaf_vector":"1"}},{"base_weights":[-4.1287526E-4,1.0128145E-3,-3.2461593E-1,-2.8382202E-3,2.136284E-1,-1.2972931E0,4.4816026E-1,1.8700352E-4,-9.3150705E-2,8.822954E-2,-2.4650766E-1,-5.2644104E-1,2.4954586E-1,2.6928794E-1,-3.2864977E-2],"categories":[],"categories_nodes":[],"categories_segments":[],"categories_sizes":[],"default_left":[0,0,0,0,0,0,0,0,0,0,0,0,0,0,0],"id":55,"left_children":[1,3,5,7,9,11,13,-1,-1,-1,-1,-1,-1,-1,-1],"loss_changes":[1.8173516E0,3.2061057E0,1.3521012E1,4.0964603E0,6.0452995E0,9.133891E0,2.689368E0,0E0,0E0,0E0,0E0,0E0,0E0,0E0,0E0],"parents":[2147483647,0,0,1,1,2,2,3,3,4,4,5,5,6,6],"right_children":[2,4,6,8,10,12,14,-1,-1,-1,-1,-1,-1,-1,-1],"split_conditions":[1.7024574E0,1.651013E0,4.4569966E-1,1.602998E0,2.8684837E-1,8.214073E-1,-4.869585E-1,1.8700352E-4,-9.3150705E-2,8.822954E-2,-2.4650766E-1,-5.2644104E-1,2.4954586E-1,2.6928794E-1,-3.2864977E-2],"split_indices":[6,6,1,6,2,4,8,0,0,0,0,0,0,0,0],"split_type":[0,0,0,0,0,0,0,0,0,0,0,0,0,0,0],"sum_hessian":[3.9301377E3,3.9139229E3,1.6214682E1,3.8452617E3,6.8661285E1,6.8783298E0,9.336352E0,3.8034663E3,4.1795273E1,6.437378E1,4.2875023E0,5.806431E0,1.071899E0,4.832383E0,4.5039687E0],"tree_param":{"num_deleted":"0","num_feature":"10","num_nodes":"15","size_leaf_vector":"1"}},{"base_weights":[-3.5829493E-4,1.2593526E-1,-3.789461E-3,7.067418E-1,-8.599018E-3,-3.0169588E-1,-5.572326E-4,5.95528E-3,3.6452147E-1,-1.8780968E-1,4.3724246E-2,-3.5246098E-1,-4.3177158E-3,2.8473685E-2,-1.9477169E-3],"categories":[],"categories_nodes":[],"categories_segments":[],"categories_sizes":[],"default_left":[0,0,0,0,0,0,0,0,0,0,0,0,0,0,0],"id":56,"left_children":[1,3,5,7,9,11,13,-1,-1,-1,-1,-1,-1,-1,-1],"loss_changes":[1.7033856E0,8.130151E0,3.6846743E0,6.8075914E0,8.230185E0,1.0286825E1,2.1462822E0,0E0,0E0,0E0,0E0,0E0,0E0,0E0,0E0],"parents":[2147483647,0,0,1,1,2,2,3,3,4,4,5,5,6,6],"right_children":[2,4,6,8,10,12,14,-1,-1,-1,-1,-1,-1,-1,-1],"split_conditions":[-1.398227E0,-1.0090435E0,-1.3686681E0,-1.4151537E0,-9.6996784E-1,-5.072253E-1,-1.6225034E0,5.95528E-3,3.6452147E-1,-1.8780968E-1,4.3724246E-2,-3.5246098E-1,-4.3177158E-3,2.8473685E-2,-1.9477169E-3],"split_indices":[8,7,8,8,4,3,5,0,0,0,0,0,0,0,0],"split_type":[0,0,0,0,0,0,0,0,0,0,0,0,0,0,0],"sum_hessian":[3.9287812E3,1.0297033E2,3.8258108E3,1.8565739E1,8.440459E1,4.0072674E1,3.7857383E3,8.337956E0,1.0227782E1,1.6268719E1,6.813587E1,9.156104E0,3.0916569E1,2.2069965E2,3.5650386E3],"tree_param":{"num_deleted":"0","num_feature":"10","num_nodes":"15","size_leaf_vector":"1"}},{"base_weights":[-2.540643E-4,-1.8232128E-1,2.4543046E-3,-7.0698105E-2,-3.5227698E-1,8.304556E-1,5.7850336E-4,4.9701393E-2,-1.9134107E-1,6.8855055E-2,3.415952E-1,-2.0947121E-1,6.4189127E-4],"categories":[],"categories_nodes":[],"categories_segments":[],"categories_sizes":[],"default_left":[0,0,0,0,0,0,0,0,0,0,0,0,0],"id":57,"left_children":[1,3,5,7,-1,9,11,-1,-1,-1,-1,-1,-1],"loss_changes":[1.9370269E0,6.2922273E0,6.011416E0,7.1857886E0,0E0,1.3589315E0,4.2158027E0,0E0,0E0,0E0,0E0,0E0,0E0],"parents":[2147483647,0,0,1,1,2,2,3,3,5,5,6,6],"right_children":[2,4,6,8,-1,10,12,-1,-1,-1,-1,-1,-1],"split_conditions":[-1.864545E0,1.3643067E0,-1.6952621E0,8.8791883E-1,-3.5227698E-1,-1.6863392E-1,-1.6881768E0,4.9701393E-2,-1.9134107E-1,6.8855055E-2,3.415952E-1,-2.0947121E-1,6.4189127E-4],"split_indices":[5,2,4,6,0,8,4,0,0,0,0,0,0],"split_type":[0,0,0,0,0,0,0,0,0,0,0,0,0],"sum_hessian":[3.9263152E3,5.6578342E1,3.8697368E3,5.181845E1,4.759894E0,7.748469E0,3.8619883E3,3.7073917E1,1.4744534E1,3.2181745E0,4.5302944E0,7.6136208E0,3.8543748E3],"tree_param":{"num_deleted":"0","num_feature":"10","num_nodes":"13","size_leaf_vector":"1"}},{"base_weights":[-2.904043E-4,4.3069776E-2,-1.0328607E-2,4.8305783E-2,-3.8292712E-1,-8.400763E-1,-4.8594023E-3,9.802712E-3,1.3755469E-1,4.135194E-1,-3.5520494E-1,2.055302E-1,-2.3954276E-3],"categories":[],"categories_nodes":[],"categories_segments":[],"categories_sizes":[],"default_left":[0,0,0,0,0,0,0,0,0,0,0,0,0],"id":58,"left_children":[1,3,5,7,-1,9,11,-1,-1,-1,-1,-1,-1],"loss_changes":[1.7089707E0,5.1611123E0,1.4464219E1,4.704911E0,0E0,1.7557373E1,6.8375893E0,0E0,0E0,0E0,0E0,0E0,0E0],"parents":[2147483647,0,0,1,1,2,2,3,3,5,5,6,6],"right_children":[2,4,6,8,-1,10,12,-1,-1,-1,-1,-1,-1],"split_conditions":[-9.745516E-1,-8.2996136E-1,-1.0094241E0,2.2432864E0,-3.8292712E-1,-1.6534417E0,-9.90333E-1,9.802712E-3,1.3755469E-1,4.135194E-1,-3.5520494E-1,2.055302E-1,-2.3954276E-3],"split_indices":[8,9,9,2,0,6,9,0,0,0,0,0,0],"split_type":[0,0,0,0,0,0,0,0,0,0,0,0,0],"sum_hessian":[3.9243147E3,7.371016E2,3.1872131E3,7.351478E2,1.9538192E0,1.9871382E1,3.1673418E3,7.092049E2,2.5942919E1,2.2635322E0,1.760785E1,1.3298643E1,3.1540432E3],"tree_param":{"num_deleted":"0","num_feature":"10","num_nodes":"13","size_leaf_vector":"1"}},{"base_weights":[-2.1735155E-4,2.2655453E-3,-2.1699303E-1,-2.6755184E-1,3.917146E-3,-1.0665983E0,-8.732447E-2,-2.2870113E-1,3.0833077E-1,1.691252E-1,2.3081199E-4,-4.760546E-1,9.426129E-2,2.1774472E-1,-1.017146E-1],"categories":[],"categories_nodes":[],"categories_segments":[],"categories_sizes":[],"default_left":[0,0,0,0,0,0,0,0,0,0,0,0,0,0,0],"id":59,"left_children":[1,3,5,7,9,11,13,-1,-1,-1,-1,-1,-1,-1,-1],"loss_changes":[2.1127331E0,1.7305224E0,4.80385E0,1.5925513E1,6.798832E0,4.6627016E0,8.362728E0,0E0,0E0,0E0,0E0,0E0,0E0,0E0,0E0],"parents":[2147483647,0,0,1,1,2,2,3,3,4,4,5,5,6,6],"right_children":[2,4,6,8,10,12,14,-1,-1,-1,-1,-1,-1,-1,-1],"split_conditions":[2.3017423E0,-1.49318E0,-1.1978841E0,1.3377584E0,-1.4765846E0,4.2491806E-1,-1.0801544E0,-2.2870113E-1,3.0833077E-1,1.691252E-1,2.3081199E-4,-4.760546E-1,9.426129E-2,2.1774472E-1,-1.017146E-1],"split_indices":[2,3,8,0,3,6,8,0,0,0,0,0,0,0,0],"split_type":[0,0,0,0,0,0,0,0,0,0,0,0,0,0,0],"sum_hessian":[3.9234097E3,3.879959E3,4.3450573E1,2.262595E1,3.857333E3,4.7966604E0,3.865391E1,1.6669878E1,5.956072E0,2.0571566E1,3.8367615E3,3.3756003E0,1.4210601E0,8.692218E0,2.9961695E1],"tree_param":{"num_deleted":"0","num_feature":"10","num_nodes":"15","size_leaf_vector":"1"}},{"base_weights":[-1.696643E-4,1.9959902E-2,-2.2288825E-2,-1.5592398E-2,2.1046221E-1,-1.8865713E-1,3.6851452E-3,-3.3465214E-3,-4.7191942E-1,-4.8256323E-1,7.276148E-2,-6.981092E-3,-1.8985926E-1,2.8049225E-1,-5.062646E-4],"categories":[],"categories_nodes":[],"categories_segments":[],"categories_sizes":[],"default_left":[0,0,0,0,0,0,0,0,0,0,0,0,0,0,0],"id":60,"left_children":[1,3,5,7,9,11,13,-1,-1,-1,-1,-1,-1,-1,-1],"loss_changes":[1.7464252E0,1.3911478E1,8.076313E0,1.19488945E1,1.9238117E1,1.8526983E1,8.09445E0,0E0,0E0,0E0,0E0,0E0,0E0,0E0,0E0],"parents":[2147483647,0,0,1,1,2,2,3,3,4,4,5,5,6,6],"right_children":[2,4,6,8,10,12,14,-1,-1,-1,-1,-1,-1,-1,-1],"split_conditions":[7.788378E-2,-1.8509096E-1,3.4260193E-1,2.4718713E-2,-1.8519734E0,2.6527902E-1,-1.4318279E0,-3.3465214E-3,-4.7191942E-1,-4.8256323E-1,7.276148E-2,-6.981092E-3,-1.8985926E-1,2.8049225E-1,-5.062646E-4],"split_indices":[0,0,1,1,7,1,8,0,0,0,0,0,0,0,0],"split_type":[0,0,0,0,0,0,0,0,0,0,0,0,0,0,0],"sum_hessian":[3.920356E3,2.0525386E3,1.8678173E3,1.7305033E3,3.2203528E2,2.5138492E2,1.6164324E3,1.7265913E3,3.9119945E0,4.728666E0,3.173066E2,1.839494E2,6.743552E1,8.279398E0,1.608153E3],"tree_param":{"num_deleted":"0","num_feature":"10","num_nodes":"15","size_leaf_vector":"1"}},{"base_weights":[-3.4028495E-4,-1.57295E-2,2.8541833E-2,-1.2700573E-2,-4.399154E-1,6.092741E-3,4.2527634E-1,-4.090542E-4,-7.346788E-2,4.1983114E-3,-2.581898E-1,6.759605E-2,3.7215558E-1],"categories":[],"categories_nodes":[],"categories_segments":[],"categories_sizes":[],"default_left":[0,0,0,0,0,0,0,0,0,0,0,0,0],"id":61,"left_children":[1,3,5,7,-1,9,11,-1,-1,-1,-1,-1,-1],"loss_changes":[1.7415675E0,1.1213243E1,1.212819E1,6.717248E0,0E0,8.84743E0,1.1608778E1,0E0,0E0,0E0,0E0,0E0,0E0],"parents":[2147483647,0,0,1,1,2,2,3,3,5,5,6,6],"right_children":[2,4,6,8,-1,10,12,-1,-1,-1,-1,-1,-1],"split_conditions":[6.583074E-1,7.4208647E-1,1.2668937E0,5.2595496E-1,-4.399154E-1,1.1341509E0,2.6059985E-1,-4.090542E-4,-7.346788E-2,4.1983114E-3,-2.581898E-1,6.759605E-2,3.7215558E-1],"split_indices":[5,4,6,5,0,7,8,0,0,0,0,0,0],"split_type":[0,0,0,0,0,0,0,0,0,0,0,0,0],"sum_hessian":[3.916264E3,2.5552234E3,1.3610404E3,2.550906E3,4.317467E0,1.2891118E3,7.192861E1,2.4331123E3,1.1779363E2,1.2784406E3,1.0671237E1,5.8786346E1,1.3142268E1],"tree_param":{"num_deleted":"0","num_feature":"10","num_nodes":"13","size_leaf_vector":"1"}},{"base_weights":[-3.367953E-4,9.118464E-3,-4.378545E-2,-2.6146465E-3,3.2412744E-1,-2.5908764E-2,-4.1594237E-1,-1.2049802E-3,4.0066883E-1,-8.540957E-2,1.6017391E-1,-1.0826851E-1,4.152894E-3],"categories":[],"categories_nodes":[],"categories_segments":[],"categories_sizes":[],"default_left":[0,0,0,0,0,0,0,0,0,0,0,0,0],"id":62,"left_children":[1,3,5,7,9,11,-1,-1,-1,-1,-1,-1,-1],"loss_changes":[1.6087253E0,1.1887531E1,1.676292E1,5.824103E0,1.4903346E1,9.215773E0,0E0,0E0,0E0,0E0,0E0,0E0,0E0],"parents":[2147483647,0,0,1,1,2,2,3,3,4,4,5,5],"right_children":[2,4,6,8,10,12,-1,-1,-1,-1,-1,-1,-1],"split_conditions":[1.0355101E0,9.9252295E-1,4.7386926E-1,1.008608E0,-8.1850576E-1,1.1554306E0,-4.1594237E-1,-1.2049802E-3,4.0066883E-1,-8.540957E-2,1.6017391E-1,-1.0826851E-1,4.152894E-3],"split_indices":[7,6,2,7,9,6,0,0,0,0,0,0,0],"split_type":[0,0,0,0,0,0,0,0,0,0,0,0,0],"sum_hessian":[3.9139329E3,3.2150635E3,6.9886926E2,3.1005686E3,1.14494896E2,6.906926E2,8.176649E0,3.0983196E3,2.248985E0,2.9250092E1,8.5244804E1,7.241084E1,6.182818E2],"tree_param":{"num_deleted":"0","num_feature":"10","num_nodes":"13","size_leaf_vector":"1"}},{"base_weights":[-3.0138897E-4,-1.8143598E-2,2.287488E-2,-3.4504712E-3,-2.0936269E-1,7.908425E-3,3.282904E-1,-4.278858E-3,8.9905605E-2,-4.4234544E-2,-4.9237052E-1,5.2698E-3,-2.946577E-1,2.9202634E-1,4.397879E-2],"categories":[],"categories_nodes":[],"categories_segments":[],"categories_sizes":[],"default_left":[0,0,0,0,0,0,0,0,0,0,0,0,0,0,0],"id":63,"left_children":[1,3,5,7,9,11,13,-1,-1,-1,-1,-1,-1,-1,-1],"loss_changes":[1.6184807E0,6.212586E0,7.7794876E0,6.7386994E0,1.3746081E1,1.5545791E1,9.176772E0,0E0,0E0,0E0,0E0,0E0,0E0,0E0,0E0],"parents":[2147483647,0,0,1,1,2,2,3,3,4,4,5,5,6,6],"right_children":[2,4,6,8,10,12,14,-1,-1,-1,-1,-1,-1,-1,-1],"split_conditions":[-5.7738426E-4,-9.52717E-2,1.4949644E0,-1.3041471E-1,1.5645831E0,1.3942038E0,1.5344055E0,-4.278858E-3,8.9905605E-2,-4.4234544E-2,-4.9237052E-1,5.2698E-3,-2.946577E-1,2.9202634E-1,4.397879E-2],"split_indices":[2,3,6,3,7,7,6,0,0,0,0,0,0,0,0],"split_type":[0,0,0,0,0,0,0,0,0,0,0,0,0,0,0],"sum_hessian":[3.9119473E3,2.2104521E3,1.7014952E3,2.0536677E3,1.567842E2,1.6229889E3,7.850638E1,1.9838595E3,6.980828E1,1.513431E2,5.4411044E0,1.6082837E3,1.4705154E1,1.629419E1,6.221219E1],"tree_param":{"num_deleted":"0","num_feature":"10","num_nodes":"15","size_leaf_vector":"1"}},{"base_weights":[-3.4479002E-4,-1.1321073E-2,3.5997912E-2,-3.931273E-3,-6.9718456E-1,1.2227579E0,2.0189246E-2,-1.4688398E-1,-3.5251674E-4,3.5240817E-1,-3.3664846E-1,8.6255744E-2,4.1623282E-1,1.9555582E-2,-4.5748416E-2],"categories":[],"categories_nodes":[],"categories_segments":[],"categories_sizes":[],"default_left":[0,0,0,0,0,0,0,0,0,0,0,0,0,0,0],"id":64,"left_children":[1,3,5,7,9,11,13,-1,-1,-1,-1,-1,-1,-1,-1],"loss_changes":[1.5606247E0,1.5226375E1,1.7001015E1,3.980151E0,2.6793018E1,1.4359188E0,6.9765077E0,0E0,0E0,0E0,0E0,0E0,0E0,0E0,0E0],"parents":[2147483647,0,0,1,1,2,2,3,3,4,4,5,5,6,6],"right_children":[2,4,6,8,10,12,14,-1,-1,-1,-1,-1,-1,-1,-1],"split_conditions":[7.4010813E-1,6.248366E-1,6.999317E-1,-1.7032114E0,-1.569109E0,-5.645538E-1,3.031661E-1,-1.4688398E-1,-3.5251674E-4,3.5240817E-1,-3.3664846E-1,8.6255744E-2,4.1623282E-1,1.9555582E-2,-4.5748416E-2],"split_indices":[8,9,9,4,4,2,6,0,0,0,0,0,0,0,0],"split_type":[0,0,0,0,0,0,0,0,0,0,0,0,0,0,0],"sum_hessian":[3.9102224E3,3.003722E3,9.0650055E2,2.9726985E3,3.102345E1,1.0912986E1,8.955876E2,1.5777932E1,2.9569204E3,5.413721E0,2.560973E1,2.045057E0,8.8679285E0,7.10957E2,1.8463058E2],"tree_param":{"num_deleted":"0","num_feature":"10","num_nodes":"15","size_leaf_vector":"1"}},{"base_weights":[-2.0029457E-4,1.9783814E-1,-2.063537E-3,4.083516E-1,-5.0384337E-1,-2.5356093E-2,1.5584545E-2,-1.7403588E-1,1.5686053E-1,1.838753E-2,-3.8658828E-1,-4.309605E-3,-1.6983011E-1,2.399451E-3,1.2729415E-1],"categories":[],"categories_nodes":[],"categories_segments":[],"categories_sizes":[],"default_left":[0,0,0,0,0,0,0,0,0,0,0,0,0,0,0],"id":65,"left_children":[1,3,5,7,9,11,13,-1,-1,-1,-1,-1,-1,-1,-1],"loss_changes":[1.4419646E0,5.5860724E0,1.5917665E0,3.5374203E0,4.0055885E0,9.912009E0,6.828035E0,0E0,0E0,0E0,0E0,0E0,0E0,0E0,0E0],"parents":[2147483647,0,0,1,1,2,2,3,3,4,4,5,5,6,6],"right_children":[2,4,6,8,10,12,14,-1,-1,-1,-1,-1,-1,-1,-1],"split_conditions":[-1.8911672E0,5.1923305E-1,-2.2499809E-1,-8.166049E-1,3.7681058E-2,-6.747268E-2,2.2132776E0,-1.7403588E-1,1.5686053E-1,1.838753E-2,-3.8658828E-1,-4.309605E-3,-1.6983011E-1,2.399451E-3,1.2729415E-1],"split_indices":[1,6,6,5,2,7,9,0,0,0,0,0,0,0,0],"split_type":[0,0,0,0,0,0,0,0,0,0,0,0,0,0,0],"sum_hessian":[3.9057246E3,3.54241E1,3.8703003E3,2.7570602E1,7.8534956E0,1.6681633E3,2.202137E3,2.4403663E0,2.5130236E1,5.101632E0,2.751864E0,1.6359391E3,3.2224247E1,2.1630093E3,3.9127785E1],"tree_param":{"num_deleted":"0","num_feature":"10","num_nodes":"15","size_leaf_vector":"1"}},{"base_weights":[-2.4397072E-4,4.7118925E-3,-9.155662E-2,-2.4750638E-3,1.4501353E-1,-4.8432624E-1,9.21334E-2,1.7603062E-2,-5.061766E-3,2.684003E-1,1.1669536E-2,-3.4594244E-1,3.4854324E-3,8.3675794E-2,-1.02244504E-1],"categories":[],"categories_nodes":[],"categories_segments":[],"categories_sizes":[],"default_left":[0,0,0,0,0,0,0,0,0,0,0,0,0,0,0],"id":66,"left_children":[1,3,5,7,9,11,13,-1,-1,-1,-1,-1,-1,-1,-1],"loss_changes":[1.7675995E0,3.736244E0,1.4552098E1,3.1048937E0,1.4328384E1,2.13196E1,1.1242438E1,0E0,0E0,0E0,0E0,0E0,0E0,0E0,0E0],"parents":[2147483647,0,0,1,1,2,2,3,3,4,4,5,5,6,6],"right_children":[2,4,6,8,10,12,14,-1,-1,-1,-1,-1,-1,-1,-1],"split_conditions":[1.9719762E0,1.6621599E0,-4.2228323E-1,-9.3186903E-1,-1.4873694E0,-3.0959094E-1,9.8368704E-1,1.7603062E-2,-5.061766E-3,2.684003E-1,1.1669536E-2,-3.4594244E-1,3.4854324E-3,8.3675794E-2,-1.02244504E-1],"split_indices":[8,9,0,3,1,7,0,0,0,0,0,0,0,0,0],"split_type":[0,0,0,0,0,0,0,0,0,0,0,0,0,0,0],"sum_hessian":[3.904059E3,3.7039795E3,2.0007977E2,3.524423E3,1.7955635E2,6.32343E1,1.3684547E2,6.710649E2,2.8533582E3,2.1343468E1,1.5821288E2,2.6360374E1,3.6873924E1,9.584923E1,4.099624E1],"tree_param":{"num_deleted":"0","num_feature":"10","num_nodes":"15","size_leaf_vector":"1"}},{"base_weights":[-2.2789238E-4,-5.889603E-2,8.106769E-3,9.002559E-3,-9.1691875E-1,-4.3891537E-1,9.766471E-3,-6.0934898E-2,2.8965412E-2,8.0008164E-2,-3.829904E-1,1.0826803E-1,2.588816E-4],"categories":[],"categories_nodes":[],"categories_segments":[],"categories_sizes":[],"default_left":[0,0,0,0,0,0,0,0,0,0,0,0,0],"id":67,"left_children":[1,3,5,7,9,-1,11,-1,-1,-1,-1,-1,-1],"loss_changes":[1.9082042E0,2.828886E1,8.357562E0,8.3917885E0,1.5500629E1,0E0,1.0673271E1,0E0,0E0,0E0,0E0,0E0,0E0],"parents":[2147483647,0,0,1,1,2,2,3,3,4,4,6,6],"right_children":[2,4,6,8,10,-1,12,-1,-1,-1,-1,-1,-1],"split_conditions":[-1.1106629E0,-1.1444548E0,-1.1524885E0,-6.697892E-1,-1.1710364E0,-4.3891537E-1,-1.0617025E0,-6.0934898E-2,2.8965412E-2,8.0008164E-2,-3.829904E-1,1.0826803E-1,2.588816E-4],"split_indices":[2,2,3,0,3,0,3,0,0,0,0,0,0],"split_type":[0,0,0,0,0,0,0,0,0,0,0,0,0],"sum_hessian":[3.9004487E3,4.8443286E2,3.4160159E3,4.4982596E2,3.4606922E1,2.857229E0,3.4131587E3,1.3103233E2,3.187936E2,8.126384E0,2.6480537E1,8.342954E1,3.3297292E3],"tree_param":{"num_deleted":"0","num_feature":"10","num_nodes":"13","size_leaf_vector":"1"}},{"base_weights":[-3.7207664E-4,-2.4107201E-2,1.9353544E-2,-1.17519265E-2,-5.3744966E-1,4.7567946E-1,7.107034E-3,3.3476707E-2,-1.3927899E-2,-4.4915712E-1,-4.0507987E-2,1.8851122E-1,-4.365489E-1,-2.4540547E-1,3.7698846E-3],"categories":[],"categories_nodes":[],"categories_segments":[],"categories_sizes":[],"default_left":[0,0,0,0,0,0,0,0,0,0,0,0,0,0,0],"id":68,"left_children":[1,3,5,7,9,11,13,-1,-1,-1,-1,-1,-1,-1,-1],"loss_changes":[1.8260176E0,1.1220954E1,1.18999E1,7.4022336E0,1.5857418E1,1.732245E1,9.358799E0,0E0,0E0,0E0,0E0,0E0,0E0,0E0,0E0],"parents":[2147483647,0,0,1,1,2,2,3,3,4,4,5,5,6,6],"right_children":[2,4,6,8,10,12,14,-1,-1,-1,-1,-1,-1,-1,-1],"split_conditions":[-2.66058E-1,-2.9674247E-1,-2.3401374E-1,-8.835007E-1,-2.8489608E-1,1.2363498E0,-2.2488622E-1,3.3476707E-2,-1.3927899E-2,-4.4915712E-1,-4.0507987E-2,1.8851122E-1,-4.365489E-1,-2.4540547E-1,3.7698846E-3],"split_indices":[2,2,2,7,2,0,2,0,0,0,0,0,0,0,0],"split_type":[0,0,0,0,0,0,0,0,0,0,0,0,0,0,0],"sum_hessian":[3.8981665E3,1.7691682E3,2.1289983E3,1.728587E3,4.058124E1,5.465402E1,2.0743442E3,3.7882904E2,1.3497579E3,1.1185189E1,2.9396051E1,5.1273838E1,3.3801794E0,1.2655907E1,2.0616882E3],"tree_param":{"num_deleted":"0","num_feature":"10","num_nodes":"15","size_leaf_vector":"1"}},{"base_weights":[-5.3161755E-4,-5.445642E-2,7.099846E-3,-4.2956793E-1,2.3626106E-2,8.5122955E-1,3.5945175E-3,-6.8816505E-2,-4.396732E-1,2.6425883E-1,-9.130593E-3,-1.7412236E-1,4.308768E-1,-3.045348E-1,1.9782197E-3],"categories":[],"categories_nodes":[],"categories_segments":[],"categories_sizes":[],"default_left":[0,0,0,0,0,0,0,0,0,0,0,0,0,0,0],"id":69,"left_children":[1,3,5,7,9,11,13,-1,-1,-1,-1,-1,-1,-1,-1],"loss_changes":[1.6038194E0,1.4161823E1,1.0099259E1,1.6938831E1,1.8604256E1,1.2655341E1,1.0399151E1,0E0,0E0,0E0,0E0,0E0,0E0,0E0,0E0],"parents":[2147483647,0,0,1,1,2,2,3,3,4,4,5,5,6,6],"right_children":[2,4,6,8,10,12,14,-1,-1,-1,-1,-1,-1,-1,-1],"split_conditions":[-1.3049656E0,-9.230833E-1,-1.421941E0,1.5707853E0,-8.4537643E-1,-1.4408041E0,-1.3807855E0,-6.8816505E-2,-4.396732E-1,2.6425883E-1,-9.130593E-3,-1.7412236E-1,4.308768E-1,-3.045348E-1,1.9782197E-3],"split_indices":[7,3,6,8,2,6,6,0,0,0,0,0,0,0,0],"split_type":[0,0,0,0,0,0,0,0,0,0,0,0,0,0,0],"sum_hessian":[3.8953174E3,4.8216287E2,3.4131545E3,8.22981E1,3.9986478E2,1.3114728E1,3.4000398E3,6.9994965E1,1.2303139E1,2.281411E1,3.7705066E2,3.8068223E0,9.307906E0,8.991264E0,3.3910486E3],"tree_param":{"num_deleted":"0","num_feature":"10","num_nodes":"15","size_leaf_vector":"1"}},{"base_weights":[-4.318658E-4,3.3729713E-2,-1.1486582E-2,1.1833798E-2,5.5213076E-1,-3.2000387E-1,6.118748E-4,-9.758315E-3,8.527158E-2,3.7553808E-1,5.0592672E-2,-4.8533347E-2,-3.0498287E-1,1.1731793E-1,-2.3797299E-3],"categories":[],"categories_nodes":[],"categories_segments":[],"categories_sizes":[],"default_left":[0,0,0,0,0,0,0,0,0,0,0,0,0,0,0],"id":70,"left_children":[1,3,5,7,9,11,13,-1,-1,-1,-1,-1,-1,-1,-1],"loss_changes":[1.4708592E0,1.0802045E1,1.0983519E1,1.1062233E1,1.0137095E1,1.2074419E1,9.452669E0,0E0,0E0,0E0,0E0,0E0,0E0,0E0,0E0],"parents":[2147483647,0,0,1,1,2,2,3,3,4,4,5,5,6,6],"right_children":[2,4,6,8,10,12,14,-1,-1,-1,-1,-1,-1,-1,-1],"split_conditions":[-8.430131E-1,-7.815115E-1,-7.39917E-1,1.2668937E0,-1.1612887E0,6.975954E-1,-6.9696057E-1,-9.758315E-3,8.527158E-2,3.7553808E-1,5.0592672E-2,-4.8533347E-2,-3.0498287E-1,1.1731793E-1,-2.3797299E-3],"split_indices":[1,0,1,6,6,2,1,0,0,0,0,0,0,0,0],"split_type":[0,0,0,0,0,0,0,0,0,0,0,0,0,0,0],"sum_hessian":[3.8927778E3,9.512252E2,2.9415525E3,9.1365753E2,3.7567696E1,1.1003933E2,2.8315132E3,7.864617E2,1.2719582E2,1.2499153E1,2.5068542E1,9.067563E1,1.9363703E1,5.9677376E1,2.7718357E3],"tree_param":{"num_deleted":"0","num_feature":"10","num_nodes":"15","size_leaf_vector":"1"}},{"base_weights":[-2.45279E-4,7.5500677E-3,-6.7861065E-2,-1.9017674E-3,3.4664547E-1,-1.1159118E-1,4.2655048E-1,2.5648952E-3,-1.1289219E-1,1.20463334E-1,-3.7798005E-1,3.174151E-2,-7.86338E-2,-9.7411E-2,2.4286018E-1],"categories":[],"categories_nodes":[],"categories_segments":[],"categories_sizes":[],"default_left":[0,0,0,0,0,0,0,0,0,0,0,0,0,0,0],"id":71,"left_children":[1,3,5,7,9,11,13,-1,-1,-1,-1,-1,-1,-1,-1],"loss_changes":[2.0514796E0,1.1185708E1,8.7462635E0,1.3292599E1,8.853213E0,1.2149221E1,9.729151E0,0E0,0E0,0E0,0E0,0E0,0E0,0E0,0E0],"parents":[2147483647,0,0,1,1,2,2,3,3,4,4,5,5,6,6],"right_children":[2,4,6,8,10,12,14,-1,-1,-1,-1,-1,-1,-1,-1],"split_conditions":[1.3134977E0,1.2327915E0,7.51764E-1,1.1341509E0,7.51764E-1,-8.592115E-1,-6.10752E-1,2.5648952E-3,-1.1289219E-1,1.20463334E-1,-3.7798005E-1,3.174151E-2,-7.86338E-2,-9.7411E-2,2.4286018E-1],"split_indices":[7,7,4,7,4,5,8,0,0,0,0,0,0,0,0],"split_type":[0,0,0,0,0,0,0,0,0,0,0,0,0,0,0],"sum_hessian":[3.8901255E3,3.4887947E3,4.013308E2,3.3951536E3,9.364102E1,3.694295E2,3.1901314E1,3.3039033E3,9.1250305E1,9.127219E1,2.3688316E0,1.5126152E2,2.1816798E2,1.0823092E1,2.107822E1],"tree_param":{"num_deleted":"0","num_feature":"10","num_nodes":"15","size_leaf_vector":"1"}},{"base_weights":[-2.4350462E-4,9.148991E-3,-4.061738E-2,3.8383182E-3,4.7221822E-1,1.6693339E-1,-9.534559E-2,2.760616E-3,-9.157261E-2,-4.487126E-1,2.2496186E-1,7.329905E-2,-2.9968682E-1,-2.0988399E-1,-2.1934178E-2],"categories":[],"categories_nodes":[],"categories_segments":[],"categories_sizes":[],"default_left":[0,0,0,0,0,0,0,0,0,0,0,0,0,0,0],"id":72,"left_children":[1,3,5,7,9,11,13,-1,-1,-1,-1,-1,-1,-1,-1],"loss_changes":[1.474231E0,7.7543516E0,8.350119E0,5.1738524E0,2.065676E1,1.4092058E1,7.757328E0,0E0,0E0,0E0,0E0,0E0,0E0,0E0,0E0],"parents":[2147483647,0,0,1,1,2,2,3,3,4,4,5,5,6,6],"right_children":[2,4,6,8,10,12,14,-1,-1,-1,-1,-1,-1,-1,-1],"split_conditions":[1.0082251E0,9.7830975E-1,-1.1287066E0,9.1938573E-1,-8.172399E-1,3.0879354E-1,-1.6534417E0,2.760616E-3,-9.157261E-2,-4.487126E-1,2.2496186E-1,7.329905E-2,-2.9968682E-1,-2.0988399E-1,-2.1934178E-2],"split_indices":[5,5,0,5,1,2,6,0,0,0,0,0,0,0,0],"split_type":[0,0,0,0,0,0,0,0,0,0,0,0,0,0,0],"sum_hessian":[3.8856428E3,3.152926E3,7.3271686E2,3.1181738E3,3.475224E1,1.524639E2,5.802529E2,3.0659382E3,5.2235603E1,3.7545137E0,3.0997726E1,1.4371397E2,8.74992E0,1.9509369E1,5.607436E2],"tree_param":{"num_deleted":"0","num_feature":"10","num_nodes":"15","size_leaf_vector":"1"}},{"base_weights":[-4.1097848E-4,-2.07192E-2,1.9652959E-2,-2.7741877E-2,7.890704E-1,1.9319123E-1,-3.9735544E-3,-2.4380041E-3,-9.214787E-2,3.2862866E-1,-3.4173E-1,-2.2770768E-1,8.724003E-2,-1.241205E-1,2.9037914E-3],"categories":[],"categories_nodes":[],"categories_segments":[],"categories_sizes":[],"default_left":[0,0,0,0,0,0,0,0,0,0,0,0,0,0,0],"id":73,"left_children":[1,3,5,7,9,11,13,-1,-1,-1,-1,-1,-1,-1,-1],"loss_changes":[1.5825629E0,1.0998792E1,8.011275E0,1.0491009E1,1.1070902E1,2.1982685E1,9.629723E0,0E0,0E0,0E0,0E0,0E0,0E0,0E0,0E0],"parents":[2147483647,0,0,1,1,2,2,3,3,4,4,5,5,6,6],"right_children":[2,4,6,8,10,12,14,-1,-1,-1,-1,-1,-1,-1,-1],"split_conditions":[3.1135509E-2,2.7847433E-1,2.7847433E-1,-1.0694178E-1,1.7137738E-2,-1.263994E0,1.923697E-1,-2.4380041E-3,-9.214787E-2,3.2862866E-1,-3.4173E-1,-2.2770768E-1,8.724003E-2,-1.241205E-1,2.9037914E-3],"split_indices":[4,5,5,4,4,1,4,0,0,0,0,0,0,0,0],"split_type":[0,0,0,0,0,0,0,0,0,0,0,0,0,0,0],"sum_hessian":[3.881944E3,1.9292113E3,1.9527327E3,1.913582E3,1.562927E1,2.3313849E2,1.7195941E3,1.7890214E3,1.2456069E2,1.3859135E1,1.7701347E0,2.1046322E1,2.1209216E2,5.450287E1,1.6650913E3],"tree_param":{"num_deleted":"0","num_feature":"10","num_nodes":"15","size_leaf_vector":"1"}},{"base_weights":[-3.8669183E-4,4.1033983E-2,-9.982924E-3,-9.7214244E-2,8.239599E-2,-1.6926835E-1,5.0383112E-3,3.3821848E-3,-2.8605244E-1,1.4474294E-1,5.5114855E-3,-6.426855E-2,3.970176E-1,2.7738886E-3,-1.626682E-1],"categories":[],"categories_nodes":[],"categories_segments":[],"categories_sizes":[],"default_left":[0,0,0,0,0,0,0,0,0,0,0,0,0,0,0],"id":74,"left_children":[1,3,5,7,9,11,13,-1,-1,-1,-1,-1,-1,-1,-1],"loss_changes":[1.5429238E0,4.1831927E0,7.541469E0,1.5673694E1,1.4400788E1,1.851204E1,6.6394773E0,0E0,0E0,0E0,0E0,0E0,0E0,0E0,0E0],"parents":[2147483647,0,0,1,1,2,2,3,3,4,4,5,5,6,6],"right_children":[2,4,6,8,10,12,14,-1,-1,-1,-1,-1,-1,-1,-1],"split_conditions":[-9.745516E-1,-7.473687E-1,-7.7521914E-1,1.4658124E0,-5.0629157E-1,1.7072971E0,1.7072971E0,3.3821848E-3,-2.8605244E-1,1.4474294E-1,5.5114855E-3,-6.426855E-2,3.970176E-1,2.7738886E-3,-1.626682E-1],"split_indices":[8,3,8,6,2,0,0,0,0,0,0,0,0,0,0],"split_type":[0,0,0,0,0,0,0,0,0,0,0,0,0,0,0],"sum_hessian":[3.8797104E3,7.291536E2,3.1505566E3,1.6760406E2,5.6154956E2,2.706208E2,2.879936E3,1.4963313E2,1.7970943E1,7.656548E1,4.849841E2,2.6353925E2,7.0815377E0,2.8589363E3,2.0999563E1],"tree_param":{"num_deleted":"0","num_feature":"10","num_nodes":"15","size_leaf_vector":"1"}},{"base_weights":[-2.4292969E-4,2.6249655E-2,-1.72504E-2,8.090978E-3,4.7668248E-1,-2.520601E-1,-2.2070499E-3,-4.932467E-2,9.942719E-3,2.0209919E-1,-2.6349163E-1,-3.0568233E-1,-4.07935E-2,1.2276236E-1,-3.1588282E-3],"categories":[],"categories_nodes":[],"categories_segments":[],"categories_sizes":[],"default_left":[0,0,0,0,0,0,0,0,0,0,0,0,0,0,0],"id":75,"left_children":[1,3,5,7,9,11,13,-1,-1,-1,-1,-1,-1,-1,-1],"loss_changes":[1.7478545E0,1.240142E1,8.344605E0,6.310209E0,1.627417E1,1.2523353E1,7.6098514E0,0E0,0E0,0E0,0E0,0E0,0E0,0E0,0E0],"parents":[2147483647,0,0,1,1,2,2,3,3,4,4,5,5,6,6],"right_children":[2,4,6,8,10,12,14,-1,-1,-1,-1,-1,-1,-1,-1],"split_conditions":[-4.475473E-1,-4.0357724E-1,-3.5912308E-1,-1.2554024E0,1.2194449E0,-1.017638E0,-3.6666623E-1,-4.932467E-2,9.942719E-3,2.0209919E-1,-2.6349163E-1,-3.0568233E-1,-4.07935E-2,1.2276236E-1,-3.1588282E-3],"split_indices":[8,9,8,1,5,2,9,0,0,0,0,0,0,0,0],"split_type":[0,0,0,0,0,0,0,0,0,0,0,0,0,0,0],"sum_hessian":[3.8771863E3,1.5156737E3,2.3615125E3,1.4579174E3,5.7756287E1,1.412352E2,2.2202773E3,1.8416638E2,1.273751E3,5.0864662E1,6.891625E0,1.7545443E1,1.23689766E2,4.3067654E1,2.1772097E3],"tree_param":{"num_deleted":"0","num_feature":"10","num_nodes":"15","size_leaf_vector":"1"}},{"base_weights":[-2.4684583E-4,5.6809496E-2,-9.510898E-3,-6.9840205E-1,7.023219E-2,-1.2344053E-1,-5.088667E-4,1.8845727E-1,-3.0340612E-1,4.3026917E-2,-2.5037332E-2,-5.89093E-2,1.6289108E-1,1.3551307E-1,-3.3450888E-3],"categories":[],"categories_nodes":[],"categories_segments":[],"categories_sizes":[],"default_left":[0,0,0,0,0,0,0,0,0,0,0,0,0,0,0],"id":76,"left_children":[1,3,5,7,9,11,13,-1,-1,-1,-1,-1,-1,-1,-1],"loss_changes":[2.0497577E0,5.540162E0,3.4215326E0,4.600494E0,6.0091076E0,1.19788475E1,1.4888851E1,0E0,0E0,0E0,0E0,0E0,0E0,0E0,0E0],"parents":[2147483647,0,0,1,1,2,2,3,3,4,4,5,5,6,6],"right_children":[2,4,6,8,10,12,14,-1,-1,-1,-1,-1,-1,-1,-1],"split_conditions":[-1.235272E0,-1.6574161E0,-9.718857E-1,-1.8568007E0,2.2518088E-1,1.4333841E0,-9.11746E-1,1.8845727E-1,-3.0340612E-1,4.3026917E-2,-2.5037332E-2,-5.89093E-2,1.6289108E-1,1.3551307E-1,-3.3450888E-3],"split_indices":[0,4,1,1,9,5,1,0,0,0,0,0,0,0,0],"split_type":[0,0,0,0,0,0,0,0,0,0,0,0,0,0,0],"sum_hessian":[3.8758867E3,5.4069147E2,3.3351953E3,8.550955E0,5.3214056E2,2.4329855E2,3.0918967E3,1.4399098E0,7.1110454E0,3.6051935E2,1.716212E2,2.1993672E2,2.336183E1,7.013156E1,3.0217651E3],"tree_param":{"num_deleted":"0","num_feature":"10","num_nodes":"15","size_leaf_vector":"1"}},{"base_weights":[-1.6083445E-4,5.1379893E-3,-7.751992E-2,-3.9990535E-3,3.669956E-1,-1.8576367E-2,-9.3928105E-1,1.1324412E-3,-1.0161252E-1,-1.6945083E-1,1.3387601E-1,1.01007745E-2,-2.9577002E-1,2.8320368E-2,-4.6317697E-1],"categories":[],"categories_nodes":[],"categories_segments":[],"categories_sizes":[],"default_left":[0,0,0,0,0,0,0,0,0,0,0,0,0,0,0],"id":77,"left_children":[1,3,5,7,9,11,13,-1,-1,-1,-1,-1,-1,-1,-1],"loss_changes":[1.5884436E0,1.1992448E1,1.26008E1,9.208048E0,6.8495817E0,1.1835459E1,1.007293E1,0E0,0E0,0E0,0E0,0E0,0E0,0E0,0E0],"parents":[2147483647,0,0,1,1,2,2,3,3,4,4,5,5,6,6],"right_children":[2,4,6,8,10,12,14,-1,-1,-1,-1,-1,-1,-1,-1],"split_conditions":[1.4651127E0,1.3998431E0,2.9470664E-1,1.318256E0,-1.2032505E0,3.0879354E-1,-8.3994937E-1,1.1324412E-3,-1.0161252E-1,-1.6945083E-1,1.3387601E-1,1.01007745E-2,-2.9577002E-1,2.8320368E-2,-4.6317697E-1],"split_indices":[5,5,8,5,3,2,0,0,0,0,0,0,0,0,0],"split_type":[0,0,0,0,0,0,0,0,0,0,0,0,0,0,0],"sum_hessian":[3.8731113E3,3.6256975E3,2.4741385E2,3.5373665E3,8.833091E1,2.3253056E2,1.4883291E1,3.4580398E3,7.932666E1,6.44387E0,8.188704E1,2.2153078E2,1.099979E1,5.8042874E0,9.079003E0],"tree_param":{"num_deleted":"0","num_feature":"10","num_nodes":"15","size_leaf_vector":"1"}},{"base_weights":[-4.3173536E-4,-2.7252033E-3,1.87121E-1,3.0692494E-3,-1.517932E-1,-3.1761584E-1,5.159826E-1,-5.016951E-4,9.703054E-2,3.1484805E-2,-1.5874492E-1,7.726168E-2,-3.70165E-1,-7.917979E-2,2.5022873E-1],"categories":[],"categories_nodes":[],"categories_segments":[],"categories_sizes":[],"default_left":[0,0,0,0,0,0,0,0,0,0,0,0,0,0,0],"id":78,"left_children":[1,3,5,7,9,11,13,-1,-1,-1,-1,-1,-1,-1,-1],"loss_changes":[1.6652553E0,3.303872E0,7.9269624E0,5.5940857E0,1.3921219E1,1.0367393E1,7.340429E0,0E0,0E0,0E0,0E0,0E0,0E0,0E0,0E0],"parents":[2147483647,0,0,1,1,2,2,3,3,4,4,5,5,6,6],"right_children":[2,4,6,8,10,12,14,-1,-1,-1,-1,-1,-1,-1,-1],"split_conditions":[1.6991223E0,1.5486026E0,-9.556062E-2,1.5085102E0,7.788378E-2,-4.979051E-1,-5.1583976E-1,-5.016951E-4,9.703054E-2,3.1484805E-2,-1.5874492E-1,7.726168E-2,-3.70165E-1,-7.917979E-2,2.5022873E-1],"split_indices":[4,4,1,4,0,7,7,0,0,0,0,0,0,0,0],"split_type":[0,0,0,0,0,0,0,0,0,0,0,0,0,0,0],"sum_hessian":[3.869185E3,3.8234163E3,4.5768753E1,3.681299E3,1.4211713E2,1.8069647E1,2.7699104E1,3.628589E3,5.271005E1,8.500444E1,5.711269E1,1.1542913E1,6.526734E0,8.074135E0,1.962497E1],"tree_param":{"num_deleted":"0","num_feature":"10","num_nodes":"15","size_leaf_vector":"1"}},{"base_weights":[-3.4112998E-4,-1.1031103E-2,3.6748175E-2,-7.249664E-3,-4.419943E-1,-3.0409858E-1,5.672414E-2,3.7276663E-2,-5.0033256E-3,2.1435165E-1,-2.384986E-1,-7.147013E-2,2.7426327E-2],"categories":[],"categories_nodes":[],"categories_segments":[],"categories_sizes":[],"default_left":[0,0,0,0,0,0,0,0,0,0,0,0,0],"id":79,"left_children":[1,3,5,7,-1,9,11,-1,-1,-1,-1,-1,-1],"loss_changes":[1.5335838E0,1.6591927E1,5.909581E0,3.716384E0,0E0,2.4603489E1,8.3967705E0,0E0,0E0,0E0,0E0,0E0,0E0],"parents":[2147483647,0,0,1,1,2,2,3,3,5,5,6,6],"right_children":[2,4,6,8,-1,10,12,-1,-1,-1,-1,-1,-1],"split_conditions":[9.8695827E-1,1.0816584E0,-1.2862272E0,-1.5186477E0,-4.419943E-1,-1.1921554E0,-1.2967594E0,3.7276663E-2,-5.0033256E-3,2.1435165E-1,-2.384986E-1,-7.147013E-2,2.7426327E-2],"split_indices":[1,0,3,4,0,6,6,0,0,0,0,0,0],"split_type":[0,0,0,0,0,0,0,0,0,0,0,0,0],"sum_hessian":[3.8659392E3,3.0015325E3,8.6440674E2,2.994793E3,6.739526E0,4.706809E1,8.173387E2,1.9952945E2,2.7952637E3,1.51586275E1,3.190946E1,8.540939E1,7.3192926E2],"tree_param":{"num_deleted":"0","num_feature":"10","num_nodes":"13","size_leaf_vector":"1"}},{"base_weights":[-4.0897634E-4,4.1497618E-2,-1.1742131E-2,-1.05871186E-1,1.331863E-1,-5.612263E-1,-2.1765907E-3,-6.6190064E-2,3.5917547E-2,1.2908454E-2,1.19861476E-1,2.7418345E-1,-2.1599227E-1,7.7626663E-3,-1.9937137E-2],"categories":[],"categories_nodes":[],"categories_segments":[],"categories_sizes":[],"default_left":[0,0,0,0,0,0,0,0,0,0,0,0,0,0,0],"id":80,"left_children":[1,3,5,7,9,11,13,-1,-1,-1,-1,-1,-1,-1,-1],"loss_changes":[1.8353925E0,1.11297035E1,1.5987099E1,8.209608E0,1.2171435E1,1.2845533E1,5.3947663E0,0E0,0E0,0E0,0E0,0E0,0E0,0E0,0E0],"parents":[2147483647,0,0,1,1,2,2,3,3,4,4,5,5,6,6],"right_children":[2,4,6,8,10,12,14,-1,-1,-1,-1,-1,-1,-1,-1],"split_conditions":[-8.8501185E-1,-8.540733E-2,-8.5084486E-1,6.278978E-1,-1.0109408E0,-1.6225034E0,6.768164E-1,-6.6190064E-2,3.5917547E-2,1.2908454E-2,1.19861476E-1,2.7418345E-1,-2.1599227E-1,7.7626663E-3,-1.9937137E-2],"split_indices":[3,7,3,0,3,5,7,0,0,0,0,0,0,0,0],"split_type":[0,0,0,0,0,0,0,0,0,0,0,0,0,0,0],"sum_hessian":[3.862496E3,8.216436E2,3.0408523E3,3.1507584E2,5.0656778E2,5.104329E1,2.989809E3,2.0885295E2,1.0622288E2,3.7932925E2,1.2723853E2,4.497053E0,4.6546234E1,2.0818733E3,9.0793585E2],