{"learner":{"attributes":{"scikit_learn":"{\"_estimator_type\": \"classifier\"}"},"feature_names":[],"feature_types":[],"gradient_booster":{"model":{"gbtree_model_param":{"num_parallel_tree":"1","num_trees":"100"},"iteration_indptr":[0,1,2,3,4,5,6,7,8,9,10,11,12,13,14,15,16,17,18,19,20,21,22,23,24,25,26,27,28,29,30,31,32,33,34,35,36,37,38,39,40,41,42,43,44,45,46,47,48,49,50,51,52,53,54,55,56,57,58,59,60,61,62,63,64,65,66,67,68,69,70,71,72,73,74,75,76,77,78,79,80,81,82,83,84,85,86,87,88,89,90,91,92,93,94,95,96,97,98,99,100],"tree_info":[0,0,0,0,0,0,0,0,0,0,0,0,0,0,0,0,0,0,0,0,0,0,0,0,0,0,0,0,0,0,0,0,0,0,0,0,0,0,0,0,0,0,0,0,0,0,0,0,0,0,0,0,0,0,0,0,0,0,0,0,0,0,0,0,0,0,0,0,0,0,0,0,0,0,0,0,0,0,0,0,0,0,0,0,0,0,0,0,0,0,0,0,0,0,0,0,0,0,0,0],"trees":[{"base_weights":[2.2747151E-10,1.049259E0,-6.887451E-3,-3.6E-1,1.2262185E0,-6.126553E-1,7.292794E-3,4.1705152E-1,-3.3333337E-1,-7.908094E-2,-3.5577816E-1,2.6447892E-1,-4.2974867E-4],"categories":[],"categories_nodes":[],"categories_segments":[],"categories_sizes":[],"default_left":[0,0,0,0,0,0,0,0,0,0,0,0,0],"id":0,"left_children":[1,3,5,-1,7,9,11,-1,-1,-1,-1,-1,-1],"loss_changes":[3.0305246E1,1.2356361E1,3.579146E1,0E0,1.14495735E1,1.8758152E1,3.1063564E1,0E0,0E0,0E0,0E0,0E0,0E0],"parents":[2147483647,0,0,1,1,2,2,4,4,5,5,6,6],"right_children":[2,4,6,-1,8,10,12,-1,-1,-1,-1,-1,-1],"split_conditions":[-1.4404259E0,-1.0003206E0,-1.3821636E0,-3.6E-1,1.5481237E0,4.4035128E-1,-1.387751E0,4.1705152E-1,-3.3333337E-1,-7.908094E-2,-3.5577816E-1,2.6447892E-1,-4.2974867E-4],"split_indices":[2,8,2,0,6,6,3,0,0,0,0,0,0],"split_type":[0,0,0,0,0,0,0,0,0,0,0,0,0],"sum_hessian":[4.1915E3,2.6347088E1,4.165153E3,1.5E0,2.4847088E1,9.430534E1,4.0708477E3,2.3597088E1,1.25E0,5.9522976E1,3.4782364E1,3.9235924E1,4.0316116E3],"tree_param":{"num_deleted":"0","num_feature":"10","num_nodes":"13","size_leaf_vector":"1"}},{"base_weights":[-9.263472E-5,1.5990797E-1,-2.5407271E-2,8.269666E-2,7.5353265E-1,-8.8052076E-1,-1.3345994E-2,-7.347936E-2,7.160961E-2,2.5869828E-1,-4.284794E-1,2.2128351E-1,-4.1597566E-1,3.49082E-2,-1.6550649E-2],"categories":[],"categories_nodes":[],"categories_segments":[],"categories_sizes":[],"default_left":[0,0,0,0,0,0,0,0,0,0,0,0,0,0,0],"id":1,"left_children":[1,3,5,7,9,11,13,-1,-1,-1,-1,-1,-1,-1,-1],"loss_changes":[1.6973326E1,2.6175467E1,3.730474E1,2.6006397E1,1.6841835E1,4.221901E1,1.9366186E1,0E0,0E0,0E0,0E0,0E0,0E0,0E0,0E0],"parents":[2147483647,0,0,1,1,2,2,3,3,4,4,5,5,6,6],"right_children":[2,4,6,8,10,12,14,-1,-1,-1,-1,-1,-1,-1,-1],"split_conditions":[-1.3049656E0,1.8873054E0,-1.2332269E0,-2.7094087E-1,7.011299E-1,-1.2811756E0,-8.5934794E-1,-7.347936E-2,7.160961E-2,2.5869828E-1,-4.284794E-1,2.2128351E-1,-4.1597566E-1,3.49082E-2,-1.6550649E-2],"split_indices":[7,2,7,4,4,1,8,0,0,0,0,0,0,0,0],"split_type":[0,0,0,0,0,0,0,0,0,0,0,0,0,0,0],"sum_hessian":[4.188572E3,5.714456E2,3.6171262E3,5.06682E2,6.476359E1,4.9308056E1,3.567818E3,1.6325395E2,3.4342807E2,6.2263588E1,2.4999998E0,1.1638053E1,3.7670002E1,8.694815E2,2.6983367E3],"tree_param":{"num_deleted":"0","num_feature":"10","num_nodes":"15","size_leaf_vector":"1"}},{"base_weights":[-1.7943745E-4,7.6690036E-1,-5.0334083E-3,-3.0769426E-1,9.135844E-1,-7.643557E-1,1.8188314E-3,3.1434542E-1,-2.8027692E-1,4.2581007E-2,-3.8766205E-1,-4.505996E-3,5.308632E-2],"categories":[],"categories_nodes":[],"categories_segments":[],"categories_sizes":[],"default_left":[0,0,0,0,0,0,0,0,0,0,0,0,0],"id":2,"left_children":[1,3,5,-1,7,9,11,-1,-1,-1,-1,-1,-1],"loss_changes":[1.5588603E1,7.85915E0,2.164775E1,0E0,7.146183E0,1.7984165E1,1.2164954E1,0E0,0E0,0E0,0E0,0E0,0E0],"parents":[2147483647,0,0,1,1,2,2,4,4,5,5,6,6],"right_children":[2,4,6,-1,8,10,12,-1,-1,-1,-1,-1,-1],"split_conditions":[-1.4404259E0,-1.0003206E0,-1.4225587E0,-3.0769426E-1,1.5481237E0,-6.955716E-1,1.4409404E0,3.1434542E-1,-2.8027692E-1,4.2581007E-2,-3.8766205E-1,-4.505996E-3,5.308632E-2],"split_indices":[2,8,2,0,6,0,4,0,0,0,0,0,0],"split_type":[0,0,0,0,0,0,0,0,0,0,0,0,0],"sum_hessian":[4.1846406E3,2.5326105E1,4.1593145E3,1.4624197E0,2.3863686E1,3.620991E1,4.1231045E3,2.2651173E1,1.2125114E0,1.3596515E1,2.2613398E1,3.762285E3,3.6081943E2],"tree_param":{"num_deleted":"0","num_feature":"10","num_nodes":"13","size_leaf_vector":"1"}},{"base_weights":[-2.648386E-4,-5.621629E-3,5.192782E-1,-2.5834395E-3,-9.9485093E-1,7.1820223E-1,-7.9015064E-1,-9.612213E-3,2.3742843E-2,1.7626016E-1,-5.346194E-1,-8.139931E-2,2.7646762E-1,3.4025052E-1,-4.7352973E-1],"categories":[],"categories_nodes":[],"categories_segments":[],"categories_sizes":[],"default_left":[0,0,0,0,0,0,0,0,0,0,0,0,0,0,0],"id":3,"left_children":[1,3,5,7,9,11,13,-1,-1,-1,-1,-1,-1,-1,-1],"loss_changes":[1.1640657E1,1.2439799E1,1.16860485E1,9.940995E0,1.6833778E1,7.8121643E0,1.10517845E1,0E0,0E0,0E0,0E0,0E0,0E0,0E0,0E0],"parents":[2147483647,0,0,1,1,2,2,3,3,4,4,5,5,6,6],"right_children":[2,4,6,8,10,12,14,-1,-1,-1,-1,-1,-1,-1,-1],"split_conditions":[2.3860283E0,2.3427203E0,3.6661425E-1,4.4939932E-1,-9.804773E-1,-9.6798277E-1,-1.2587703E0,-9.612213E-3,2.3742843E-2,1.7626016E-1,-5.346194E-1,-8.139931E-2,2.7646762E-1,3.4025052E-1,-4.7352973E-1],"split_indices":[2,2,6,2,1,8,8,0,0,0,0,0,0,0,0],"split_type":[0,0,0,0,0,0,0,0,0,0,0,0,0,0,0],"sum_hessian":[4.180599E3,4.1389136E3,4.168542E1,4.1272407E3,1.1673255E1,3.657985E1,5.1055717E0,3.0342048E3,1.0930356E3,3.9622853E0,7.7109694E0,6.1789227E0,3.0400927E1,1.3561679E0,3.7494037E0],"tree_param":{"num_deleted":"0","num_feature":"10","num_nodes":"15","size_leaf_vector":"1"}},{"base_weights":[-2.5872668E-4,-5.892814E-1,3.6692224E-3,-1.3548805E0,1.14746E0,1.3982524E-1,-1.6786894E-2,-4.6258596E-1,-1.22080535E-1,4.4377512E-1,4.3530207E-2,2.2281729E-2,2.5059E-1,-1.9457744E-1,-2.455228E-3],"categories":[],"categories_nodes":[],"categories_segments":[],"categories_sizes":[],"default_left":[0,0,0,0,0,0,0,0,0,0,0,0,0,0,0],"id":4,"left_children":[1,3,5,7,9,11,13,-1,-1,-1,-1,-1,-1,-1,-1],"loss_changes":[9.6725E0,3.8378143E1,1.156936E1,2.8623962E0,2.7833605E0,2.4673279E1,1.9623894E1,0E0,0E0,0E0,0E0,0E0,0E0,0E0,0E0],"parents":[2147483647,0,0,1,1,2,2,3,3,4,4,5,5,6,6],"right_children":[2,4,6,8,10,12,14,-1,-1,-1,-1,-1,-1,-1,-1],"split_conditions":[-1.7100307E0,1.1079423E0,-1.3049656E0,7.5336945E-1,-4.9305692E-2,1.5904195E0,-1.2332269E0,-4.6258596E-1,-1.22080535E-1,4.4377512E-1,4.3530207E-2,2.2281729E-2,2.5059E-1,-1.9457744E-1,-2.455228E-3],"split_indices":[6,5,7,0,0,0,7,0,0,0,0,0,0,0,0],"split_type":[0,0,0,0,0,0,0,0,0,0,0,0,0,0,0],"sum_hessian":[4.1786875E3,2.6694159E1,4.151993E3,1.8679596E1,8.014561E0,5.415563E2,3.6104368E3,1.5077496E1,3.6021006E0,5.6639667E0,2.3505943E0,4.9591953E2,4.563671E1,4.7500828E1,3.562936E3],"tree_param":{"num_deleted":"0","num_feature":"10","num_nodes":"15","size_leaf_vector":"1"}},{"base_weights":[-2.0335923E-4,6.7219004E-2,-3.5772618E-2,1.0596713E-1,-6.408035E-1,-3.8830096E-1,-5.7787467E-3,2.2888402E-2,2.1492763E-1,-8.3184674E-2,-4.2555317E-1,-4.584354E-1,-8.844475E-2,-2.3918102E-2,1.9581303E-2],"categories":[],"categories_nodes":[],"categories_segments":[],"categories_sizes":[],"default_left":[0,0,0,0,0,0,0,0,0,0,0,0,0,0,0],"id":5,"left_children":[1,3,5,7,9,11,13,-1,-1,-1,-1,-1,-1,-1,-1],"loss_changes":[1.0015561E1,3.9638027E1,2.8906185E1,2.4731628E1,2.0805002E1,2.2390793E1,1.3248642E1,0E0,0E0,0E0,0E0,0E0,0E0,0E0,0E0],"parents":[2147483647,0,0,1,1,2,2,3,3,4,4,5,5,6,6],"right_children":[2,4,6,8,10,12,14,-1,-1,-1,-1,-1,-1,-1,-1],"split_conditions":[-5.7697463E-1,1.8810798E0,-3.6728263E-1,2.1450908E0,-1.9381317E-1,-1.460236E0,-1.452012E-1,2.2888402E-2,2.1492763E-1,-8.3184674E-2,-4.2555317E-1,-4.584354E-1,-8.844475E-2,-2.3918102E-2,1.9581303E-2],"split_indices":[0,9,0,3,2,5,9,0,0,0,0,0,0,0,0],"split_type":[0,0,0,0,0,0,0,0,0,0,0,0,0,0,0],"sum_hessian":[4.1743433E3,1.4413467E3,2.7329963E3,1.3673649E3,7.398178E1,2.1335973E2,2.5196367E3,1.3050553E3,6.2309654E1,5.134042E1,2.264136E1,1.500957E1,1.9835014E2,1.2345748E3,1.2850619E3],"tree_param":{"num_deleted":"0","num_feature":"10","num_nodes":"15","size_leaf_vector":"1"}},{"base_weights":[-3.892152E-4,-4.11568E-1,5.4819686E-3,-6.5701395E-1,8.471447E-1,3.036099E-1,-1.7729091E-3,-9.012279E-2,-5.552099E-1,4.135165E-3,3.4131983E-1,1.840713E-1,-1.3989764E-1,-3.6503834E-1,3.376148E-4],"categories":[],"categories_nodes":[],"categories_segments":[],"categories_sizes":[],"default_left":[0,0,0,0,0,0,0,0,0,0,0,0,0,0,0],"id":6,"left_children":[1,3,5,7,9,11,13,-1,-1,-1,-1,-1,-1,-1,-1],"loss_changes":[1.0071951E1,1.8702435E1,8.897456E0,2.0605843E1,2.4110546E0,2.3608866E1,1.4146221E1,0E0,0E0,0E0,0E0,0E0,0E0,0E0,0E0],"parents":[2147483647,0,0,1,1,2,2,3,3,4,4,5,5,6,6],"right_children":[2,4,6,8,10,12,14,-1,-1,-1,-1,-1,-1,-1,-1],"split_conditions":[-1.6907505E0,1.4651127E0,-1.7193382E0,6.542977E-1,-1.7045014E0,4.6160027E-1,-1.7021549E0,-9.012279E-2,-5.552099E-1,4.135165E-3,3.4131983E-1,1.840713E-1,-1.3989764E-1,-3.6503834E-1,3.376148E-4],"split_indices":[0,5,1,4,0,7,1,0,0,0,0,0,0,0,0],"split_type":[0,0,0,0,0,0,0,0,0,0,0,0,0,0,0],"sum_hessian":[4.17019E3,5.7734703E1,4.112455E3,4.871368E1,9.021024E0,9.672779E1,4.0157273E3,3.8472095E1,1.0241586E1,2.6031196E0,6.4179044E0,6.910895E1,2.7618841E1,8.559557E0,4.0071677E3],"tree_param":{"num_deleted":"0","num_feature":"10","num_nodes":"15","size_leaf_vector":"1"}},{"base_weights":[-4.3836288E-4,5.851922E-1,-3.8629558E-3,-2.6062363E-1,7.0850855E-1,-4.507028E-1,2.8902628E-3,2.4689303E-1,-2.4029018E-1,3.4850144E-1,-1.8259172E-1,3.52169E-2,-5.3407354E-3],"categories":[],"categories_nodes":[],"categories_segments":[],"categories_sizes":[],"default_left":[0,0,0,0,0,0,0,0,0,0,0,0,0],"id":7,"left_children":[1,3,5,-1,7,9,11,-1,-1,-1,-1,-1,-1],"loss_changes":[8.363378E0,4.962304E0,1.2511558E1,0E0,4.615861E0,1.6426601E1,9.680754E0,0E0,0E0,0E0,0E0,0E0,0E0],"parents":[2147483647,0,0,1,1,2,2,4,4,5,5,6,6],"right_children":[2,4,6,-1,8,10,12,-1,-1,-1,-1,-1,-1],"split_conditions":[-1.4404259E0,-1.0003206E0,-1.4297273E0,-2.6062363E-1,1.5481237E0,-1.3365313E0,-1.0109408E0,2.4689303E-1,-2.4029018E-1,3.4850144E-1,-1.8259172E-1,3.52169E-2,-5.3407354E-3],"split_indices":[2,8,3,0,6,9,3,0,0,0,0,0,0],"split_type":[0,0,0,0,0,0,0,0,0,0,0,0,0],"sum_hessian":[4.1679976E3,2.3243881E1,4.144754E3,1.3446927E0,2.1899189E1,6.07295E1,4.0840244E3,2.07783E1,1.12089E0,4.8509326E0,5.5878567E1,6.243918E2,3.4596326E3],"tree_param":{"num_deleted":"0","num_feature":"10","num_nodes":"13","size_leaf_vector":"1"}},{"base_weights":[-3.0849004E-4,-1.6670302E-2,1.13469176E-1,9.6826E-3,-3.3760276E-1,2.3521736E-1,-3.5407278E-1,-1.871172E-1,5.2208323E-3,-1.8916517E-1,3.2123335E-2,1.266633E-1,-4.972252E-3,1.4415054E-1,-1.9757475E-1],"categories":[],"categories_nodes":[],"categories_segments":[],"categories_sizes":[],"default_left":[0,0,0,0,0,0,0,0,0,0,0,0,0,0,0],"id":8,"left_children":[1,3,5,7,9,11,13,-1,-1,-1,-1,-1,-1,-1,-1],"loss_changes":[7.755213E0,3.08063E1,2.989665E1,1.6474024E1,3.6073566E1,1.960062E1,2.7917557E1,0E0,0E0,0E0,0E0,0E0,0E0,0E0,0E0],"parents":[2147483647,0,0,1,1,2,2,3,3,4,4,5,5,6,6],"right_children":[2,4,6,8,10,12,14,-1,-1,-1,-1,-1,-1,-1,-1],"split_conditions":[1.2926161E0,9.906733E-1,9.149355E-1,-1.8844886E0,-1.4115289E-1,1.4928445E0,-9.855596E-1,-1.871172E-1,5.2208323E-3,-1.8916517E-1,3.2123335E-2,1.266633E-1,-4.972252E-3,1.4415054E-1,-1.9757475E-1],"split_indices":[6,7,0,5,3,7,3,0,0,0,0,0,0,0,0],"split_type":[0,0,0,0,0,0,0,0,0,0,0,0,0,0,0],"sum_hessian":[4.16385E3,3.6410955E3,5.227547E2,3.365696E3,2.7539938E2,4.151471E2,1.0760762E2,3.956745E1,3.3261287E3,1.6577303E2,1.09626366E2,2.3783873E2,1.7730836E2,2.861208E1,7.8995544E1],"tree_param":{"num_deleted":"0","num_feature":"10","num_nodes":"15","size_leaf_vector":"1"}},{"base_weights":[-3.3178186E-4,-1.4547773E-2,1.4656854E-1,8.162396E-3,-3.1671706E-1,-2.3257628E-2,3.954354E-1,3.4095838E-3,-2.8708413E-1,2.1429643E-2,-1.7016287E-1,-1.0607875E-1,8.228359E-2,2.5575283E-1,7.463518E-2],"categories":[],"categories_nodes":[],"categories_segments":[],"categories_sizes":[],"default_left":[0,0,0,0,0,0,0,0,0,0,0,0,0,0,0],"id":9,"left_children":[1,3,5,7,9,11,13,-1,-1,-1,-1,-1,-1,-1,-1],"loss_changes":[8.69124E0,2.6042128E1,1.5529184E1,1.0923477E1,2.5833126E1,2.1642899E1,9.775566E0,0E0,0E0,0E0,0E0,0E0,0E0,0E0,0E0],"parents":[2147483647,0,0,1,1,2,2,3,3,4,4,5,5,6,6],"right_children":[2,4,6,8,10,12,14,-1,-1,-1,-1,-1,-1,-1,-1],"split_conditions":[1.4594857E0,1.2275186E0,6.157008E-1,1.72539E0,-5.274243E-1,6.1267413E-2,-1.0801544E0,3.4095838E-3,-2.8708413E-1,2.1429643E-2,-1.7016287E-1,-1.0607875E-1,8.228359E-2,2.5575283E-1,7.463518E-2],"split_indices":[1,1,5,4,5,8,8,0,0,0,0,0,0,0,0],"split_type":[0,0,0,0,0,0,0,0,0,0,0,0,0,0,0],"sum_hessian":[4.159785E3,3.7935708E3,3.6621442E2,3.5292925E3,2.642784E2,2.1821295E2,1.4800146E2,3.5186035E3,1.068887E1,1.03937485E2,1.6034093E2,1.0331717E2,1.1489579E2,3.4781998E1,1.1321947E2],"tree_param":{"num_deleted":"0","num_feature":"10","num_nodes":"15","size_leaf_vector":"1"}},{"base_weights":[-2.6615788E-4,-3.4090234E-3,5.8704704E-1,-5.1513534E-2,3.4238685E-2,1.1101286E0,-8.369367E-1,-2.2720048E-1,-1.2563703E-2,1.2903209E-1,5.870923E-3,4.416944E-1,-7.599773E-2,-4.5868626E-1,2.4374004E-1],"categories":[],"categories_nodes":[],"categories_segments":[],"categories_sizes":[],"default_left":[0,0,0,0,0,0,0,0,0,0,0,0,0,0,0],"id":10,"left_children":[1,3,5,7,9,11,13,-1,-1,-1,-1,-1,-1,-1,-1],"loss_changes":[7.67589E0,7.4926095E0,1.7416267E1,1.2319805E1,1.34690695E1,8.579317E0,8.680421E0,0E0,0E0,0E0,0E0,0E0,0E0,0E0,0E0],"parents":[2147483647,0,0,1,1,2,2,3,3,4,4,5,5,6,6],"right_children":[2,4,6,8,10,12,14,-1,-1,-1,-1,-1,-1,-1,-1],"split_conditions":[2.3405762E0,-9.410641E-2,-4.3390325E-1,-1.6821563E0,-1.5515657E-1,2.7210698E-1,1.2947878E0,-2.2720048E-1,-1.2563703E-2,1.2903209E-1,5.870923E-3,4.416944E-1,-7.599773E-2,-4.5868626E-1,2.4374004E-1],"split_indices":[8,5,4,0,4,0,0,0,0,0,0,0,0,0,0],"split_type":[0,0,0,0,0,0,0,0,0,0,0,0,0,0,0],"sum_hessian":[4.156382E3,4.1352476E3,2.1134586E1,1.8153317E3,2.3199158E3,1.5617947E1,5.5166397E0,2.3400696E1,1.7919309E3,8.188119E1,2.2380344E3,1.2276891E1,3.3410559E0,3.9376152E0,1.5790248E0],"tree_param":{"num_deleted":"0","num_feature":"10","num_nodes":"15","size_leaf_vector":"1"}},{"base_weights":[-1.8202586E-4,6.8732835E-2,-2.1346286E-2,-8.6438864E-2,2.1838121E-1,-1.0943521E0,-1.8049832E-2,5.034459E-3,-1.7454188E-1,1.3006052E-1,-1.3185938E-2,-4.7811016E-1,2.0137314E-1,-3.5292886E-2,4.150338E-3],"categories":[],"categories_nodes":[],"categories_segments":[],"categories_sizes":[],"default_left":[0,0,0,0,0,0,0,0,0,0,0,0,0,0,0],"id":11,"left_children":[1,3,5,7,9,11,13,-1,-1,-1,-1,-1,-1,-1,-1],"loss_changes":[6.062321E0,2.2695938E1,1.1227848E1,2.456093E1,2.8094267E1,9.641524E0,1.0071502E1,0E0,0E0,0E0,0E0,0E0,0E0,0E0,0E0],"parents":[2147483647,0,0,1,1,2,2,3,3,4,4,5,5,6,6],"right_children":[2,4,6,8,10,12,14,-1,-1,-1,-1,-1,-1,-1,-1],"split_conditions":[-8.5934794E-1,-1.1364928E0,-1.9760473E0,-1.1978841E0,5.6038145E-2,1.4949644E0,-3.4884727E-1,5.034459E-3,-1.7454188E-1,1.3006052E-1,-1.3185938E-2,-4.7811016E-1,2.0137314E-1,-3.5292886E-2,4.150338E-3],"split_indices":[8,8,5,8,3,6,9,0,0,0,0,0,0,0,0],"split_type":[0,0,0,0,0,0,0,0,0,0,0,0,0,0,0],"sum_hessian":[4.154448E3,9.7556744E2,3.1788809E3,4.791525E2,4.9641498E2,8.722436E0,3.1701584E3,3.9732703E2,8.182546E1,2.7237427E2,2.240407E2,6.8753095E0,1.8471266E0,7.6813574E2,2.4020227E3],"tree_param":{"num_deleted":"0","num_feature":"10","num_nodes":"15","size_leaf_vector":"1"}},{"base_weights":[-2.3568583E-4,-2.8801093E-2,7.528979E-2,3.9033507E-4,-5.1533496E-1,2.2540155E-1,-4.655348E-2,-5.5161018E-2,9.620251E-3,-3.9490244E-1,-1.0896366E-1,7.395257E-2,-5.050596E-1,-9.570745E-2,2.6512535E-2],"categories":[],"categories_nodes":[],"categories_segments":[],"categories_sizes":[],"default_left":[0,0,0,0,0,0,0,0,0,0,0,0,0,0,0],"id":12,"left_children":[1,3,5,7,9,11,13,-1,-1,-1,-1,-1,-1,-1,-1],"loss_changes":[8.960742E0,4.2801643E1,2.0858011E1,1.6606182E1,2.030732E1,2.0997864E1,2.3188923E1,0E0,0E0,0E0,0E0,0E0,0E0,0E0,0E0],"parents":[2147483647,0,0,1,1,2,2,3,3,4,4,5,5,6,6],"right_children":[2,4,6,8,10,12,14,-1,-1,-1,-1,-1,-1,-1,-1],"split_conditions":[4.4939932E-1,3.2449123E-1,1.2060285E0,-1.1699579E0,-1.0492085E0,1.3907773E0,1.6550423E0,-5.5161018E-2,9.620251E-3,-3.9490244E-1,-1.0896366E-1,7.395257E-2,-5.050596E-1,-9.570745E-2,2.6512535E-2],"split_indices":[2,3,2,0,1,5,3,0,0,0,0,0,0,0,0],"split_type":[0,0,0,0,0,0,0,0,0,0,0,0,0,0,0],"sum_hessian":[4.151455E3,3.0126304E3,1.1388248E3,2.84305E3,1.6958028E2,5.0984378E2,6.2898096E2,4.1635916E2,2.426691E3,2.5844131E1,1.4373615E2,5.0512946E2,4.7143345E0,2.0786314E2,4.2111786E2],"tree_param":{"num_deleted":"0","num_feature":"10","num_nodes":"15","size_leaf_vector":"1"}},{"base_weights":[-4.7192717E-4,5.8332987E-2,-3.1399433E-2,8.438811E-2,-4.796315E-1,-6.3374823E-1,-1.960368E-2,-2.4218343E-1,3.004927E-2,-4.9547526E-1,-4.6073012E-2,-6.809949E-2,-4.4093144E-1,-3.3607487E-2,3.9477968E-3],"categories":[],"categories_nodes":[],"categories_segments":[],"categories_sizes":[],"default_left":[0,0,0,0,0,0,0,0,0,0,0,0,0,0,0],"id":13,"left_children":[1,3,5,7,9,11,13,-1,-1,-1,-1,-1,-1,-1,-1],"loss_changes":[7.547226E0,2.0088512E1,1.9310156E1,1.9283363E1,2.5051397E1,1.7417532E1,8.081125E0,0E0,0E0,0E0,0E0,0E0,0E0,0E0,0E0],"parents":[2147483647,0,0,1,1,2,2,3,3,4,4,5,5,6,6],"right_children":[2,4,6,8,10,12,14,-1,-1,-1,-1,-1,-1,-1,-1],"split_conditions":[-5.7697463E-1,1.9358097E0,-5.68088E-1,-1.4075743E0,2.055094E0,-6.1963767E-1,1.0022889E-1,-2.4218343E-1,3.004927E-2,-4.9547526E-1,-4.6073012E-2,-6.809949E-2,-4.4093144E-1,-3.3607487E-2,3.9477968E-3],"split_indices":[0,9,1,8,8,1,0,0,0,0,0,0,0,0,0],"split_type":[0,0,0,0,0,0,0,0,0,0,0,0,0,0,0],"sum_hessian":[4.147809E3,1.4292936E3,2.7185154E3,1.364071E3,6.5222626E1,5.1201267E1,2.667314E3,2.2842497E1,1.3412285E3,1.3311429E1,5.1911194E1,3.5298855E1,1.5902412E1,6.974515E2,1.9698627E3],"tree_param":{"num_deleted":"0","num_feature":"10","num_nodes":"15","size_leaf_vector":"1"}},{"base_weights":[-7.7648467E-4,-1.1889191E-2,1.1430805E-1,5.06324E-3,-2.3128666E-1,1.8543366E-1,-8.6897767E-1,-1.867188E-3,1.21452264E-1,-2.0116788E-1,5.6897416E-3,3.1839788E-2,3.226936E-1,2.9176865E-2,-5.649314E-1],"categories":[],"categories_nodes":[],"categories_segments":[],"categories_sizes":[],"default_left":[0,0,0,0,0,0,0,0,0,0,0,0,0,0,0],"id":14,"left_children":[1,3,5,7,9,11,13,-1,-1,-1,-1,-1,-1,-1,-1],"loss_changes":[5.3012886E0,1.4060614E1,2.5689384E1,1.5840743E1,2.9820393E1,2.3974201E1,2.448261E1,0E0,0E0,0E0,0E0,0E0,0E0,0E0,0E0],"parents":[2147483647,0,0,1,1,2,2,3,3,4,4,5,5,6,6],"right_children":[2,4,6,8,10,12,14,-1,-1,-1,-1,-1,-1,-1,-1],"split_conditions":[1.4409404E0,1.1877702E0,2.7991086E-1,1.1153618E0,-6.058206E-1,2.0224054E-1,-5.4231477E-1,-1.867188E-3,1.21452264E-1,-2.0116788E-1,5.6897416E-3,3.1839788E-2,3.226936E-1,2.9176865E-2,-5.649314E-1],"split_indices":[4,4,9,4,3,8,1,0,0,0,0,0,0,0,0],"split_type":[0,0,0,0,0,0,0,0,0,0,0,0,0,0,0],"sum_hessian":[4.143129E3,3.77911E3,3.6401892E2,3.5089565E3,2.7015356E2,3.4022058E2,2.3798313E1,3.4135635E3,9.539308E1,9.743846E1,1.7271512E2,3.1342E2,2.6800577E1,1.2649907E1,1.1148405E1],"tree_param":{"num_deleted":"0","num_feature":"10","num_nodes":"15","size_leaf_vector":"1"}},{"base_weights":[-6.019554E-4,-1.183528E-2,1.10420235E-1,1.0673092E-2,-1.23857714E-1,-4.835982E-1,1.3851812E-1,-5.826638E-3,6.741124E-2,-4.8449856E-1,-3.0564008E-2,2.6757926E-1,2.4647117E-2],"categories":[],"categories_nodes":[],"categories_segments":[],"categories_sizes":[],"default_left":[0,0,0,0,0,0,0,0,0,0,0,0,0],"id":15,"left_children":[1,3,5,7,9,-1,11,-1,-1,-1,-1,-1,-1],"loss_changes":[5.1653485E0,9.484773E0,1.86409E1,2.0183498E1,2.0460476E1,0E0,1.586617E1,0E0,0E0,0E0,0E0,0E0,0E0],"parents":[2147483647,0,0,1,1,2,2,3,3,4,4,6,6],"right_children":[2,4,6,8,10,-1,12,-1,-1,-1,-1,-1,-1],"split_conditions":[1.3762691E0,8.570524E-1,-1.420459E0,6.768164E-1,-1.8052527E0,-4.835982E-1,1.3869311E0,-5.826638E-3,6.741124E-2,-4.8449856E-1,-3.0564008E-2,2.6757926E-1,2.4647117E-2],"split_indices":[7,6,8,7,1,0,6,0,0,0,0,0,0],"split_type":[0,0,0,0,0,0,0,0,0,0,0,0,0],"sum_hessian":[4.13968E3,3.7601213E3,3.7955902E2,3.131768E3,6.2835315E2,5.187574E0,3.7437146E2,2.7464893E3,3.852787E2,8.073895E0,6.202793E2,2.5024773E1,3.4934668E2],"tree_param":{"num_deleted":"0","num_feature":"10","num_nodes":"13","size_leaf_vector":"1"}},{"base_weights":[-6.172318E-4,-4.180286E-1,2.0495192E-3,-1.009831E0,9.122528E-1,-1.805758E-2,6.74336E-2,-4.3403676E-1,-1.6692829E-1,1.3667063E-2,3.654742E-1,6.1456105E-3,-5.755299E-2,7.619355E-2,-1.3098664E-2],"categories":[],"categories_nodes":[],"categories_segments":[],"categories_sizes":[],"default_left":[0,0,0,0,0,0,0,0,0,0,0,0,0,0,0],"id":16,"left_children":[1,3,5,7,9,11,13,-1,-1,-1,-1,-1,-1,-1,-1],"loss_changes":[4.606652E0,2.1604107E1,5.4077477E0,2.8913536E0,2.2290745E0,2.1076416E1,2.006048E1,0E0,0E0,0E0,0E0,0E0,0E0,0E0,0E0],"parents":[2147483647,0,0,1,1,2,2,3,3,4,4,5,5,6,6],"right_children":[2,4,6,8,10,12,14,-1,-1,-1,-1,-1,-1,-1,-1],"split_conditions":[-1.7100307E0,1.1079423E0,6.3039976E-1,-2.759796E-1,-8.27121E-1,1.6049077E-1,-5.546312E-1,-4.3403676E-1,-1.6692829E-1,1.3667063E-2,3.654742E-1,6.1456105E-3,-5.755299E-2,7.619355E-2,-1.3098664E-2],"split_indices":[6,5,2,1,2,3,0,0,0,0,0,0,0,0,0],"split_type":[0,0,0,0,0,0,0,0,0,0,0,0,0,0,0],"sum_hessian":[4.1366895E3,2.527187E1,4.1114175E3,1.7657476E1,7.6143928E0,3.144986E3,9.664313E2,7.8760953E0,9.781382E0,2.2866342E0,5.327759E0,2.5748147E3,5.7017145E2,3.6024503E2,6.061862E2],"tree_param":{"num_deleted":"0","num_feature":"10","num_nodes":"15","size_leaf_vector":"1"}},{"base_weights":[-5.0549005E-4,-2.9476138E-3,4.6941292E-1,-1.2744103E-2,1.2465721E-1,8.734566E-1,-6.698228E-1,6.097305E-4,-9.06851E-2,-2.9657535E-2,1.0712319E-1,3.4698963E-1,-5.2169766E-2,-3.7743238E-1,1.9965293E-1],"categories":[],"categories_nodes":[],"categories_segments":[],"categories_sizes":[],"default_left":[0,0,0,0,0,0,0,0,0,0,0,0,0,0,0],"id":17,"left_children":[1,3,5,7,9,11,13,-1,-1,-1,-1,-1,-1,-1,-1],"loss_changes":[4.7437406E0,5.1419716E0,1.0422156E1,1.634309E1,1.5270788E1,5.0087633E0,5.677161E0,0E0,0E0,0E0,0E0,0E0,0E0,0E0,0E0],"parents":[2147483647,0,0,1,1,2,2,3,3,4,4,5,5,6,6],"right_children":[2,4,6,8,10,12,14,-1,-1,-1,-1,-1,-1,-1,-1],"split_conditions":[2.3405762E0,1.5251054E0,-4.7665897E-1,1.3240075E0,3.4555703E-1,2.7210698E-1,1.2947878E0,6.097305E-4,-9.06851E-2,-2.9657535E-2,1.0712319E-1,3.4698963E-1,-5.2169766E-2,-3.7743238E-1,1.9965293E-1],"split_indices":[8,0,5,0,5,0,0,0,0,0,0,0,0,0,0],"split_type":[0,0,0,0,0,0,0,0,0,0,0,0,0,0,0],"sum_hessian":[4.131416E3,4.1110454E3,2.0371006E1,3.8187705E3,2.9227484E2,1.520992E1,5.161085E0,3.6342888E3,1.8448154E2,1.4928441E2,1.4299042E2,1.189068E1,3.31924E0,3.6228561E0,1.5382292E0],"tree_param":{"num_deleted":"0","num_feature":"10","num_nodes":"15","size_leaf_vector":"1"}},{"base_weights":[-3.0403995E-4,-1.2931608E-2,8.461136E-2,-6.016422E-3,-5.017248E-1,-3.8871047E-1,9.72158E-2,-3.6341492E-2,2.8173237E-3,1.6247775E-1,-3.293892E-1,7.193041E-2,-9.825982E-3],"categories":[],"categories_nodes":[],"categories_segments":[],"categories_sizes":[],"default_left":[0,0,0,0,0,0,0,0,0,0,0,0,0],"id":18,"left_children":[1,3,5,7,9,-1,11,-1,-1,-1,-1,-1,-1],"loss_changes":[4.427971E0,1.2148079E1,9.426832E0,6.2903957E0,3.1783255E1,0E0,9.840054E0,0E0,0E0,0E0,0E0,0E0,0E0],"parents":[2147483647,0,0,1,1,2,2,3,3,4,4,6,6],"right_children":[2,4,6,8,10,-1,12,-1,-1,-1,-1,-1,-1],"split_conditions":[1.2788975E0,1.1969223E0,-1.427028E0,-1.2983588E0,-1.0085049E0,-3.8871047E-1,-5.575846E-1,-3.6341492E-2,2.8173237E-3,1.6247775E-1,-3.293892E-1,7.193041E-2,-9.825982E-3],"split_indices":[6,7,8,1,4,0,9,0,0,0,0,0,0],"split_type":[0,0,0,0,0,0,0,0,0,0,0,0,0],"sum_hessian":[4.1274897E3,3.5938975E3,5.335922E2,3.5447605E3,4.9137077E1,3.90729E0,5.2968494E2,4.1760843E2,3.1271519E3,1.7902464E1,3.1234613E1,2.5221098E2,2.7747397E2],"tree_param":{"num_deleted":"0","num_feature":"10","num_nodes":"13","size_leaf_vector":"1"}},{"base_weights":[-4.2439238E-4,4.4133204E-1,-2.7723839E-3,6.884915E-1,-2.125239E-1,-2.8377363E-1,3.516747E-3,2.9833612E-1,8.149851E-2,1.835958E-1,-5.143913E-1,-2.8885582E-3,-2.2844209E-1,1.836418E-1,-7.297997E-4],"categories":[],"categories_nodes":[],"categories_segments":[],"categories_sizes":[],"default_left":[0,0,0,0,0,0,0,0,0,0,0,0,0,0,0],"id":19,"left_children":[1,3,5,7,9,11,13,-1,-1,-1,-1,-1,-1,-1,-1],"loss_changes":[4.280648E0,3.672473E0,7.2555027E0,1.7793059E0,9.408566E0,1.1762583E1,1.4543518E1,0E0,0E0,0E0,0E0,0E0,0E0,0E0,0E0],"parents":[2147483647,0,0,1,1,2,2,3,3,4,4,5,5,6,6],"right_children":[2,4,6,8,10,12,14,-1,-1,-1,-1,-1,-1,-1,-1],"split_conditions":[-1.4404259E0,8.742005E-1,-1.3821636E0,5.9938335E-1,-4.6356417E-2,5.154042E-1,-1.387751E0,2.9833612E-1,8.149851E-2,1.835958E-1,-5.143913E-1,-2.8885582E-3,-2.2844209E-1,1.836418E-1,-7.297997E-4],"split_indices":[2,6,2,5,8,7,3,0,0,0,0,0,0,0,0],"split_type":[0,0,0,0,0,0,0,0,0,0,0,0,0,0,0],"sum_hessian":[4.124779E3,2.0819342E1,4.1039595E3,1.5069901E1,5.7494397E0,8.887472E1,4.0150847E3,7.891567E0,7.1783347E0,4.0945344E0,1.6549056E0,5.7116524E1,3.1758196E1,3.788198E1,3.9772026E3],"tree_param":{"num_deleted":"0","num_feature":"10","num_nodes":"15","size_leaf_vector":"1"}},{"base_weights":[-2.7313927E-4,7.225438E-2,-1.1603147E-2,-4.9421182E-1,9.2672974E-2,-4.342042E-1,-9.139831E-3,4.885755E-3,1.0751799E-1,-4.1417226E-2,3.343479E-3],"categories":[],"categories_nodes":[],"categories_segments":[],"categories_sizes":[],"default_left":[0,0,0,0,0,0,0,0,0,0,0],"id":20,"left_children":[1,3,5,-1,7,-1,9,-1,-1,-1,-1],"loss_changes":[3.3871899E0,1.9707542E1,1.2595225E1,0E0,1.1184933E1,0E0,9.311011E0,0E0,0E0,0E0,0E0],"parents":[2147483647,0,0,1,1,2,2,4,4,6,6],"right_children":[2,4,6,-1,8,-1,10,-1,-1,-1,-1],"split_conditions":[-1.3049656E0,-1.3876163E0,-1.421941E0,-4.9421182E-1,-1.365352E0,-4.342042E-1,-7.938273E-1,4.885755E-3,1.0751799E-1,-4.1417226E-2,3.343479E-3],"split_indices":[7,8,6,0,6,0,7,0,0,0,0],"split_type":[0,0,0,0,0,0,0,0,0,0,0],"sum_hessian":[4.119966E3,5.5592285E2,3.5640427E3,5.588478E0,5.503344E2,5.0997357E0,3.558943E3,4.2827783E2,1.2205656E2,4.8306573E2,3.0758774E3],"tree_param":{"num_deleted":"0","num_feature":"10","num_nodes":"11","size_leaf_vector":"1"}},{"base_weights":[-4.3609407E-4,-1.7637668E-2,4.4915278E-2,1.1006781E-2,-2.1531293E-1,6.830201E-2,-4.996361E-1,-3.8467936E-2,1.0442764E-2,1.7109354E-1,-7.980036E-2,6.301012E-2,-8.700949E-3,-5.590587E-1,3.9051126E-3],"categories":[],"categories_nodes":[],"categories_segments":[],"categories_sizes":[],"default_left":[0,0,0,0,0,0,0,0,0,0,0,0,0,0,0],"id":21,"left_children":[1,3,5,7,9,11,13,-1,-1,-1,-1,-1,-1,-1,-1],"loss_changes":[3.2135842E0,1.691316E1,1.4460624E1,8.652619E0,1.5206249E1,1.4997585E1,3.272391E1,0E0,0E0,0E0,0E0,0E0,0E0,0E0,0E0],"parents":[2147483647,0,0,1,1,2,2,3,3,4,4,5,5,6,6],"right_children":[2,4,6,8,10,12,14,-1,-1,-1,-1,-1,-1,-1,-1],"split_conditions":[4.4939932E-1,1.8196714E-1,8.283199E-1,-1.1699579E0,-1.349259E0,1.151845E0,-6.39043E-1,-3.8467936E-2,1.0442764E-2,1.7109354E-1,-7.980036E-2,6.301012E-2,-8.700949E-3,-5.590587E-1,3.9051126E-3],"split_indices":[2,3,4,0,9,2,9,0,0,0,0,0,0,0,0],"split_type":[0,0,0,0,0,0,0,0,0,0,0,0,0,0,0],"sum_hessian":[4.117357E3,2.9855588E3,1.1317981E3,2.6085125E3,3.7704633E2,1.0860311E3,4.576697E1,3.801899E2,2.2283225E3,2.2231155E1,3.548152E2,4.4162103E2,6.4441003E2,1.1783195E1,3.3983776E1],"tree_param":{"num_deleted":"0","num_feature":"10","num_nodes":"15","size_leaf_vector":"1"}},{"base_weights":[-4.666371E-4,1.1645164E-1,-8.672842E-3,-2.7865678E-1,2.4440947E-1,-2.3250951E-1,2.6360177E-3,2.1230961E-1,-1.7664891E-1,1.5695292E-1,-2.8992877E-3,-3.8278154E-1,-4.9843255E-2,2.4462724E-2,-6.495342E-3],"categories":[],"categories_nodes":[],"categories_segments":[],"categories_sizes":[],"default_left":[0,0,0,0,0,0,0,0,0,0,0,0,0,0,0],"id":22,"left_children":[1,3,5,7,9,11,13,-1,-1,-1,-1,-1,-1,-1,-1],"loss_changes":[3.9472294E0,1.3709265E1,9.731484E0,2.0753355E1,1.4478185E1,1.2591086E1,7.0163584E0,0E0,0E0,0E0,0E0,0E0,0E0,0E0,0E0],"parents":[2147483647,0,0,1,1,2,2,3,3,4,4,5,5,6,6],"right_children":[2,4,6,8,10,12,14,-1,-1,-1,-1,-1,-1,-1,-1],"split_conditions":[-1.5561024E0,-6.551032E-1,-1.3327253E0,-1.0017877E0,5.431791E-1,-1.47853E0,-6.577577E-1,2.1230961E-1,-1.7664891E-1,1.5695292E-1,-2.8992877E-3,-3.8278154E-1,-4.9843255E-2,2.4462724E-2,-6.495342E-3],"split_indices":[1,4,1,9,5,6,0,0,0,0,0,0,0,0,0],"split_type":[0,0,0,0,0,0,0,0,0,0,0,0,0,0,0],"sum_hessian":[4.111979E3,2.6881625E2,3.8431626E3,6.547248E1,2.0334377E2,1.8388861E2,3.659274E3,1.5356597E1,5.0115883E1,9.6455124E1,1.0688864E2,9.906572E0,1.7398204E2,8.60675E2,2.798599E3],"tree_param":{"num_deleted":"0","num_feature":"10","num_nodes":"15","size_leaf_vector":"1"}},{"base_weights":[-4.155548E-4,-4.473165E-3,1.9144988E-1,3.525353E-3,-2.6347414E-1,-8.346408E-1,3.8245773E-1,1.7243786E-6,1.9123678E-1,-1.6389653E-1,7.9353236E-2,-4.8110414E-1,3.2131467E-2,1.6522536E-1,-3.050933E-1],"categories":[],"categories_nodes":[],"categories_segments":[],"categories_sizes":[],"default_left":[0,0,0,0,0,0,0,0,0,0,0,0,0,0,0],"id":23,"left_children":[1,3,5,7,9,11,13,-1,-1,-1,-1,-1,-1,-1,-1],"loss_changes":[3.2003548E0,8.340474E0,1.7005247E1,8.715003E0,1.8156105E1,1.0075971E1,1.762587E1,0E0,0E0,0E0,0E0,0E0,0E0,0E0,0E0],"parents":[2147483647,0,0,1,1,2,2,3,3,4,4,5,5,6,6],"right_children":[2,4,6,8,10,12,14,-1,-1,-1,-1,-1,-1,-1,-1],"split_conditions":[2.2248676E0,1.9867206E0,-1.2082227E0,1.9612651E0,2.1051489E-1,2.3405762E0,5.3557545E-1,1.7243786E-6,1.9123678E-1,-1.6389653E-1,7.9353236E-2,-4.8110414E-1,3.2131467E-2,1.6522536E-1,-3.050933E-1],"split_indices":[8,9,5,9,7,8,4,0,0,0,0,0,0,0,0],"split_type":[0,0,0,0,0,0,0,0,0,0,0,0,0,0,0],"sum_hessian":[4.108744E3,4.0246077E3,8.4136566E1,3.9049993E3,1.1960855E2,1.2675319E1,7.146125E1,3.8844326E3,2.0566502E1,7.786216E1,4.174639E1,6.590536E0,6.084782E0,6.433133E1,7.1299157E0],"tree_param":{"num_deleted":"0","num_feature":"10","num_nodes":"15","size_leaf_vector":"1"}},{"base_weights":[-4.7361045E-4,-3.1934467E-3,2.7490908E-1,-6.6731364E-4,-8.7311506E-1,-2.908119E-1,7.222756E-1,-7.7736756E-4,2.449326E-1,-4.4771907E-1,4.775906E-2,-3.7904203E-1,3.9017662E-1,3.006909E-1,-4.5593837E-1],"categories":[],"categories_nodes":[],"categories_segments":[],"categories_sizes":[],"default_left":[0,0,0,0,0,0,0,0,0,0,0,0,0,0,0],"id":24,"left_children":[1,3,5,7,9,11,13,-1,-1,-1,-1,-1,-1,-1,-1],"loss_changes":[3.0770252E0,8.938672E0,1.0378513E1,6.380021E0,7.7668533E0,3.0209793E1,1.5789744E1,0E0,0E0,0E0,0E0,0E0,0E0,0E0,0E0],"parents":[2147483647,0,0,1,1,2,2,3,3,4,4,5,5,6,6],"right_children":[2,4,6,8,10,12,14,-1,-1,-1,-1,-1,-1,-1,-1],"split_conditions":[2.3860283E0,2.3427203E0,-3.9371975E-2,2.3442342E0,4.6703097E-1,3.3058095E-1,8.390123E-2,-7.7736756E-4,2.449326E-1,-4.4771907E-1,4.775906E-2,-3.7904203E-1,3.9017662E-1,3.006909E-1,-4.5593837E-1],"split_indices":[2,2,4,3,5,8,9,0,0,0,0,0,0,0,0],"split_type":[0,0,0,0,0,0,0,0,0,0,0,0,0,0,0],"sum_hessian":[4.106029E3,4.0668506E3,3.9178127E1,4.056073E3,1.0777513E1,1.7455095E1,2.1723034E1,4.0475398E3,8.533239E0,6.4578047E0,4.3197074E0,1.0961503E1,6.493592E0,1.9802696E1,1.9203362E0],"tree_param":{"num_deleted":"0","num_feature":"10","num_nodes":"15","size_leaf_vector":"1"}},{"base_weights":[-3.4767654E-4,-9.4926115E-3,7.749823E-2,3.4154943E-4,-4.4095352E-1,1.0756801E-1,-4.724812E-1,-1.792268E-3,1.3804859E-1,-3.5894555E-1,-5.4801623E-3,1.4442493E-1,9.142809E-3],"categories":[],"categories_nodes":[],"categories_segments":[],"categories_sizes":[],"default_left":[0,0,0,0,0,0,0,0,0,0,0,0,0],"id":25,"left_children":[1,3,5,7,9,11,-1,-1,-1,-1,-1,-1,-1],"loss_changes":[2.9222736E0,1.5586394E1,2.1611498E1,1.043579E1,2.6120575E1,1.2227067E1,0E0,0E0,0E0,0E0,0E0,0E0,0E0],"parents":[2147483647,0,0,1,1,2,2,3,3,4,4,5,5],"right_children":[2,4,6,8,10,12,-1,-1,-1,-1,-1,-1,-1],"split_conditions":[1.3472646E0,1.2602386E0,4.162257E-1,1.2771142E0,-5.472492E-1,1.3998431E0,-4.724812E-1,-1.792268E-3,1.3804859E-1,-3.5894555E-1,-5.4801623E-3,1.4442493E-1,9.142809E-3],"split_indices":[5,5,8,4,3,5,0,0,0,0,0,0,0],"split_type":[0,0,0,0,0,0,0,0,0,0,0,0,0],"sum_hessian":[4.102885E3,3.6723538E3,4.305311E2,3.5914932E3,8.0860634E1,4.2375482E2,6.7762704E0,3.5438047E3,4.768826E1,2.8352041E1,5.250859E1,7.154776E1,3.5220706E2],"tree_param":{"num_deleted":"0","num_feature":"10","num_nodes":"13","size_leaf_vector":"1"}},{"base_weights":[-4.750357E-4,-1.4798747E-1,4.5322934E-3,1.2517266E-1,-5.561718E-1,-4.5839554E-1,6.4353873E-3,-4.190719E-2,2.6500663E-1,-3.530857E-1,1.0164494E-2,8.8684775E-2,-1.1749604E-3],"categories":[],"categories_nodes":[],"categories_segments":[],"categories_sizes":[],"default_left":[0,0,0,0,0,0,0,0,0,0,0,0,0],"id":26,"left_children":[1,3,5,7,9,-1,11,-1,-1,-1,-1,-1,-1],"loss_changes":[3.0293229E0,1.50825E1,1.1578653E1,1.6485857E1,1.988008E1,0E0,1.1863859E1,0E0,0E0,0E0,0E0,0E0,0E0],"parents":[2147483647,0,0,1,1,2,2,3,3,4,4,6,6],"right_children":[2,4,6,8,10,-1,12,-1,-1,-1,-1,-1,-1],"split_conditions":[-1.4167172E0,-1.4829023E0,-1.3876163E0,8.494957E-1,1.0596186E-1,-4.5839554E-1,-1.313621E0,-4.190719E-2,2.6500663E-1,-3.530857E-1,1.0164494E-2,8.8684775E-2,-1.1749604E-3],"split_indices":[9,9,8,1,6,0,9,0,0,0,0,0,0],"split_type":[0,0,0,0,0,0,0,0,0,0,0,0,0],"sum_hessian":[4.0992905E3,1.336451E2,3.9656458E3,8.0480354E1,5.316474E1,3.923901E0,3.9617217E3,6.0248814E1,2.0231543E1,2.5423088E1,2.7741652E1,1.359658E2,3.8257559E3],"tree_param":{"num_deleted":"0","num_feature":"10","num_nodes":"13","size_leaf_vector":"1"}},{"base_weights":[-4.6929464E-4,-1.0000944E-1,8.492097E-3,3.144034E-2,-6.3315266E-1,-1.037274E0,1.2390587E-2,2.135777E-2,-4.729771E-1,1.024253E-1,-2.7997014E-1,-4.1974593E-2,-5.168141E-1,1.576513E-1,1.2832682E-3],"categories":[],"categories_nodes":[],"categories_segments":[],"categories_sizes":[],"default_left":[0,0,0,0,0,0,0,0,0,0,0,0,0,0,0],"id":27,"left_children":[1,3,5,7,9,11,13,-1,-1,-1,-1,-1,-1,-1,-1],"loss_changes":[3.6566148E0,2.3747206E1,1.5345049E1,1.7534689E1,1.9916418E1,8.357439E0,1.5599332E1,0E0,0E0,0E0,0E0,0E0,0E0,0E0,0E0],"parents":[2147483647,0,0,1,1,2,2,3,3,4,4,5,5,6,6],"right_children":[2,4,6,8,10,12,14,-1,-1,-1,-1,-1,-1,-1,-1],"split_conditions":[-1.2436178E0,-1.313621E0,-1.2673602E0,1.5914853E0,-1.0802504E0,-1.2883292E0,-1.1978841E0,2.135777E-2,-4.729771E-1,1.024253E-1,-2.7997014E-1,-4.1974593E-2,-5.168141E-1,1.576513E-1,1.2832682E-3],"split_indices":[9,9,8,7,3,8,8,0,0,0,0,0,0,0,0],"split_type":[0,0,0,0,0,0,0,0,0,0,0,0,0,0,0],"sum_hessian":[4.097308E3,3.3756696E2,3.7597412E3,2.7155453E2,6.6012436E1,1.2979322E1,3.7467617E3,2.6593604E2,5.618494E0,1.5508357E1,5.0504078E1,6.14222E0,6.8371024E0,5.7326645E1,3.689435E3],"tree_param":{"num_deleted":"0","num_feature":"10","num_nodes":"15","size_leaf_vector":"1"}},{"base_weights":[-6.3915167E-4,-3.2879737E-1,1.5925604E-3,-4.4606364E-1,-5.318213E-2,4.0942484E-1,-2.277826E-3,9.2158616E-2,-3.7901935E-1,1.5941003E-1,-3.548258E-1,-9.278932E-2,9.287448E-4],"categories":[],"categories_nodes":[],"categories_segments":[],"categories_sizes":[],"default_left":[0,0,0,0,0,0,0,0,0,0,0,0,0],"id":28,"left_children":[1,3,5,-1,7,9,11,-1,-1,-1,-1,-1,-1],"loss_changes":[2.9995794E0,8.751572E0,6.422806E0,0E0,1.0587006E1,8.055311E0,6.651639E0,0E0,0E0,0E0,0E0,0E0,0E0],"parents":[2147483647,0,0,1,1,2,2,4,4,5,5,6,6],"right_children":[2,4,6,-1,8,10,12,-1,-1,-1,-1,-1,-1],"split_conditions":[-1.427028E0,-2.737215E-1,-1.4969026E0,-4.4606364E-1,9.8170614E-1,1.4555236E0,-1.4167172E0,9.2158616E-2,-3.7901935E-1,1.5941003E-1,-3.548258E-1,-9.278932E-2,9.287448E-4],"split_indices":[8,7,9,0,7,6,9,0,0,0,0,0,0],"split_type":[0,0,0,0,0,0,0,0,0,0,0,0,0],"sum_hessian":[4.094087E3,2.6666243E1,4.0674207E3,4.281491E0,2.238475E1,3.7252457E1,4.0301682E3,1.7823456E1,4.561296E0,3.5221195E1,2.0312622E0,6.8352104E1,3.9618162E3],"tree_param":{"num_deleted":"0","num_feature":"10","num_nodes":"13","size_leaf_vector":"1"}},{"base_weights":[-7.432214E-4,-1.107826E-2,7.7394865E-2,-9.033553E-3,-9.45412E-1,1.7368178E-1,-1.8105896E-1,5.992917E-3,-1.6508317E-2,4.0444088E-1,-4.8409337E-1,5.840715E-2,-4.3601653E-1,-2.1706816E-2,-3.5830355E-1],"categories":[],"categories_nodes":[],"categories_segments":[],"categories_sizes":[],"default_left":[0,0,0,0,0,0,0,0,0,0,0,0,0,0,0],"id":29,"left_children":[1,3,5,7,9,11,13,-1,-1,-1,-1,-1,-1,-1,-1],"loss_changes":[3.3060963E0,6.898905E0,1.19327E1,4.81621E0,1.4261021E1,1.221063E1,1.4265399E1,0E0,0E0,0E0,0E0,0E0,0E0,0E0,0E0],"parents":[2147483647,0,0,1,1,2,2,3,3,4,4,5,5,6,6],"right_children":[2,4,6,8,10,12,14,-1,-1,-1,-1,-1,-1,-1,-1],"split_conditions":[1.2865956E0,1.2776284E0,7.292164E-1,1.2996933E-1,-1.6099675E0,4.3113092E-1,1.6698761E0,5.992917E-3,-1.6508317E-2,4.0444088E-1,-4.8409337E-1,5.840715E-2,-4.3601653E-1,-2.1706816E-2,-3.5830355E-1],"split_indices":[7,7,1,6,0,8,6,0,0,0,0,0,0,0,0],"split_type":[0,0,0,0,0,0,0,0,0,0,0,0,0,0,0],"sum_hessian":[4.0918708E3,3.6146345E3,4.772362E2,3.607749E3,6.8855686E0,3.4793945E2,1.2929677E2,2.2126978E3,1.3950513E3,1.3239524E0,5.561616E0,3.4437323E2,3.566199E0,1.1773757E2,1.1559196E1],"tree_param":{"num_deleted":"0","num_feature":"10","num_nodes":"15","size_leaf_vector":"1"}},{"base_weights":[-7.9756294E-4,-3.5738108E-1,1.2715083E-3,-7.3780507E-1,8.941346E-1,1.9256473E-1,-5.7967594E-3,-1.1291976E-1,-3.864544E-1,8.549348E-2,3.221681E-1,-8.1097946E-2,1.215757E-1,-2.7800223E-1,6.805212E-5],"categories":[],"categories_nodes":[],"categories_segments":[],"categories_sizes":[],"default_left":[0,0,0,0,0,0,0,0,0,0,0,0,0,0,0],"id":30,"left_children":[1,3,5,7,9,11,13,-1,-1,-1,-1,-1,-1,-1,-1],"loss_changes":[3.0179114E0,1.1894754E1,5.5004573E0,3.2237444E0,3.4582758E-1,1.4380814E1,2.1762554E1,0E0,0E0,0E0,0E0,0E0,0E0,0E0,0E0],"parents":[2147483647,0,0,1,1,2,2,3,3,4,4,5,5,6,6],"right_children":[2,4,6,8,10,12,14,-1,-1,-1,-1,-1,-1,-1,-1],"split_conditions":[-1.7100307E0,1.3892694E0,-1.639723E0,3.12777E-1,-8.27121E-1,-2.518413E-1,-1.6088563E0,-1.1291976E-1,-3.864544E-1,8.549348E-2,3.221681E-1,-8.1097946E-2,1.215757E-1,-2.7800223E-1,6.805212E-5],"split_indices":[6,4,6,3,2,5,6,0,0,0,0,0,0,0,0],"split_type":[0,0,0,0,0,0,0,0,0,0,0,0,0,0,0],"sum_hessian":[4.088822E3,2.2597778E1,4.0662244E3,1.7644762E1,4.9530177E0,1.4395772E2,3.9222666E3,1.1667298E1,5.9774632E0,1.7176585E0,3.2353592E0,4.5235847E1,9.872186E1,2.4496162E1,3.8977705E3],"tree_param":{"num_deleted":"0","num_feature":"10","num_nodes":"15","size_leaf_vector":"1"}},{"base_weights":[-6.567726E-4,7.044532E-2,-1.16221E-2,4.6618062E-1,-6.72177E-3,-5.1054835E-1,-5.0538536E-3,-3.7364984E-1,1.5989752E-1,-3.7417218E-1,7.2149816E-3,-3.9503458E-1,2.8238405E-2,-4.062216E-2,3.4886322E-3],"categories":[],"categories_nodes":[],"categories_segments":[],"categories_sizes":[],"default_left":[0,0,0,0,0,0,0,0,0,0,0,0,0,0,0],"id":31,"left_children":[1,3,5,7,9,11,13,-1,-1,-1,-1,-1,-1,-1,-1],"loss_changes":[3.186704E0,1.6680464E1,1.1601984E1,1.0856567E1,1.7512901E1,2.2550652E1,7.604401E0,0E0,0E0,0E0,0E0,0E0,0E0,0E0,0E0],"parents":[2147483647,0,0,1,1,2,2,3,3,4,4,5,5,6,6],"right_children":[2,4,6,8,10,12,14,-1,-1,-1,-1,-1,-1,-1,-1],"split_conditions":[-1.2658228E0,-1.1166514E0,-1.2907162E0,-1.940693E0,-1.0378219E0,2.5535166E-1,-1.1364928E0,-3.7364984E-1,1.5989752E-1,-3.7417218E-1,7.2149816E-3,-3.9503458E-1,2.8238405E-2,-4.062216E-2,3.4886322E-3],"split_indices":[4,7,5,5,6,7,8,0,0,0,0,0,0,0,0],"split_type":[0,0,0,0,0,0,0,0,0,0,0,0,0,0,0],"sum_hessian":[4.0852615E3,5.4512195E2,3.5401394E3,8.812909E1,4.5699283E2,4.500252E1,3.495137E3,2.6479244E0,8.548116E1,1.0104678E1,4.4688815E2,1.8782104E1,2.6220417E1,3.9574902E2,3.099388E3],"tree_param":{"num_deleted":"0","num_feature":"10","num_nodes":"15","size_leaf_vector":"1"}},{"base_weights":[-7.6883106E-4,4.478229E-2,-1.8297454E-2,5.5451386E-2,-1.0420909E0,-1.388462E-1,1.1162178E-2,5.3557996E-2,-7.981542E-3,-5.1434064E-1,2.0798615E-1,2.015218E-1,-6.056257E-2,-2.007729E-1,5.9219887E-3],"categories":[],"categories_nodes":[],"categories_segments":[],"categories_sizes":[],"default_left":[0,0,0,0,0,0,0,0,0,0,0,0,0,0,0],"id":32,"left_children":[1,3,5,7,9,11,13,-1,-1,-1,-1,-1,-1,-1,-1],"loss_changes":[3.262217E0,1.3223131E1,1.0479119E1,1.1368817E1,1.4125311E1,2.974146E1,1.38562E1,0E0,0E0,0E0,0E0,0E0,0E0,0E0,0E0],"parents":[2147483647,0,0,1,1,2,2,3,3,4,4,5,5,6,6],"right_children":[2,4,6,8,10,12,14,-1,-1,-1,-1,-1,-1,-1,-1],"split_conditions":[-7.255927E-1,1.7004224E0,-3.4884727E-1,-3.5403347E-1,1.2453166E0,-1.659671E0,-1.8844886E0,5.3557996E-2,-7.981542E-3,-5.1434064E-1,2.0798615E-1,2.015218E-1,-6.056257E-2,-2.007729E-1,5.9219887E-3],"split_indices":[9,0,9,2,4,5,5,0,0,0,0,0,0,0,0],"split_type":[0,0,0,0,0,0,0,0,0,0,0,0,0,0,0],"sum_hessian":[4.0836692E3,1.1343395E3,2.9493296E3,1.1242524E3,1.0087043E1,5.7847955E2,2.37085E3,4.492516E2,6.750009E2,7.27887E0,2.8081727E0,4.1039032E1,5.374405E2,2.8557997E1,2.342292E3],"tree_param":{"num_deleted":"0","num_feature":"10","num_nodes":"15","size_leaf_vector":"1"}},{"base_weights":[-6.681101E-4,-1.7902413E-2,4.4888157E-2,-4.3541696E-3,-2.4889648E-1,5.1514674E-2,-4.8355514E-1,5.0382584E-2,-4.6900017E-3,-2.6551938E-1,-4.0501725E-2,9.929758E-3,2.6288557E-1],"categories":[],"categories_nodes":[],"categories_segments":[],"categories_sizes":[],"default_left":[0,0,0,0,0,0,0,0,0,0,0,0,0],"id":33,"left_children":[1,3,5,7,9,11,-1,-1,-1,-1,-1,-1,-1],"loss_changes":[3.204824E0,9.267123E0,1.2382957E1,5.4410024E0,1.1767016E1,1.6934782E1,0E0,0E0,0E0,0E0,0E0,0E0,0E0],"parents":[2147483647,0,0,1,1,2,2,3,3,4,4,5,5],"right_children":[2,4,6,8,10,12,-1,-1,-1,-1,-1,-1,-1],"split_conditions":[4.4939932E-1,3.2449123E-1,2.1560016E0,-1.5419785E0,-1.0492085E0,1.0295836E0,-4.8355514E-1,5.0382584E-2,-4.6900017E-3,-2.6551938E-1,-4.0501725E-2,9.929758E-3,2.6288557E-1],"split_indices":[2,3,9,6,1,9,0,0,0,0,0,0,0],"split_type":[0,0,0,0,0,0,0,0,0,0,0,0,0],"sum_hessian":[4.079876E3,2.9605015E3,1.1193745E3,2.7974448E3,1.6305664E2,1.1158802E3,3.4943194E0,1.7102623E2,2.6264187E3,2.373076E1,1.3932587E2,1.0925264E3,2.3353806E1],"tree_param":{"num_deleted":"0","num_feature":"10","num_nodes":"13","size_leaf_vector":"1"}},{"base_weights":[-6.375247E-4,-2.4468979E-1,2.4177774E-3,4.7068316E-3,-1.3029671E0,4.7057378E-1,-1.6969882E-4,-2.3450208E-1,1.4123784E-1,-4.8582953E-1,2.0390798E-1,2.8930598E-1,-2.0277508E-1,-5.661875E-3,1.3629903E-2],"categories":[],"categories_nodes":[],"categories_segments":[],"categories_sizes":[],"default_left":[0,0,0,0,0,0,0,0,0,0,0,0,0,0,0],"id":34,"left_children":[1,3,5,7,9,11,13,-1,-1,-1,-1,-1,-1,-1,-1],"loss_changes":[3.040445E0,1.3312457E1,4.878579E0,1.5687531E1,7.1359673E0,1.318387E1,3.4178252E0,0E0,0E0,0E0,0E0,0E0,0E0,0E0,0E0],"parents":[2147483647,0,0,1,1,2,2,3,3,4,4,5,5,6,6],"right_children":[2,4,6,8,10,12,14,-1,-1,-1,-1,-1,-1,-1,-1],"split_conditions":[-1.9057773E0,9.976451E-1,-1.8788754E0,-3.9345762E-1,1.6299514E0,-4.142378E-1,4.0356296E-1,-2.3450208E-1,1.4123784E-1,-4.8582953E-1,2.0390798E-1,2.8930598E-1,-2.0277508E-1,-5.661875E-3,1.3629903E-2],"split_indices":[7,2,7,2,0,2,3,0,0,0,0,0,0,0,0],"split_type":[0,0,0,0,0,0,0,0,0,0,0,0,0,0,0],"sum_hessian":[4.075765E3,4.9415966E1,4.026349E3,4.079715E1,8.618819E0,2.1136982E1,4.0052122E3,1.4930054E1,2.5867094E1,7.5904613E0,1.028358E0,1.4885042E1,6.25194E0,2.8407217E3,1.1644902E3],"tree_param":{"num_deleted":"0","num_feature":"10","num_nodes":"15","size_leaf_vector":"1"}},{"base_weights":[-5.347377E-4,-8.84665E-3,8.633608E-2,-6.365416E-3,-4.5248836E-1,6.0011715E-1,3.779275E-2,-1.1435294E-3,-2.3342812E-1,-9.437095E-2,2.6840803E-1,-1.7152885E-1,3.3073645E-2],"categories":[],"categories_nodes":[],"categories_segments":[],"categories_sizes":[],"default_left":[0,0,0,0,0,0,0,0,0,0,0,0,0],"id":35,"left_children":[1,3,5,7,-1,9,11,-1,-1,-1,-1,-1,-1],"loss_changes":[2.9429116E0,1.3829578E1,8.854061E0,7.3174653E0,0E0,8.541966E0,1.4471838E1,0E0,0E0,0E0,0E0,0E0,0E0],"parents":[2147483647,0,0,1,1,2,2,3,3,5,5,6,6],"right_children":[2,4,6,8,-1,10,12,-1,-1,-1,-1,-1,-1],"split_conditions":[1.4594857E0,1.450894E0,-1.5572339E0,1.72539E0,-4.5248836E-1,-1.7929298E0,-9.6890086E-1,-1.1435294E-3,-2.3342812E-1,-9.437095E-2,2.6840803E-1,-1.7152885E-1,3.3073645E-2],"split_indices":[1,1,5,4,0,5,5,0,0,0,0,0,0],"split_type":[0,0,0,0,0,0,0,0,0,0,0,0,0],"sum_hessian":[4.0736436E3,3.718729E3,3.549146E2,3.7135881E3,5.14087E0,2.965755E1,3.2525705E2,3.702342E3,1.1246122E1,7.208038E0,2.2449514E1,3.382136E1,2.914357E2],"tree_param":{"num_deleted":"0","num_feature":"10","num_nodes":"13","size_leaf_vector":"1"}},{"base_weights":[-5.6757714E-4,-7.301328E-3,1.17862955E-1,-3.2561585E-2,3.9599147E-2,2.9157412E-1,-4.9649945E-1,-8.6813085E-3,-2.5310013E-1,7.153361E-2,-2.5931913E-3,1.8930347E-1,2.8249567E-2,-2.5504535E-1,4.9730893E-2],"categories":[],"categories_nodes":[],"categories_segments":[],"categories_sizes":[],"default_left":[0,0,0,0,0,0,0,0,0,0,0,0,0,0,0],"id":36,"left_children":[1,3,5,7,9,11,13,-1,-1,-1,-1,-1,-1,-1,-1],"loss_changes":[3.2479708E0,4.5667095E0,2.3528885E1,7.3391786E0,1.2947017E1,1.1428778E1,1.15395975E1,0E0,0E0,0E0,0E0,0E0,0E0,0E0,0E0],"parents":[2147483647,0,0,1,1,2,2,3,3,4,4,5,5,6,6],"right_children":[2,4,6,8,10,12,14,-1,-1,-1,-1,-1,-1,-1,-1],"split_conditions":[1.5222234E0,6.768164E-1,1.4025816E-1,7.2329634E-1,8.1761134E-1,-9.144238E-1,6.872851E-1,-8.6813085E-3,-2.5310013E-1,7.153361E-2,-2.5931913E-3,1.8930347E-1,2.8249567E-2,-2.5504535E-1,4.9730893E-2],"split_indices":[5,7,6,6,6,8,6,0,0,0,0,0,0,0,0],"split_type":[0,0,0,0,0,0,0,0,0,0,0,0,0,0,0],"sum_hessian":[4.0707056E3,3.8525923E3,2.1811325E2,2.5041702E3,1.3484222E3,1.704452E2,4.7668037E1,2.4940627E3,1.0107403E1,2.625038E2,1.0859185E3,6.1868355E1,1.0857686E2,3.08894E1,1.6778637E1],"tree_param":{"num_deleted":"0","num_feature":"10","num_nodes":"15","size_leaf_vector":"1"}},{"base_weights":[-4.1456157E-4,9.137364E-2,-7.4057877E-3,3.0389595E-1,-1.1435644E-1,-4.2665955E-1,-6.022073E-3,4.35813E-2,3.1637233E-1,-8.490155E-2,1.37625E-1,-4.5181856E-2,8.350049E-4],"categories":[],"categories_nodes":[],"categories_segments":[],"categories_sizes":[],"default_left":[0,0,0,0,0,0,0,0,0,0,0,0,0],"id":37,"left_children":[1,3,5,7,9,-1,11,-1,-1,-1,-1,-1,-1],"loss_changes":[2.6116836E0,1.2628938E1,7.3948803E0,1.6750813E1,1.4346654E1,0E0,4.8116484E0,0E0,0E0,0E0,0E0,0E0,0E0],"parents":[2147483647,0,0,1,1,2,2,3,3,4,4,6,6],"right_children":[2,4,6,8,10,-1,12,-1,-1,-1,-1,-1,-1],"split_conditions":[-1.5303276E0,-1.8727197E-1,-1.5790298E0,-3.5532418E-1,1.2327915E0,-4.2665955E-1,-1.2662097E0,4.35813E-2,3.1637233E-1,-8.490155E-2,1.37625E-1,-4.5181856E-2,8.350049E-4],"split_indices":[1,6,0,6,7,0,0,0,0,0,0,0,0],"split_type":[0,0,0,0,0,0,0,0,0,0,0,0,0],"sum_hessian":[4.0678137E3,2.8704987E2,3.780764E3,1.4095944E2,1.4609042E2,2.690826E0,3.778073E3,1.1735485E2,2.3604597E1,1.1326577E2,3.282466E1,2.1595819E2,3.5621147E3],"tree_param":{"num_deleted":"0","num_feature":"10","num_nodes":"13","size_leaf_vector":"1"}},{"base_weights":[-2.958639E-4,-1.8166864E-1,3.5187367E-3,-2.5904843E-1,4.0653703E-1,4.2710674E-1,-3.3415277E-3,-1.1641907E-1,2.2105639E-1,2.1655068E-1,-1.05569765E-1,-1.7025048E-1,5.697156E-5],"categories":[],"categories_nodes":[],"categories_segments":[],"categories_sizes":[],"default_left":[0,0,0,0,0,0,0,0,0,0,0,0,0],"id":38,"left_children":[1,3,5,7,-1,9,11,-1,-1,-1,-1,-1,-1],"loss_changes":[2.8141587E0,1.0314443E1,1.1578025E1,1.0642965E1,0E0,1.4833182E1,7.812469E0,0E0,0E0,0E0,0E0,0E0,0E0],"parents":[2147483647,0,0,1,1,2,2,3,3,5,5,6,6],"right_children":[2,4,6,8,-1,10,12,-1,-1,-1,-1,-1,-1],"split_conditions":[-1.6752816E0,2.1038177E0,-1.7193382E0,1.5086255E0,4.0653703E-1,4.6160027E-1,-1.6763817E0,-1.1641907E-1,2.2105639E-1,2.1655068E-1,-1.05569765E-1,-1.7025048E-1,5.697156E-5],"split_indices":[0,9,1,5,0,7,1,0,0,0,0,0,0],"split_type":[0,0,0,0,0,0,0,0,0,0,0,0,0],"sum_hessian":[4.0655745E3,8.2784744E1,3.9827898E3,7.96078E1,3.1769366E0,6.2499367E1,3.9202905E3,7.101805E1,8.589756E0,4.5397198E1,1.7102169E1,2.3393469E1,3.896897E3],"tree_param":{"num_deleted":"0","num_feature":"10","num_nodes":"13","size_leaf_vector":"1"}},{"base_weights":[-7.879597E-5,4.0251464E-2,-1.7150352E-2,7.0320037E-3,5.278997E-1,-3.0270287E-1,-6.680343E-3,4.8217874E-2,-2.7426502E-2,-2.7719298E-1,1.9610341E-1,-2.3716426E-1,1.9934015E-2,-5.438857E-3,8.892301E-2],"categories":[],"categories_nodes":[],"categories_segments":[],"categories_sizes":[],"default_left":[0,0,0,0,0,0,0,0,0,0,0,0,0,0,0],"id":39,"left_children":[1,3,5,7,9,11,13,-1,-1,-1,-1,-1,-1,-1,-1],"loss_changes":[2.7984912E0,1.9578726E1,8.53601E0,1.7155252E1,1.4680395E1,1.8238388E1,9.568362E0,0E0,0E0,0E0,0E0,0E0,0E0,0E0,0E0],"parents":[2147483647,0,0,1,1,2,2,3,3,4,4,5,5,6,6],"right_children":[2,4,6,8,10,12,14,-1,-1,-1,-1,-1,-1,-1,-1],"split_conditions":[-7.144778E-1,-6.454109E-1,-1.3442934E0,-4.9776334E-1,-1.153925E0,4.7320643E-1,1.5735506E0,4.8217874E-2,-2.7426502E-2,-2.7719298E-1,1.9610341E-1,-2.3716426E-1,1.9934015E-2,-5.438857E-3,8.892301E-2],"split_indices":[0,1,2,9,8,0,7,0,0,0,0,0,0,0,0],"split_type":[0,0,0,0,0,0,0,0,0,0,0,0,0,0,0],"sum_hessian":[4.0626162E3,1.2078363E3,2.8547798E3,1.1317537E3,7.608264E1,9.998339E1,2.7547964E3,4.4165756E2,6.9009607E2,5.5597386E0,7.05229E1,4.2576054E1,5.740734E1,2.6554285E3,9.93681E1],"tree_param":{"num_deleted":"0","num_feature":"10","num_nodes":"15","size_leaf_vector":"1"}},{"base_weights":[-1.01692676E-4,-2.6389856E-2,2.5969466E-2,-1.0443858E-2,-8.0617076E-1,4.8715663E-1,1.2879986E-2,8.471637E-3,-5.5413708E-2,-3.9139637E-1,9.258193E-2,-4.0021738E-1,1.8405609E-1,8.200201E-2,-1.3659127E-3],"categories":[],"categories_nodes":[],"categories_segments":[],"categories_sizes":[],"default_left":[0,0,0,0,0,0,0,0,0,0,0,0,0,0,0],"id":40,"left_children":[1,3,5,7,9,11,13,-1,-1,-1,-1,-1,-1,-1,-1],"loss_changes":[2.7834387E0,2.5136559E1,1.2302853E1,1.3370941E1,2.2914566E1,1.3763173E1,9.008904E0,0E0,0E0,0E0,0E0,0E0,0E0,0E0,0E0],"parents":[2147483647,0,0,1,1,2,2,3,3,4,4,5,5,6,6],"right_children":[2,4,6,8,10,12,14,-1,-1,-1,-1,-1,-1,-1,-1],"split_conditions":[-1.452012E-1,-1.5499121E-1,-1.1847177E-1,1.0266562E0,1.0470979E0,-1.2996941E0,-1.2992374E0,8.471637E-3,-5.5413708E-2,-3.9139637E-1,9.258193E-2,-4.0021738E-1,1.8405609E-1,8.200201E-2,-1.3659127E-3],"split_indices":[9,8,9,0,1,4,2,0,0,0,0,0,0,0,0],"split_type":[0,0,0,0,0,0,0,0,0,0,0,0,0,0,0],"sum_hessian":[4.0592625E3,2.0212133E3,2.0380492E3,1.9817023E3,3.9511093E1,5.5248215E1,1.982801E3,1.622411E3,3.5929117E2,2.7184809E1,1.2326285E1,2.9645395E0,5.2283672E1,1.2346591E2,1.8593351E3],"tree_param":{"num_deleted":"0","num_feature":"10","num_nodes":"15","size_leaf_vector":"1"}},{"base_weights":[-2.4853557E-4,-7.846584E-3,7.936983E-2,-5.9911343E-3,-3.6957067E-1,-7.794716E-2,2.0227067E-1,-4.1715472E-4,-1.1056228E-1,-4.708307E-2,3.0963257E-1,3.5606405E-1,3.6138058E-2],"categories":[],"categories_nodes":[],"categories_segments":[],"categories_sizes":[],"default_left":[0,0,0,0,0,0,0,0,0,0,0,0,0],"id":41,"left_children":[1,3,5,7,-1,9,11,-1,-1,-1,-1,-1,-1],"loss_changes":[2.454821E0,8.405921E0,6.850777E0,6.1705527E0,0E0,1.3821556E1,1.5866239E1,0E0,0E0,0E0,0E0,0E0,0E0],"parents":[2147483647,0,0,1,1,2,2,3,3,5,5,6,6],"right_children":[2,4,6,8,-1,10,12,-1,-1,-1,-1,-1,-1],"split_conditions":[1.4594857E0,1.450894E0,-2.856294E-1,1.4752616E0,-3.6957067E-1,1.6183151E0,-2.1498157E-1,-4.1715472E-4,-1.1056228E-1,-4.708307E-2,3.0963257E-1,3.5606405E-1,3.6138058E-2],"split_indices":[1,1,3,0,0,5,2,0,0,0,0,0,0],"split_type":[0,0,0,0,0,0,0,0,0,0,0,0,0],"sum_hessian":[4.055901E3,3.703385E3,3.5251575E2,3.6987832E3,4.6017995E0,1.5477045E2,1.9774532E2,3.6534265E3,4.5356754E1,1.4528961E2,9.480826E0,1.4133804E1,1.8361151E2],"tree_param":{"num_deleted":"0","num_feature":"10","num_nodes":"13","size_leaf_vector":"1"}},{"base_weights":[-1.03504106E-4,-2.014208E-2,2.8839527E-2,1.2613446E-2,-1.2973495E-1,3.8127266E-2,-8.267252E-1,1.331523E-3,2.0000137E-1,-6.1084438E-2,1.3501018E-1,1.2772281E-1,5.8441632E-3,-3.1838274E-1,3.5011935E-1],"categories":[],"categories_nodes":[],"categories_segments":[],"categories_sizes":[],"default_left":[0,0,0,0,0,0,0,0,0,0,0,0,0,0,0],"id":42,"left_children":[1,3,5,7,9,11,13,-1,-1,-1,-1,-1,-1,-1,-1],"loss_changes":[2.3519535E0,8.603552E0,1.321454E1,9.866159E0,2.3713322E1,1.1860849E1,9.590935E0,0E0,0E0,0E0,0E0,0E0,0E0,0E0,0E0],"parents":[2147483647,0,0,1,1,2,2,3,3,4,4,5,5,6,6],"right_children":[2,4,6,8,10,12,14,-1,-1,-1,-1,-1,-1,-1,-1],"split_conditions":[3.2023454E-1,-1.541517E-1,1.6698761E0,-1.7133999E-1,1.8123491E0,3.8039193E-1,4.952321E-1,1.331523E-3,2.0000137E-1,-6.1084438E-2,1.3501018E-1,1.2772281E-1,5.8441632E-3,-3.1838274E-1,3.5011935E-1],"split_indices":[0,0,6,0,9,0,2,0,0,0,0,0,0,0,0],"split_type":[0,0,0,0,0,0,0,0,0,0,0,0,0,0,0],"sum_hessian":[4.0532507E3,2.3952288E3,1.6580219E3,1.8447484E3,5.504804E2,1.6411613E3,1.6860489E1,1.82297E3,2.177843E1,4.8883685E2,6.164359E1,7.432438E1,1.5668369E3,1.5504267E1,1.3562213E0],"tree_param":{"num_deleted":"0","num_feature":"10","num_nodes":"15","size_leaf_vector":"1"}},{"base_weights":[1.0472706E-5,-2.0047985E-2,2.7213512E-2,-9.702886E-3,-4.455753E-1,4.6979453E-2,-4.1288257E-1,-5.3195204E-3,2.3338977E-1,-3.6286998E-3,-4.0222877E-1,1.0973131E-2,3.375436E-1,2.406795E-2,-2.4507645E-1],"categories":[],"categories_nodes":[],"categories_segments":[],"categories_sizes":[],"default_left":[0,0,0,0,0,0,0,0,0,0,0,0,0,0,0],"id":43,"left_children":[1,3,5,7,9,11,13,-1,-1,-1,-1,-1,-1,-1,-1],"loss_changes":[2.211435E0,1.0264752E1,1.4982245E1,1.4422635E1,2.1459736E1,1.8431232E1,1.4815983E1,0E0,0E0,0E0,0E0,0E0,0E0,0E0,0E0],"parents":[2147483647,0,0,1,1,2,2,3,3,4,4,5,5,6,6],"right_children":[2,4,6,8,10,12,14,-1,-1,-1,-1,-1,-1,-1,-1],"split_conditions":[3.7003317E-1,3.1836143E-1,1.6445558E0,3.0657658E-1,3.8039193E-1,1.592156E0,5.3557545E-1,-5.3195204E-3,2.3338977E-1,-3.6286998E-3,-4.0222877E-1,1.0973131E-2,3.375436E-1,2.406795E-2,-2.4507645E-1],"split_indices":[5,5,8,5,0,9,4,0,0,0,0,0,0,0,0],"split_type":[0,0,0,0,0,0,0,0,0,0,0,0,0,0,0],"sum_hessian":[4.050838E3,2.3317556E3,1.7190824E3,2.2774116E3,5.434391E1,1.6460471E3,7.303531E1,2.2553994E3,2.2012201E1,3.7296978E1,1.7046934E1,1.6313414E3,1.4705568E1,3.3253067E1,3.9782246E1],"tree_param":{"num_deleted":"0","num_feature":"10","num_nodes":"15","size_leaf_vector":"1"}},{"base_weights":[-3.0506688E-5,-6.334108E-2,8.075343E-3,4.754281E-1,-1.5892099E-1,4.33706E-1,-1.5839041E-3,1.982926E-1,-2.031504E-1,-4.0651762E-1,-3.879479E-2,-2.3582146E-1,1.7631738E-1,-6.840891E-2,1.9888836E-3],"categories":[],"categories_nodes":[],"categories_segments":[],"categories_sizes":[],"default_left":[0,0,0,0,0,0,0,0,0,0,0,0,0,0,0],"id":44,"left_children":[1,3,5,7,9,11,13,-1,-1,-1,-1,-1,-1,-1,-1],"loss_changes":[2.078087E0,2.37434E1,1.4759236E1,1.5311309E1,1.3674572E1,1.5427992E1,6.53189E0,0E0,0E0,0E0,0E0,0E0,0E0,0E0,0E0],"parents":[2147483647,0,0,1,1,2,2,3,3,4,4,5,5,6,6],"right_children":[2,4,6,8,10,12,14,-1,-1,-1,-1,-1,-1,-1,-1],"split_conditions":[-1.1364928E0,-1.2408576E0,-1.0988501E0,1.4040792E0,-1.1693934E0,-1.2382191E0,-1.0217952E0,1.982926E-1,-2.031504E-1,-4.0651762E-1,-3.879479E-2,-2.3582146E-1,1.7631738E-1,-6.840891E-2,1.9888836E-3],"split_indices":[8,5,8,6,4,1,8,0,0,0,0,0,0,0,0],"split_type":[0,0,0,0,0,0,0,0,0,0,0,0,0,0,0],"sum_hessian":[4.047387E3,4.586099E2,3.588777E3,6.8501785E1,3.901081E2,7.8662155E1,3.510115E3,5.937071E1,9.131079E0,8.340831E0,3.8176727E2,8.358868E0,7.030329E1,1.2192387E2,3.388191E3],"tree_param":{"num_deleted":"0","num_feature":"10","num_nodes":"15","size_leaf_vector":"1"}},{"base_weights":[-1.3388917E-4,-9.5591284E-2,6.139014E-3,-2.6864898E-1,3.1262654E-1,2.848435E-1,-3.2200757E-3,2.1731116E-2,-1.6300055E-1,-5.405764E-2,2.3101966E-1,1.19354025E-1,-1.4927028E-1,1.21151365E-1,-2.415727E-3],"categories":[],"categories_nodes":[],"categories_segments":[],"categories_sizes":[],"default_left":[0,0,0,0,0,0,0,0,0,0,0,0,0,0,0],"id":45,"left_children":[1,3,5,7,9,11,13,-1,-1,-1,-1,-1,-1,-1,-1],"loss_changes":[2.4234762E0,1.7714365E1,9.906949E0,1.651036E1,1.699268E1,1.1108152E1,7.2327633E0,0E0,0E0,0E0,0E0,0E0,0E0,0E0,0E0],"parents":[2147483647,0,0,1,1,2,2,3,3,4,4,5,5,6,6],"right_children":[2,4,6,8,10,12,14,-1,-1,-1,-1,-1,-1,-1,-1],"split_conditions":[-1.5980275E0,7.877444E-1,-1.422391E0,-3.5912308E-1,1.3604888E-1,1.1789876E0,-1.482899E0,2.1731116E-2,-1.6300055E-1,-5.405764E-2,2.3101966E-1,1.19354025E-1,-1.4927028E-1,1.21151365E-1,-2.415727E-3],"split_indices":[5,0,4,8,8,7,5,0,0,0,0,0,0,0,0],"split_type":[0,0,0,0,0,0,0,0,0,0,0,0,0,0,0],"sum_hessian":[4.0452751E3,2.4856213E2,3.7967131E3,1.7480017E2,7.376196E1,1.2239761E2,3.6743154E3,7.8304016E1,9.649616E1,3.5799595E1,3.7962364E1,1.0738026E2,1.5017362E1,4.2138794E1,3.6321765E3],"tree_param":{"num_deleted":"0","num_feature":"10","num_nodes":"15","size_leaf_vector":"1"}},{"base_weights":[-7.1128066E-5,-9.951967E-3,6.671334E-2,-5.328933E-3,-3.4944007E-1,4.2060222E-2,6.9947696E-1,-1.48804635E-2,6.703879E-3,1.0804732E-1,-2.3570415E-1,3.1886335E-2,-7.937384E-2,-1.5132773E-2,4.066104E-1],"categories":[],"categories_nodes":[],"categories_segments":[],"categories_sizes":[],"default_left":[0,0,0,0,0,0,0,0,0,0,0,0,0,0,0],"id":46,"left_children":[1,3,5,7,9,11,13,-1,-1,-1,-1,-1,-1,-1,-1],"loss_changes":[2.668689E0,5.5272603E0,8.10145E0,4.260848E0,1.4929302E1,9.929469E0,9.650835E0,0E0,0E0,0E0,0E0,0E0,0E0,0E0,0E0],"parents":[2147483647,0,0,1,1,2,2,3,3,4,4,5,5,6,6],"right_children":[2,4,6,8,10,12,14,-1,-1,-1,-1,-1,-1,-1,-1],"split_conditions":[1.2788975E0,1.1969223E0,1.6780789E0,-2.7094087E-1,-1.0085049E0,9.149355E-1,7.70848E-3,-1.48804635E-2,6.703879E-3,1.0804732E-1,-2.3570415E-1,3.1886335E-2,-7.937384E-2,-1.5132773E-2,4.066104E-1],"split_indices":[6,7,0,4,4,0,8,0,0,0,0,0,0,0,0],"split_type":[0,0,0,0,0,0,0,0,0,0,0,0,0,0,0],"sum_hessian":[4.0421575E3,3.521934E3,5.2022327E2,3.47562E3,4.631412E1,5.0174136E2,1.8481886E1,1.3366154E3,2.1390046E3,1.7698986E1,2.8615135E1,4.1538898E2,8.635239E1,9.053532E0,9.428353E0],"tree_param":{"num_deleted":"0","num_feature":"10","num_nodes":"15","size_leaf_vector":"1"}},{"base_weights":[-6.135673E-5,-3.3862232E-3,1.5941684E-1,2.0356025E-3,-1.8022257E-1,-8.981773E-1,2.902375E-1,-1.9428958E-4,1.4423779E-1,-9.949863E-2,1.2375586E-1,1.1709998E-1,-3.7471575E-1,1.4259952E-1,-1.9603187E-1],"categories":[],"categories_nodes":[],"categories_segments":[],"categories_sizes":[],"default_left":[0,0,0,0,0,0,0,0,0,0,0,0,0,0,0],"id":47,"left_children":[1,3,5,7,9,11,13,-1,-1,-1,-1,-1,-1,-1,-1],"loss_changes":[2.141865E0,3.7941318E0,1.167431E1,4.9334517E0,1.0703973E1,4.703564E0,1.3265787E1,0E0,0E0,0E0,0E0,0E0,0E0,0E0,0E0],"parents":[2147483647,0,0,1,1,2,2,3,3,4,4,5,5,6,6],"right_children":[2,4,6,8,10,12,14,-1,-1,-1,-1,-1,-1,-1,-1],"split_conditions":[2.2248676E0,1.9867206E0,-1.1407743E0,1.9612651E0,5.871432E-1,-1.1287066E0,1.05824195E-1,-1.9428958E-4,1.4423779E-1,-9.949863E-2,1.2375586E-1,1.1709998E-1,-3.7471575E-1,1.4259952E-1,-1.9603187E-1],"split_indices":[8,9,3,9,7,0,3,0,0,0,0,0,0,0,0],"split_type":[0,0,0,0,0,0,0,0,0,0,0,0,0,0,0],"sum_hessian":[4.0373796E3,3.9558845E3,8.1495125E1,3.8391636E3,1.1672078E2,8.325281E0,7.3169846E1,3.8187598E3,2.0403915E1,9.331915E1,2.3401623E1,1.7577777E0,6.5675035E0,6.1586475E1,1.1583367E1],"tree_param":{"num_deleted":"0","num_feature":"10","num_nodes":"15","size_leaf_vector":"1"}},{"base_weights":[-9.3089366E-5,-4.5099077E-3,1.1307579E-1,-2.3744823E-3,-5.09465E-1,2.2280803E-1,-5.0765103E-1,2.0578352E-3,-2.3952348E-2,2.1281207E-1,9.079036E-3,-5.364206E-1,8.94594E-2],"categories":[],"categories_nodes":[],"categories_segments":[],"categories_sizes":[],"default_left":[0,0,0,0,0,0,0,0,0,0,0,0,0],"id":48,"left_children":[1,3,5,7,-1,9,11,-1,-1,-1,-1,-1,-1],"loss_changes":[2.017732E0,1.4047375E1,1.0441122E1,2.776831E0,0E0,1.2115088E1,2.4351057E1,0E0,0E0,0E0,0E0,0E0,0E0],"parents":[2147483647,0,0,1,1,2,2,3,3,5,5,6,6],"right_children":[2,4,6,8,-1,10,12,-1,-1,-1,-1,-1,-1],"split_conditions":[2.1450908E0,2.1358898E0,5.431791E-1,1.291091E0,-5.09465E-1,2.2108538E0,2.3129961E0,2.0578352E-3,-2.3952348E-2,2.1281207E-1,9.079036E-3,-5.364206E-1,8.94594E-2],"split_indices":[3,2,5,2,0,2,3,0,0,0,0,0,0],"split_type":[0,0,0,0,0,0,0,0,0,0,0,0,0],"sum_hessian":[4.0346843E3,3.8840554E3,1.5062894E2,3.8801648E3,3.8907096E0,1.2854565E2,2.2083277E1,3.4677273E3,4.1243738E2,3.5684845E1,9.286081E1,8.059166E0,1.4024111E1],"tree_param":{"num_deleted":"0","num_feature":"10","num_nodes":"13","size_leaf_vector":"1"}},{"base_weights":[-2.6623736E-4,3.1452158E-1,-1.8043111E-3,-2.4018247E-1,4.3374065E-1,-4.709532E-1,6.504932E-4,1.5785809E-1,-1.5713994E-1,-2.6594856E-1,3.7244168E-1,1.422453E-1,-3.621013E-4],"categories":[],"categories_nodes":[],"categories_segments":[],"categories_sizes":[],"default_left":[0,0,0,0,0,0,0,0,0,0,0,0,0],"id":49,"left_children":[1,3,5,-1,7,9,11,-1,-1,-1,-1,-1,-1],"loss_changes":[1.9536024E0,2.9555397E0,4.62447E0,0E0,1.9021347E0,1.5973627E1,3.5145288E0,0E0,0E0,0E0,0E0,0E0,0E0],"parents":[2147483647,0,0,1,1,2,2,4,4,5,5,6,6],"right_children":[2,4,6,-1,8,10,12,-1,-1,-1,-1,-1,-1],"split_conditions":[-1.4404259E0,-1.0003206E0,-1.430327E0,-2.4018247E-1,1.1845605E0,1.6996307E0,-1.458037E0,1.5785809E-1,-1.5713994E-1,-2.6594856E-1,3.7244168E-1,1.422453E-1,-3.621013E-4],"split_indices":[2,8,2,0,1,8,3,0,0,0,0,0,0],"split_type":[0,0,0,0,0,0,0,0,0,0,0,0,0],"sum_hessian":[4.0328054E3,1.8619307E1,4.014186E3,1.2463148E0,1.7372992E1,1.9901335E1,3.9942847E3,1.6254091E1,1.1189007E0,1.6403204E1,3.4981315E0,1.461442E1,3.9796704E3],"tree_param":{"num_deleted":"0","num_feature":"10","num_nodes":"13","size_leaf_vector":"1"}},{"base_weights":[-2.336333E-4,-1.2222813E-1,3.991638E-3,-6.6305554E-1,3.9385367E-2,5.985217E-1,9.854123E-4,-2.8512776E-1,2.2894467E-1,2.3764329E-1,-2.6417553E-2,-4.0194014E-1,2.447545E-1,5.240547E-3,-1.3182328E-2],"categories":[],"categories_nodes":[],"categories_segments":[],"categories_sizes":[],"default_left":[0,0,0,0,0,0,0,0,0,0,0,0,0,0,0],"id":50,"left_children":[1,3,5,7,9,11,13,-1,-1,-1,-1,-1,-1,-1,-1],"loss_changes":[2.0787528E0,1.1825823E1,6.966031E0,1.3478238E1,1.0131769E1,9.353192E0,2.8734615E0,0E0,0E0,0E0,0E0,0E0,0E0,0E0,0E0],"parents":[2147483647,0,0,1,1,2,2,3,3,4,4,5,5,6,6],"right_children":[2,4,6,8,10,12,14,-1,-1,-1,-1,-1,-1,-1,-1],"split_conditions":[-1.3580819E0,-7.4444735E-1,-1.387751E0,1.4251208E0,-2.3915006E-1,-1.0506712E0,8.091377E-1,-2.8512776E-1,2.2894467E-1,2.3764329E-1,-2.6417553E-2,-4.0194014E-1,2.447545E-1,5.240547E-3,-1.3182328E-2],"split_indices":[2,4,3,1,5,4,4,0,0,0,0,0,0,0,0],"split_type":[0,0,0,0,0,0,0,0,0,0,0,0,0,0,0],"sum_hessian":[4.0308655E3,1.3400037E2,3.896865E3,3.0116165E1,1.0388421E2,1.8608643E1,3.8782563E3,2.5343271E1,4.772895E0,1.4286146E1,8.959806E1,1.3553594E0,1.7253284E1,2.8377324E3,1.040524E3],"tree_param":{"num_deleted":"0","num_feature":"10","num_nodes":"15","size_leaf_vector":"1"}},{"base_weights":[-1.6797986E-4,-1.9423515E-2,2.588536E-2,2.74012E-3,-1.9100405E-1,-2.3617146E-3,2.4831256E-1,-5.5215433E-3,1.008432E-1,1.4824729E-2,-2.0795034E-1,-7.3880106E-2,7.545245E-3,1.0439607E-1,-1.513769E-1],"categories":[],"categories_nodes":[],"categories_segments":[],"categories_sizes":[],"default_left":[0,0,0,0,0,0,0,0,0,0,0,0,0,0,0],"id":51,"left_children":[1,3,5,7,9,11,13,-1,-1,-1,-1,-1,-1,-1,-1],"loss_changes":[2.0220308E0,8.814198E0,1.0762837E1,1.448322E1,3.2045235E1,1.02121725E1,1.4661593E1,0E0,0E0,0E0,0E0,0E0,0E0,0E0,0E0],"parents":[2147483647,0,0,1,1,2,2,3,3,4,4,5,5,6,6],"right_children":[2,4,6,8,10,12,14,-1,-1,-1,-1,-1,-1,-1,-1],"split_conditions":[3.7003317E-1,7.122814E-2,1.0429697E0,-2.0881156E-2,4.113332E-1,-1.3573064E0,8.091377E-1,-5.5215433E-3,1.008432E-1,1.4824729E-2,-2.0795034E-1,-7.3880106E-2,7.545245E-3,1.0439607E-1,-1.513769E-1],"split_indices":[5,4,3,4,1,0,4,0,0,0,0,0,0,0,0],"split_type":[0,0,0,0,0,0,0,0,0,0,0,0,0,0,0],"sum_hessian":[4.0285889E3,2.3166504E3,1.7119385E3,2.0525054E3,2.64145E2,1.5199077E3,1.9203084E2,1.9309828E3,1.21522705E2,1.7923476E2,8.491024E1,1.5326093E2,1.3666467E3,1.7005553E2,2.1975302E1],"tree_param":{"num_deleted":"0","num_feature":"10","num_nodes":"15","size_leaf_vector":"1"}},{"base_weights":[-1.825972E-4,9.02801E-2,-6.97196E-3,1.276674E-1,-1.2266283E0,-3.245701E-1,-2.3397864E-3,1.6090544E-2,2.4625722E-1,-5.0259644E-1,2.2752121E-1,8.329107E-2,-2.8301436E-1,8.136593E-2,-1.8206273E-3],"categories":[],"categories_nodes":[],"categories_segments":[],"categories_sizes":[],"default_left":[0,0,0,0,0,0,0,0,0,0,0,0,0,0,0],"id":52,"left_children":[1,3,5,7,9,11,13,-1,-1,-1,-1,-1,-1,-1,-1],"loss_changes":[2.4729779E0,1.3996465E1,5.509249E0,1.4029537E1,8.266151E0,2.0322947E1,3.7683406E0,0E0,0E0,0E0,0E0,0E0,0E0,0E0,0E0],"parents":[2147483647,0,0,1,1,2,2,3,3,4,4,5,5,6,6],"right_children":[2,4,6,8,10,12,14,-1,-1,-1,-1,-1,-1,-1,-1],"split_conditions":[-1.5303276E0,1.5197463E0,-1.4530046E0,1.2327915E0,-1.3882439E0,-7.0268244E-1,-1.4014566E0,1.6090544E-2,2.4625722E-1,-5.0259644E-1,2.2752121E-1,8.329107E-2,-2.8301436E-1,8.136593E-2,-1.8206273E-3],"split_indices":[1,7,1,7,0,9,1,0,0,0,0,0,0,0,0],"split_type":[0,0,0,0,0,0,0,0,0,0,0,0,0,0,0],"sum_hessian":[4.0244194E3,2.8009433E2,3.744325E3,2.7324005E2,6.854287E0,5.2833096E1,3.691492E3,2.4784747E2,2.5392584E1,5.7178564E0,1.136431E0,2.7055193E1,2.5777905E1,4.867845E1,3.6428135E3],"tree_param":{"num_deleted":"0","num_feature":"10","num_nodes":"15","size_leaf_vector":"1"}},{"base_weights":[-1.9722887E-4,-2.0445665E-2,2.2046471E-2,-1.29979765E-2,-1.159566E0,-8.7172635E-2,6.0581416E-2,-2.7338017E-3,-2.5901905E-1,-4.3962464E-1,-1.938175E-2,-1.0217303E-2,-2.0213884E-1,2.0832023E-1,1.1711466E-2],"categories":[],"categories_nodes":[],"categories_segments":[],"categories_sizes":[],"default_left":[0,0,0,0,0,0,0,0,0,0,0,0,0,0,0],"id":53,"left_children":[1,3,5,7,9,11,13,-1,-1,-1,-1,-1,-1,-1,-1],"loss_changes":[1.8122993E0,1.7854738E1,8.075191E0,6.909743E0,4.4835434E0,1.5571243E1,1.933403E1,0E0,0E0,0E0,0E0,0E0,0E0,0E0,0E0],"parents":[2147483647,0,0,1,1,2,2,3,3,4,4,5,5,6,6],"right_children":[2,4,6,8,10,12,14,-1,-1,-1,-1,-1,-1,-1,-1],"split_conditions":[1.0022889E-1,8.647793E-2,-7.381744E-1,2.7387062E-1,9.8170614E-1,-7.991067E-1,-6.944778E-1,-2.7338017E-3,-2.5901905E-1,-4.3962464E-1,-1.938175E-2,-1.0217303E-2,-2.0213884E-1,2.0832023E-1,1.1711466E-2],"split_indices":[0,0,2,1,7,3,2,0,0,0,0,0,0,0,0],"split_type":[0,0,0,0,0,0,0,0,0,0,0,0,0,0,0],"sum_hessian":[4.021753E3,2.1053416E3,1.9164114E3,2.092671E3,1.2670692E1,4.9947983E2,1.4169316E3,2.0841594E3,8.511398E0,9.639747E0,3.0309453E0,4.589802E2,4.0499634E1,4.5550938E1,1.3713806E3],"tree_param":{"num_deleted":"0","num_feature":"10","num_nodes":"15","size_leaf_vector":"1"}},{"base_weights":[-3.3366925E-4,-1.8619685E-3,3.1318218E-1,3.7843405E-4,-3.2078394E-1,-3.6266574E-1,5.6632906E-1,-8.398652E-4,1.0391885E-1,-2.8272784E-1,6.355751E-2,2.2846094E-1,-2.735868E-1],"categories":[],"categories_nodes":[],"categories_segments":[],"categories_sizes":[],"default_left":[0,0,0,0,0,0,0,0,0,0,0,0,0],"id":54,"left_children":[1,3,5,7,9,-1,11,-1,-1,-1,-1,-1,-1],"loss_changes":[1.9275484E0,2.8604271E0,8.203993E0,4.3733807E0,9.446596E0,0E0,5.719497E0,0E0,0E0,0E0,0E0,0E0,0E0],"parents":[2147483647,0,0,1,1,2,2,3,3,4,4,6,6],"right_children":[2,4,6,8,10,-1,12,-1,-1,-1,-1,-1,-1],"split_conditions":[2.3405762E0,2.2956061E0,-9.4135803E-1,2.2248676E0,-2.7094087E-1,-3.6266574E-1,2.555443E-2,-8.398652E-4,1.0391885E-1,-2.8272784E-1,6.355751E-2,2.2846094E-1,-2.735868E-1],"split_indices":[8,8,0,8,4,0,5,0,0,0,0,0,0],"split_type":[0,0,0,0,0,0,0,0,0,0,0,0,0],"sum_hessian":[4.0206663E3,4.002151E3,1.851527E1,3.975224E3,2.6926832E1,2.1019115E0,1.6413359E1,3.940029E3,3.5195114E1,1.2070323E1,1.4856508E1,1.492709E1,1.486269E0],"tree_param":{"num_deleted":"0","num_feature":"10","num_nodes":"13","size_leaf_vector":"1"}},{"base_weights":[-3.6578445E-4,8.860152E-3,-5.0361194E-2,-2.1808536E-4,5.0728285E-1,-2.26461E-1,4.327598E-2,6.9277145E-2,-1.1984933E-3,-4.7530574E-1,2.0627494E-1,-4.7002356E-2,-5.2727455E-1,-8.9781E-3,1.7467742E-1],"categories":[],"categories_nodes":[],"categories_segments":[],"categories_sizes":[],"default_left":[0,0,0,0,0,0,0,0,0,0,0,0,0,0,0],"id":55,"left_children":[1,3,5,7,9,11,13,-1,-1,-1,-1,-1,-1,-1,-1],"loss_changes":[1.8545967E0,1.5359164E1,1.0338544E1,2.9121058E0,2.3988298E1,2.2976032E1,1.6185284E1,0E0,0E0,0E0,0E0,0E0,0E0,0E0,0E0],"parents":[2147483647,0,0,1,1,2,2,3,3,4,4,5,5,6,6],"right_children":[2,4,6,8,10,12,14,-1,-1,-1,-1,-1,-1,-1,-1],"split_conditions":[1.1819468E0,1.0988268E0,1.6515384E0,-1.4969026E0,-1.2401704E0,7.6273733E-1,6.718519E-1,6.9277145E-2,-1.1984933E-3,-4.7530574E-1,2.0627494E-1,-4.7002356E-2,-5.2727455E-1,-8.9781E-3,1.7467742E-1],"split_indices":[2,2,2,9,6,6,6,0,0,0,0,0,0,0,0],"split_type":[0,0,0,0,0,0,0,0,0,0,0,0,0,0,0],"sum_hessian":[4.0187998E3,3.3934163E3,6.253836E2,3.333696E3,5.972015E1,2.1660481E2,4.0877878E2,5.263037E1,3.2810657E3,4.121377E0,5.559877E1,2.0821689E2,8.387925E0,3.6072995E2,4.804882E1],"tree_param":{"num_deleted":"0","num_feature":"10","num_nodes":"15","size_leaf_vector":"1"}},{"base_weights":[-4.0550274E-4,-2.9042065E-1,1.4788366E-3,-3.7485173E-1,-6.3765086E-2,2.3639722E-1,-1.6636846E-3,-3.726169E-1,4.7699843E-2,-1.5850008E-3,2.820193E-1,-1.3661109E-1,3.7001888E-4],"categories":[],"categories_nodes":[],"categories_segments":[],"categories_sizes":[],"default_left":[0,0,0,0,0,0,0,0,0,0,0,0,0],"id":56,"left_children":[1,3,5,-1,7,9,11,-1,-1,-1,-1,-1,-1],"loss_changes":[2.195058E0,5.556902E0,2.9466605E0,0E0,5.979092E0,8.965494E0,5.17843E0,0E0,0E0,0E0,0E0,0E0,0E0],"parents":[2147483647,0,0,1,1,2,2,4,4,5,5,6,6],"right_children":[2,4,6,-1,8,10,12,-1,-1,-1,-1,-1,-1],"split_conditions":[-1.427028E0,-2.737215E-1,-1.4829023E0,-3.7485173E-1,-7.8692013E-1,8.6667895E-1,-1.4472638E0,-3.726169E-1,4.7699843E-2,-1.5850008E-3,2.820193E-1,-1.3661109E-1,3.7001888E-4],"split_indices":[8,7,9,0,2,1,9,0,0,0,0,0,0],"split_type":[0,0,0,0,0,0,0,0,0,0,0,0,0],"sum_hessian":[4.0148848E3,2.4929365E1,3.9899556E3,3.9026484E0,2.1026718E1,5.1689564E1,3.9382659E3,2.6156816E0,1.8411036E1,3.9213753E1,1.2475813E1,2.3996744E1,3.9142693E3],"tree_param":{"num_deleted":"0","num_feature":"10","num_nodes":"13","size_leaf_vector":"1"}},{"base_weights":[-4.4208794E-4,4.627304E-2,-9.874262E-3,-1.844959E-2,3.8658127E-1,-7.5323236E-1,-5.6614643E-3,1.4612343E-3,-3.0827487E-1,-2.0449308E-1,1.5593737E-1,-6.3188344E-2,-4.8089704E-1,3.857738E-2,-4.6722596E-3],"categories":[],"categories_nodes":[],"categories_segments":[],"categories_sizes":[],"default_left":[0,0,0,0,0,0,0,0,0,0,0,0,0,0,0],"id":57,"left_children":[1,3,5,7,9,11,13,-1,-1,-1,-1,-1,-1,-1,-1],"loss_changes":[1.7690626E0,1.4862605E1,1.0456566E1,1.3363483E1,1.5697262E1,8.338366E0,4.4237247E0,0E0,0E0,0E0,0E0,0E0,0E0,0E0,0E0],"parents":[2147483647,0,0,1,1,2,2,3,3,4,4,5,5,6,6],"right_children":[2,4,6,8,10,12,14,-1,-1,-1,-1,-1,-1,-1,-1],"split_conditions":[-1.0109408E0,-1.0689085E0,-1.017638E0,-1.0813376E0,-9.2833734E-1,-9.855596E-1,-1.5475107E0,1.4612343E-3,-3.0827487E-1,-2.0449308E-1,1.5593737E-1,-6.3188344E-2,-4.8089704E-1,3.857738E-2,-4.6722596E-3],"split_indices":[3,2,2,2,7,3,1,0,0,0,0,0,0,0,0],"split_type":[0,0,0,0,0,0,0,0,0,0,0,0,0,0,0],"sum_hessian":[4.0128547E3,6.734625E2,3.3393923E3,5.6664E2,1.06822495E2,1.7816591E1,3.3215757E3,5.5481384E2,1.182619E1,1.1387542E1,9.543495E1,1.1635025E1,6.1815653E0,2.275664E2,3.0940093E3],"tree_param":{"num_deleted":"0","num_feature":"10","num_nodes":"15","size_leaf_vector":"1"}},{"base_weights":[-5.5469864E-4,-1.5990213E-1,2.7663352E-3,-2.2578582E-1,3.216252E-1,6.943674E-1,5.556426E-4,-2.0258312E-1,2.5165624E-3,3.4595576E-1,-1.0534505E-1,-1.3600293E-1,7.715462E-4],"categories":[],"categories_nodes":[],"categories_segments":[],"categories_sizes":[],"default_left":[0,0,0,0,0,0,0,0,0,0,0,0,0],"id":58,"left_children":[1,3,5,7,-1,9,11,-1,-1,-1,-1,-1,-1],"loss_changes":[2.1238194E0,6.892535E0,6.010563E0,8.2792225E0,0E0,6.4137745E0,3.5884995E0,0E0,0E0,0E0,0E0,0E0,0E0],"parents":[2147483647,0,0,1,1,2,2,3,3,5,5,6,6],"right_children":[2,4,6,8,-1,10,12,-1,-1,-1,-1,-1,-1],"split_conditions":[-1.6752816E0,2.1038177E0,-1.8052527E0,-4.3754238E-1,3.216252E-1,-5.0086588E-2,-1.7537047E0,-2.0258312E-1,2.5165624E-3,3.4595576E-1,-1.0534505E-1,-1.3600293E-1,7.715462E-4],"split_indices":[0,9,1,2,0,6,1,0,0,0,0,0,0],"split_type":[0,0,0,0,0,0,0,0,0,0,0,0,0],"sum_hessian":[4.011442E3,8.093488E1,3.930507E3,7.760166E1,3.3332226E0,1.152616E1,3.918981E3,2.593551E1,5.166615E1,7.9391403E0,3.5870197E0,1.6340847E1,3.9026401E3],"tree_param":{"num_deleted":"0","num_feature":"10","num_nodes":"13","size_leaf_vector":"1"}},{"base_weights":[-3.168156E-4,3.1420097E-2,-1.3957053E-2,-2.405788E-2,3.357098E-1,-1.0575641E0,-4.6306043E-3,-6.788125E-2,2.1583674E-2,1.408482E-1,-1.1852723E-1,-4.031713E-1,6.176514E-2,1.5401612E-3,-1.5825951E-1],"categories":[],"categories_nodes":[],"categories_segments":[],"categories_sizes":[],"default_left":[0,0,0,0,0,0,0,0,0,0,0,0,0,0,0],"id":59,"left_children":[1,3,5,7,9,11,13,-1,-1,-1,-1,-1,-1,-1,-1],"loss_changes":[1.7368215E0,2.036735E1,2.7306688E1,1.983668E1,1.8374655E1,9.266932E0,1.4208153E1,0E0,0E0,0E0,0E0,0E0,0E0,0E0,0E0],"parents":[2147483647,0,0,1,1,2,2,3,3,4,4,5,5,6,6],"right_children":[2,4,6,8,10,12,14,-1,-1,-1,-1,-1,-1,-1,-1],"split_conditions":[-6.503498E-1,-7.8485996E-1,-7.82314E-1,-4.3769398E-1,1.3426895E0,1.5425174E0,1.6500438E0,-6.788125E-2,2.1583674E-2,1.408482E-1,-1.1852723E-1,-4.031713E-1,6.176514E-2,1.5401612E-3,-1.5825951E-1],"split_indices":[7,7,6,8,9,9,4,0,0,0,0,0,0,0,0],"split_type":[0,0,0,0,0,0,0,0,0,0,0,0,0,0,0],"sum_hessian":[4.0100576E3,1.2050198E3,2.805038E3,1.0199786E3,1.8504115E2,2.3850323E1,2.7811877E3,3.279203E2,6.920583E2,1.5671046E2,2.8330683E1,1.9391804E1,4.458519E0,2.7311768E3,5.0010876E1],"tree_param":{"num_deleted":"0","num_feature":"10","num_nodes":"15","size_leaf_vector":"1"}},{"base_weights":[-3.8042318E-4,-6.784274E-3,1.13112144E-1,-6.5020365E-1,-5.245724E-3,2.3142554E-1,-3.0464703E-1,7.094657E-2,-3.49208E-1,2.2734977E-2,-4.902392E-3,4.119157E-2,2.6828206E-1,3.9902693E-3,-3.0298135E-1],"categories":[],"categories_nodes":[],"categories_segments":[],"categories_sizes":[],"default_left":[0,0,0,0,0,0,0,0,0,0,0,0,0,0,0],"id":60,"left_children":[1,3,5,7,9,11,13,-1,-1,-1,-1,-1,-1,-1,-1],"loss_changes":[2.914317E0,3.7539997E0,1.0656297E1,4.3968163E0,3.4065099E0,1.0325365E1,1.071005E1,0E0,0E0,0E0,0E0,0E0,0E0,0E0,0E0],"parents":[2147483647,0,0,1,1,2,2,3,3,4,4,5,5,6,6],"right_children":[2,4,6,8,10,12,14,-1,-1,-1,-1,-1,-1,-1,-1],"split_conditions":[1.5222234E0,-1.9685488E0,1.4025816E-1,-3.8781986E-1,-1.3173372E0,1.3233405E-2,3.8039193E-1,7.094657E-2,-3.49208E-1,2.2734977E-2,-4.902392E-3,4.119157E-2,2.6828206E-1,3.9902693E-3,-3.0298135E-1],"split_indices":[5,7,6,5,6,7,0,0,0,0,0,0,0,0,0],"split_type":[0,0,0,0,0,0,0,0,0,0,0,0,0,0,0],"sum_hessian":[4.0077942E3,3.7946218E3,2.1317241E2,8.046339E0,3.7865754E3,1.6647198E2,4.6700428E1,3.1500752E0,4.8962636E0,4.5535712E2,3.3312185E3,1.4683015E2,1.9641829E1,3.2865616E1,1.3834812E1],"tree_param":{"num_deleted":"0","num_feature":"10","num_nodes":"15","size_leaf_vector":"1"}},{"base_weights":[-3.727727E-4,3.155314E-2,-1.840706E-2,4.3347692E-1,1.4307768E-2,-2.5829515E-1,5.615089E-3,1.6034892E-2,3.261338E-1,-6.291293E-2,1.9109737E-2,-3.877789E-2,-2.2728837E-1,2.531764E-1,-4.6938294E-5],"categories":[],"categories_nodes":[],"categories_segments":[],"categories_sizes":[],"default_left":[0,0,0,0,0,0,0,0,0,0,0,0,0,0,0],"id":61,"left_children":[1,3,5,7,9,11,13,-1,-1,-1,-1,-1,-1,-1,-1],"loss_changes":[2.3070326E0,1.0019247E1,1.4756779E1,1.4715008E1,1.5370078E1,1.4920441E1,1.126584E1,0E0,0E0,0E0,0E0,0E0,0E0,0E0,0E0],"parents":[2147483647,0,0,1,1,2,2,3,3,4,4,5,5,6,6],"right_children":[2,4,6,8,10,12,14,-1,-1,-1,-1,-1,-1,-1,-1],"split_conditions":[-4.9776334E-1,-1.6442823E0,-3.4884727E-1,-6.835904E-1,-8.389757E-1,9.3541026E-1,-4.568946E-1,1.6034892E-2,3.261338E-1,-6.291293E-2,1.9109737E-2,-3.877789E-2,-2.2728837E-1,2.531764E-1,-4.6938294E-5],"split_indices":[9,4,9,9,4,1,8,0,0,0,0,0,0,0,0],"split_type":[0,0,0,0,0,0,0,0,0,0,0,0,0,0,0],"sum_hessian":[4.004918E3,1.4453969E3,2.559521E3,5.8473244E1,1.3869237E3,2.3209E2,2.3274312E3,3.765955E1,2.0813694E1,2.4996155E2,1.1369622E3,1.8543063E2,4.6659355E1,1.4921298E1,2.3125098E3],"tree_param":{"num_deleted":"0","num_feature":"10","num_nodes":"15","size_leaf_vector":"1"}},{"base_weights":[-2.0192422E-4,-9.717878E-2,5.023584E-3,7.449066E-1,-1.6337138E-1,3.3465675E-1,-1.4835915E-3,3.2937634E-1,-1.16169535E-1,-3.2312125E-1,-2.2796214E-2,-1.4249468E-1,1.9645225E-1,-3.1190515E-1,5.969942E-4],"categories":[],"categories_nodes":[],"categories_segments":[],"categories_sizes":[],"default_left":[0,0,0,0,0,0,0,0,0,0,0,0,0,0,0],"id":62,"left_children":[1,3,5,7,9,11,13,-1,-1,-1,-1,-1,-1,-1,-1],"loss_changes":[2.0284152E0,1.1529267E1,8.147446E0,6.457917E0,1.5133204E1,1.9372688E1,1.3437615E1,0E0,0E0,0E0,0E0,0E0,0E0,0E0,0E0],"parents":[2147483647,0,0,1,1,2,2,3,3,4,4,5,5,6,6],"right_children":[2,4,6,8,10,12,14,-1,-1,-1,-1,-1,-1,-1,-1],"split_conditions":[-1.569109E0,-1.3138458E0,-1.498083E0,-1.6442823E0,-1.0017877E0,-2.5439125E-1,-1.6397274E0,3.2937634E-1,-1.16169535E-1,-3.2312125E-1,-2.2796214E-2,-1.4249468E-1,1.9645225E-1,-3.1190515E-1,5.969942E-4],"split_indices":[4,8,4,4,9,3,5,0,0,0,0,0,0,0,0],"split_type":[0,0,0,0,0,0,0,0,0,0,0,0,0,0,0],"sum_hessian":[4.0008025E3,2.0365746E2,3.797145E3,1.4094698E1,1.8956276E2,7.253083E1,3.7246143E3,1.0767488E1,3.327211E0,1.555821E1,1.7400455E2,2.0417725E1,5.211311E1,1.1425366E1,3.713189E3],"tree_param":{"num_deleted":"0","num_feature":"10","num_nodes":"15","size_leaf_vector":"1"}},{"base_weights":[-2.0846288E-4,-1.1222874E-2,4.6049736E-2,-5.453559E-3,-9.349076E-1,-3.1024646E-2,1.7797118E-1,1.8726967E-5,-8.501471E-2,1.6909842E-1,-3.3842376E-1,7.519192E-3,-1.9852434E-1,2.030551E-1,2.5650527E-2],"categories":[],"categories_nodes":[],"categories_segments":[],"categories_sizes":[],"default_left":[0,0,0,0,0,0,0,0,0,0,0,0,0,0,0],"id":63,"left_children":[1,3,5,7,9,11,13,-1,-1,-1,-1,-1,-1,-1,-1],"loss_changes":[2.038123E0,1.721232E1,7.8275723E0,4.923908E0,6.4396114E0,1.7225256E1,1.3036608E1,0E0,0E0,0E0,0E0,0E0,0E0,0E0,0E0],"parents":[2147483647,0,0,1,1,2,2,3,3,4,4,5,5,6,6],"right_children":[2,4,6,8,10,12,14,-1,-1,-1,-1,-1,-1,-1,-1],"split_conditions":[1.0525414E0,9.906733E-1,-1.5497169E-1,9.5994127E-1,-1.5045527E0,-2.7790478E-1,1.0893141E0,1.8726967E-5,-8.501471E-2,1.6909842E-1,-3.3842376E-1,7.519192E-3,-1.9852434E-1,2.030551E-1,2.5650527E-2],"split_indices":[6,7,2,6,1,2,7,0,0,0,0,0,0,0,0],"split_type":[0,0,0,0,0,0,0,0,0,0,0,0,0,0,0],"sum_hessian":[3.9981733E3,3.2298743E3,7.6829895E2,3.2108254E3,1.904884E1,4.8544513E2,2.8285382E2,3.1493215E3,6.1504005E1,1.9560947E0,1.7092745E1,4.4668298E2,3.8762135E1,4.324176E1,2.3961208E2],"tree_param":{"num_deleted":"0","num_feature":"10","num_nodes":"15","size_leaf_vector":"1"}},{"base_weights":[-2.6641597E-4,2.9738432E-2,-1.6289607E-2,-5.16592E-2,1.542501E-1,-1.224597E0,-1.0776741E-2,2.502527E-4,-1.10204205E-1,1.4936072E-1,2.476807E-2,3.415961E-1,-5.0541705E-1,-2.2003557E-1,-2.0586154E-3],"categories":[],"categories_nodes":[],"categories_segments":[],"categories_sizes":[],"default_left":[0,0,0,0,0,0,0,0,0,0,0,0,0,0,0],"id":64,"left_children":[1,3,5,7,9,11,13,-1,-1,-1,-1,-1,-1,-1,-1],"loss_changes":[1.922264E0,1.4114555E1,1.7348593E1,1.3960239E1,1.3519177E1,1.4780767E1,7.3379445E0,0E0,0E0,0E0,0E0,0E0,0E0,0E0,0E0],"parents":[2147483647,0,0,1,1,2,2,3,3,4,4,5,5,6,6],"right_children":[2,4,6,8,10,12,14,-1,-1,-1,-1,-1,-1,-1,-1],"split_conditions":[-5.296414E-1,4.1476688E-1,-6.244221E-1,1.2781645E-1,6.3471025E-1,-1.2252445E0,-1.5389048E0,2.502527E-4,-1.10204205E-1,1.4936072E-1,2.476807E-2,3.415961E-1,-5.0541705E-1,-2.2003557E-1,-2.0586154E-3],"split_indices":[4,0,5,1,1,2,9,0,0,0,0,0,0,0,0],"split_type":[0,0,0,0,0,0,0,0,0,0,0,0,0,0,0],"sum_hessian":[3.996267E3,1.3908746E3,2.6053923E3,8.414043E2,5.4947034E2,1.0828697E1,2.5945637E3,7.222965E2,1.1910783E2,9.3822426E1,4.5564792E2,1.5244303E0,9.304267E0,1.2974826E1,2.5815889E3],"tree_param":{"num_deleted":"0","num_feature":"10","num_nodes":"15","size_leaf_vector":"1"}},{"base_weights":[-3.2859267E-4,2.5706386E-2,-1.6908353E-2,1.3949415E-3,5.2236223E-1,-4.836709E-1,-6.406975E-3,3.8657628E-3,-2.8828838E-1,-1.7063105E-1,2.2225273E-1,-4.8520067E-1,-5.3165596E-2,1.8479545E-3,-8.755235E-2],"categories":[],"categories_nodes":[],"categories_segments":[],"categories_sizes":[],"default_left":[0,0,0,0,0,0,0,0,0,0,0,0,0,0,0],"id":65,"left_children":[1,3,5,7,9,11,13,-1,-1,-1,-1,-1,-1,-1,-1],"loss_changes":[1.7251245E0,1.877389E1,1.1964927E1,1.6415815E1,1.7718674E1,1.8373169E1,8.570861E0,0E0,0E0,0E0,0E0,0E0,0E0,0E0,0E0],"parents":[2147483647,0,0,1,1,2,2,3,3,4,4,5,5,6,6],"right_children":[2,4,6,8,10,12,14,-1,-1,-1,-1,-1,-1,-1,-1],"split_conditions":[-4.475473E-1,-4.7811618E-1,-4.3539697E-1,-3.9466774E-1,-8.063409E-1,-8.4537643E-1,1.9807186E0,3.8657628E-3,-2.8828838E-1,-1.7063105E-1,2.2225273E-1,-4.8520067E-1,-5.3165596E-2,1.8479545E-3,-8.755235E-2],"split_indices":[8,8,9,9,2,2,2,0,0,0,0,0,0,0,0],"split_type":[0,0,0,0,0,0,0,0,0,0,0,0,0,0,0],"sum_hessian":[3.9945405E3,1.5539083E3,2.440632E3,1.4823496E3,7.1558624E1,5.271052E1,2.3879216E3,1.4658336E3,1.6516054E1,1.1670513E1,5.988811E1,1.0306367E1,4.2404156E1,2.2881592E3,9.976247E1],"tree_param":{"num_deleted":"0","num_feature":"10","num_nodes":"15","size_leaf_vector":"1"}},{"base_weights":[-5.256446E-4,-3.781683E-1,5.413014E-4,6.912369E-1,-8.8278687E-1,4.807759E-2,-8.047874E-3,2.6863924E-1,8.776554E-2,-3.7133735E-1,9.209619E-2,8.656938E-3,3.3013305E-1,-4.834198E-2,1.414816E-3],"categories":[],"categories_nodes":[],"categories_segments":[],"categories_sizes":[],"default_left":[0,0,0,0,0,0,0,0,0,0,0,0,0,0,0],"id":66,"left_children":[1,3,5,7,9,11,13,-1,-1,-1,-1,-1,-1,-1,-1],"loss_changes":[1.6095757E0,6.6835814E0,1.627033E0,7.747376E-2,3.795106E0,1.2303717E1,6.595973E0,0E0,0E0,0E0,0E0,0E0,0E0,0E0,0E0],"parents":[2147483647,0,0,1,1,2,2,3,3,4,4,5,5,6,6],"right_children":[2,4,6,8,10,12,14,-1,-1,-1,-1,-1,-1,-1,-1],"split_conditions":[-1.9760473E0,-1.1364928E0,-1.1818359E0,-1.4037127E0,1.5052536E0,-9.79779E-1,-9.3246734E-1,2.6863924E-1,8.776554E-2,-3.7133735E-1,9.209619E-2,8.656938E-3,3.3013305E-1,-4.834198E-2,1.414816E-3],"split_indices":[5,8,4,0,6,5,4,0,0,0,0,0,0,0,0],"split_type":[0,0,0,0,0,0,0,0,0,0,0,0,0,0,0],"sum_hessian":[3.9932268E3,1.0254442E1,3.9829724E3,3.168925E0,7.085517E0,6.088317E2,3.3741406E3,1.2715353E0,1.8973898E0,5.4261165E0,1.6594005E0,5.9892004E2,9.911667E0,2.587722E2,3.1153687E3],"tree_param":{"num_deleted":"0","num_feature":"10","num_nodes":"15","size_leaf_vector":"1"}},{"base_weights":[-3.0785563E-4,-1.5326441E-2,2.497882E-2,-1.110196E-3,-4.3616334E-1,-9.6710104E-1,3.0179996E-2,2.2182697E-1,-1.5325125E-3,-1.9818397E-1,1.6372488E-1,-4.0769014E-1,2.2056974E-1,-9.2126854E-2,1.3359758E-2],"categories":[],"categories_nodes":[],"categories_segments":[],"categories_sizes":[],"default_left":[0,0,0,0,0,0,0,0,0,0,0,0,0,0,0],"id":67,"left_children":[1,3,5,7,9,11,13,-1,-1,-1,-1,-1,-1,-1,-1],"loss_changes":[1.5166047E0,1.4988703E1,7.7075434E0,7.1823373E0,1.8403198E1,6.1964407E0,7.1840076E0,0E0,0E0,0E0,0E0,0E0,0E0,0E0,0E0],"parents":[2147483647,0,0,1,1,2,2,3,3,4,4,5,5,6,6],"right_children":[2,4,6,8,10,12,14,-1,-1,-1,-1,-1,-1,-1,-1],"split_conditions":[5.4230636E-1,4.6160027E-1,-1.7045014E0,-1.7096583E0,5.981148E-1,1.5481237E0,-1.3467511E0,2.2182697E-1,-1.5325125E-3,-1.9818397E-1,1.6372488E-1,-4.0769014E-1,2.2056974E-1,-9.2126854E-2,1.3359758E-2],"split_indices":[7,7,0,0,6,6,3,0,0,0,0,0,0,0,0],"split_type":[0,0,0,0,0,0,0,0,0,0,0,0,0,0,0],"sum_hessian":[3.9914724E3,2.5044133E3,1.4870592E3,2.4235464E3,8.086692E1,6.791019E0,1.4802682E3,1.2026818E1,2.4115195E3,6.608756E1,1.4779357E1,5.684246E0,1.1067728E0,5.9589157E1,1.4206791E3],"tree_param":{"num_deleted":"0","num_feature":"10","num_nodes":"15","size_leaf_vector":"1"}},{"base_weights":[-3.012157E-4,3.2014996E-1,-1.8130898E-3,4.647496E-1,-4.267757E-1,-2.2118185E-1,5.6525413E-4,2.3851082E-1,7.5929016E-3,-3.2975823E-1,9.197102E-2,3.445686E-1,-1.2707382E-1,1.5694335E-1,-5.088925E-4],"categories":[],"categories_nodes":[],"categories_segments":[],"categories_sizes":[],"default_left":[0,0,0,0,0,0,0,0,0,0,0,0,0,0,0],"id":68,"left_children":[1,3,5,7,9,11,13,-1,-1,-1,-1,-1,-1,-1,-1],"loss_changes":[1.9337289E0,2.222633E0,2.0726593E0,2.3284485E0,2.0930676E0,1.2298946E1,4.646468E0,0E0,0E0,0E0,0E0,0E0,0E0,0E0,0E0],"parents":[2147483647,0,0,1,1,2,2,3,3,4,4,5,5,6,6],"right_children":[2,4,6,8,10,12,14,-1,-1,-1,-1,-1,-1,-1,-1],"split_conditions":[-1.4404259E0,1.0299147E0,-1.4142079E0,5.8611107E-1,7.929106E-1,-1.3250762E0,-1.4041091E0,2.3851082E-1,7.5929016E-3,-3.2975823E-1,9.197102E-2,3.445686E-1,-1.2707382E-1,1.5694335E-1,-5.088925E-4],"split_indices":[2,1,2,6,8,9,2,0,0,0,0,0,0,0,0],"split_type":[0,0,0,0,0,0,0,0,0,0,0,0,0,0,0],"sum_hessian":[3.9891362E3,1.7742514E1,3.9713936E3,1.5181302E1,2.561212E0,4.1608376E1,3.9297852E3,8.2050905E0,6.976211E0,1.0758603E0,1.4853518E0,4.7548323E0,3.6853542E1,1.5941163E1,3.913844E3],"tree_param":{"num_deleted":"0","num_feature":"10","num_nodes":"15","size_leaf_vector":"1"}},{"base_weights":[-1.12673246E-4,4.642029E-2,-9.4449185E-3,-9.89977E-3,3.1718042E-1,-2.986496E-1,-1.9686543E-3,1.0175952E-2,-1.87712E-1,1.14422E-1,-4.3260834E-1,-9.222903E-3,-3.794383E-1,-2.8778885E-3,5.0694227E-2],"categories":[],"categories_nodes":[],"categories_segments":[],"categories_sizes":[],"default_left":[0,0,0,0,0,0,0,0,0,0,0,0,0,0,0],"id":69,"left_children":[1,3,5,7,9,11,13,-1,-1,-1,-1,-1,-1,-1,-1],"loss_changes":[1.7321196E0,1.0163844E1,7.182959E0,1.4931386E1,1.35166855E1,2.1629929E1,4.224101E0,0E0,0E0,0E0,0E0,0E0,0E0,0E0,0E0],"parents":[2147483647,0,0,1,1,2,2,3,3,4,4,5,5,6,6],"right_children":[2,4,6,8,10,12,14,-1,-1,-1,-1,-1,-1,-1,-1],"split_conditions":[-1.0109408E0,1.1931521E0,-9.426072E-1,8.994667E-1,2.1560016E0,-9.401495E-1,1.545793E0,1.0175952E-2,-1.87712E-1,1.14422E-1,-4.3260834E-1,-9.222903E-3,-3.794383E-1,-2.8778885E-3,5.0694227E-2],"split_indices":[3,1,3,0,9,2,5,0,0,0,0,0,0,0,0],"split_type":[0,0,0,0,0,0,0,0,0,0,0,0,0,0,0],"sum_hessian":[3.986687E3,6.6530945E2,3.3213774E3,5.515471E2,1.1376234E2,8.27162E1,3.2386614E3,5.157895E2,3.575765E1,1.1051093E2,3.2514052E0,6.556673E1,1.7149471E1,3.1012883E3,1.3737291E2],"tree_param":{"num_deleted":"0","num_feature":"10","num_nodes":"15","size_leaf_vector":"1"}},{"base_weights":[-3.2751466E-4,-2.2870463E-3,2.0785238E-1,-3.192935E-4,-7.205638E-1,3.733155E-1,-8.403613E-1,-5.1656616E-4,1.8081516E-1,2.6463202E-1,-3.076042E-1,-1.2474505E-1,1.602896E-1,1.2157578E-1,-3.9129487E-1],"categories":[],"categories_nodes":[],"categories_segments":[],"categories_sizes":[],"default_left":[0,0,0,0,0,0,0,0,0,0,0,0,0,0,0],"id":70,"left_children":[1,3,5,7,9,11,13,-1,-1,-1,-1,-1,-1,-1,-1],"loss_changes":[1.6262043E0,5.581379E0,6.7610517E0,3.3329587E0,6.1744018E0,4.388683E0,3.635115E0,0E0,0E0,0E0,0E0,0E0,0E0,0E0,0E0],"parents":[2147483647,0,0,1,1,2,2,3,3,4,4,5,5,6,6],"right_children":[2,4,6,8,10,12,14,-1,-1,-1,-1,-1,-1,-1,-1],"split_conditions":[2.3860283E0,2.3427203E0,3.6661425E-1,2.3442342E0,-1.3876163E0,-8.8912684E-1,-1.2105163E0,-5.1656616E-4,1.8081516E-1,2.6463202E-1,-3.076042E-1,-1.2474505E-1,1.602896E-1,1.2157578E-1,-3.9129487E-1],"split_indices":[2,2,6,3,8,5,8,0,0,0,0,0,0,0,0],"split_type":[0,0,0,0,0,0,0,0,0,0,0,0,0,0,0],"sum_hessian":[3.9842634E3,3.9480903E3,3.6173115E1,3.9383015E3,9.788717E0,3.1797634E1,4.37548E0,3.9301577E3,8.1439495E0,1.2614275E0,8.527289E0,5.1194286E0,2.6678205E1,1.2217865E0,3.1536937E0],"tree_param":{"num_deleted":"0","num_feature":"10","num_nodes":"15","size_leaf_vector":"1"}},{"base_weights":[-2.6056572E-4,-5.874383E-2,7.1444493E-3,-3.8111176E-2,-4.34702E-1,2.757975E-1,-2.8912947E-3,1.1362818E-1,-3.266376E-2,-2.7456673E-2,1.8762447E-1,-1.1997788E-1,1.6878E-3],"categories":[],"categories_nodes":[],"categories_segments":[],"categories_sizes":[],"default_left":[0,0,0,0,0,0,0,0,0,0,0,0,0],"id":71,"left_children":[1,3,5,7,-1,9,11,-1,-1,-1,-1,-1,-1],"loss_changes":[1.7251735E0,1.2787128E1,9.534109E0,1.3086235E1,0E0,1.6410534E1,1.1532302E1,0E0,0E0,0E0,0E0,0E0,0E0],"parents":[2147483647,0,0,1,1,2,2,3,3,5,5,6,6],"right_children":[2,4,6,8,-1,10,12,-1,-1,-1,-1,-1,-1],"split_conditions":[-1.1364928E0,1.6818798E0,-1.0687857E0,-1.2408576E0,-4.34702E-1,4.6950316E-1,-1.0217952E0,1.1362818E-1,-3.266376E-2,-2.7456673E-2,1.8762447E-1,-1.1997788E-1,1.6878E-3],"split_indices":[8,6,8,5,0,6,8,0,0,0,0,0,0],"split_type":[0,0,0,0,0,0,0,0,0,0,0,0,0],"sum_hessian":[3.9816262E3,4.467056E2,3.5349207E3,4.4118546E2,5.5201454E0,1.2634093E2,3.4085798E3,6.3394802E1,3.7779065E2,6.1970676E1,6.437025E1,7.062091E1,3.337959E3],"tree_param":{"num_deleted":"0","num_feature":"10","num_nodes":"13","size_leaf_vector":"1"}},{"base_weights":[-2.49877E-4,-9.362743E-2,4.7064675E-3,-4.291069E-2,-1.0916426E0,1.7230895E-1,-2.32385E-3,-2.9707503E-2,3.1112438E-1,-1.810363E-2,-4.3133E-1,-1.745814E-1,7.850438E-2,-6.154374E-2,1.3419678E-3],"categories":[],"categories_nodes":[],"categories_segments":[],"categories_sizes":[],"default_left":[0,0,0,0,0,0,0,0,0,0,0,0,0,0,0],"id":72,"left_children":[1,3,5,7,9,11,13,-1,-1,-1,-1,-1,-1,-1,-1],"loss_changes":[1.8423214E0,1.01088085E1,4.4545164E0,1.1737187E1,3.3621845E0,1.041139E1,5.0037503E0,0E0,0E0,0E0,0E0,0E0,0E0,0E0,0E0],"parents":[2147483647,0,0,1,1,2,2,3,3,4,4,5,5,6,6],"right_children":[2,4,6,8,10,12,14,-1,-1,-1,-1,-1,-1,-1,-1],"split_conditions":[-1.569109E0,2.0172682E0,-1.422391E0,1.9093214E0,-1.7032114E0,-1.0704883E0,-1.3396684E0,-2.9707503E-2,3.1112438E-1,-1.810363E-2,-4.3133E-1,-1.745814E-1,7.850438E-2,-6.154374E-2,1.3419678E-3],"split_indices":[4,9,4,8,4,3,5,0,0,0,0,0,0,0,0],"split_type":[0,0,0,0,0,0,0,0,0,0,0,0,0,0,0],"sum_hessian":[3.9787656E3,1.9964084E2,3.7791248E3,1.9097874E2,8.6620865E0,1.5119249E2,3.6279324E3,1.8240941E2,8.569334E0,2.471739E0,6.1903477E0,1.5433329E1,1.3575916E2,1.1669258E2,3.5112397E3],"tree_param":{"num_deleted":"0","num_feature":"10","num_nodes":"15","size_leaf_vector":"1"}},{"base_weights":[-2.9337397E-4,3.175872E-2,-1.3194698E-2,-1.7038401E-3,4.136187E-1,-5.19692E-1,-3.9267438E-3,2.8428877E-2,-2.5391664E-2,1.416808E-1,-4.6699667E-1,3.169267E-1,-2.314278E-1,-2.218462E-4,-4.1119596E-1],"categories":[],"categories_nodes":[],"categories_segments":[],"categories_sizes":[],"default_left":[0,0,0,0,0,0,0,0,0,0,0,0,0,0,0],"id":73,"left_children":[1,3,5,7,9,11,13,-1,-1,-1,-1,-1,-1,-1,-1],"loss_changes":[1.6451386E0,1.4590454E1,1.3313662E1,8.414821E0,1.1366231E1,2.1035807E1,1.2138012E1,0E0,0E0,0E0,0E0,0E0,0E0,0E0,0E0],"parents":[2147483647,0,0,1,1,2,2,3,3,4,4,5,5,6,6],"right_children":[2,4,6,8,10,12,14,-1,-1,-1,-1,-1,-1,-1,-1],"split_conditions":[-6.9367814E-1,-7.455542E-1,-6.5463024E-1,-1.8509096E-1,1.5577625E0,-7.57401E-1,1.72539E0,2.8428877E-2,-2.5391664E-2,1.416808E-1,-4.6699667E-1,3.169267E-1,-2.314278E-1,-2.218462E-4,-4.1119596E-1],"split_indices":[3,2,3,0,0,2,4,0,0,0,0,0,0,0,0],"split_type":[0,0,0,0,0,0,0,0,0,0,0,0,0,0,0],"sum_hessian":[3.9764182E3,1.1407854E3,2.8356328E3,1.0497876E3,9.09978E1,4.9964764E1,2.785668E3,4.8523676E2,5.6455084E2,8.910563E1,1.8921721E0,6.440984E0,4.352378E1,2.780185E3,5.4829535E0],"tree_param":{"num_deleted":"0","num_feature":"10","num_nodes":"15","size_leaf_vector":"1"}},{"base_weights":[-3.9783661E-4,-2.0946044E-2,2.1777608E-2,-1.5589581E-2,-9.3912286E-1,6.630496E-1,1.4099087E-2,-1.6531456E-2,1.8790707E-2,2.890087E-1,-3.8927138E-1,3.0164248E-1,-2.0763113E-1,-4.6404204E-1,5.703942E-3],"categories":[],"categories_nodes":[],"categories_segments":[],"categories_sizes":[],"default_left":[0,0,0,0,0,0,0,0,0,0,0,0,0,0,0],"id":74,"left_children":[1,3,5,7,9,11,13,-1,-1,-1,-1,-1,-1,-1,-1],"loss_changes":[1.8115412E0,1.0134012E1,9.405847E0,6.3480606E0,9.400157E0,1.1184375E1,1.453019E1,0E0,0E0,0E0,0E0,0E0,0E0,0E0,0E0],"parents":[2147483647,0,0,1,1,2,2,3,3,4,4,5,5,6,6],"right_children":[2,4,6,8,10,12,14,-1,-1,-1,-1,-1,-1,-1,-1],"split_conditions":[1.0204161E-1,2.1023169E-1,1.1922484E-1,6.5641856E-1,-1.252174E0,7.335855E-1,-7.680599E-2,-1.6531456E-2,1.8790707E-2,2.890087E-1,-3.8927138E-1,3.0164248E-1,-2.0763113E-1,-4.6404204E-1,5.703942E-3],"split_indices":[1,0,1,6,6,6,0,0,0,0,0,0,0,0,0],"split_type":[0,0,0,0,0,0,0,0,0,0,0,0,0,0,0],"sum_hessian":[3.9735923E3,2.0624968E3,1.9110953E3,2.0515457E3,1.0951337E1,2.1602592E1,1.8894927E3,1.3632163E3,6.883293E2,1.4686742E0,9.482663E0,1.7451035E1,4.151558E0,4.9451227E0,1.8845476E3],"tree_param":{"num_deleted":"0","num_feature":"10","num_nodes":"15","size_leaf_vector":"1"}},{"base_weights":[-4.288621E-4,-1.5220765E-2,2.8356979E-2,-1.2788807E-2,-4.3927836E-1,3.1958765E-1,-2.3941048E-3,3.21196E-2,-9.57742E-3,3.3582175E-1,5.7089895E-2,8.238815E-3,-1.2360007E-1],"categories":[],"categories_nodes":[],"categories_segments":[],"categories_sizes":[],"default_left":[0,0,0,0,0,0,0,0,0,0,0,0,0],"id":75,"left_children":[1,3,5,7,-1,9,11,-1,-1,-1,-1,-1,-1],"loss_changes":[1.69225E0,9.23271E0,1.2082245E1,6.0167313E0,0E0,1.3110718E1,1.4945844E1,0E0,0E0,0E0,0E0,0E0,0E0],"parents":[2147483647,0,0,1,1,2,2,3,3,5,5,6,6],"right_children":[2,4,6,8,-1,10,12,-1,-1,-1,-1,-1,-1],"split_conditions":[6.8459654E-1,7.744023E-1,6.859224E-1,-1.2077718E0,-4.3927836E-1,-1.6008879E0,4.4856307E-1,3.21196E-2,-9.57742E-3,3.3582175E-1,5.7089895E-2,8.238815E-3,-1.2360007E-1],"split_indices":[5,4,4,0,0,7,8,0,0,0,0,0,0],"split_type":[0,0,0,0,0,0,0,0,0,0,0,0,0],"sum_hessian":[3.9722947E3,2.6242617E3,1.3480328E3,2.620872E3,3.389844E0,1.2784773E2,1.2201852E3,3.6020474E2,2.2606672E3,1.6724741E1,1.1112299E2,1.1381561E3,8.2029E1],"tree_param":{"num_deleted":"0","num_feature":"10","num_nodes":"13","size_leaf_vector":"1"}},{"base_weights":[-2.9696198E-4,-4.960315E-2,1.2879809E-2,-8.390061E-3,-5.3969485E-1,2.8468916E-1,1.2546078E-3,-8.480839E-3,2.2074436E-1,-3.5984665E-1,3.9744813E-2,1.7789885E-1,-5.9487475E-3,-8.31281E-3,3.001598E-2],"categories":[],"categories_nodes":[],"categories_segments":[],"categories_sizes":[],"default_left":[0,0,0,0,0,0,0,0,0,0,0,0,0,0,0],"id":76,"left_children":[1,3,5,7,9,11,13,-1,-1,-1,-1,-1,-1,-1,-1],"loss_changes":[2.5802543E0,1.6912004E1,9.9024725E0,1.1465353E1,2.896452E1,1.2079444E1,8.605979E0,0E0,0E0,0E0,0E0,0E0,0E0,0E0,0E0],"parents":[2147483647,0,0,1,1,2,2,3,3,4,4,5,5,6,6],"right_children":[2,4,6,8,10,12,14,-1,-1,-1,-1,-1,-1,-1,-1],"split_conditions":[-9.6885836E-1,-9.289276E-1,-8.7776333E-1,-9.5470244E-1,2.9718883E-2,-4.475473E-1,7.902996E-1,-8.480839E-3,2.2074436E-1,-3.5984665E-1,3.9744813E-2,1.7789885E-1,-5.9487475E-3,-8.31281E-3,3.001598E-2],"split_indices":[0,1,0,1,2,8,9,0,0,0,0,0,0,0,0],"split_type":[0,0,0,0,0,0,0,0,0,0,0,0,0,0,0],"sum_hessian":[3.969494E3,8.3652704E2,3.132967E3,7.7257623E2,6.3950832E1,1.27536705E2,3.0054302E3,7.5341284E2,1.9163364E1,3.1876812E1,3.207402E1,6.2903374E1,6.463333E1,2.3246511E3,6.80779E2],"tree_param":{"num_deleted":"0","num_feature":"10","num_nodes":"15","size_leaf_vector":"1"}},{"base_weights":[-1.5942447E-4,-2.508073E-2,1.5758112E-2,3.318311E-3,-3.108391E-1,1.834402E-2,-9.681172E-1,6.7387656E-3,-1.3172385E-1,-3.1113787E-2,-3.026252E-1,-5.3544607E-2,9.267901E-3,-3.9980173E-1,9.9945836E-2],"categories":[],"categories_nodes":[],"categories_segments":[],"categories_sizes":[],"default_left":[0,0,0,0,0,0,0,0,0,0,0,0,0,0,0],"id":77,"left_children":[1,3,5,7,9,11,13,-1,-1,-1,-1,-1,-1,-1,-1],"loss_changes":[1.57406E0,1.255205E1,6.178406E0,1.1932833E1,2.0107025E1,5.9731274E0,3.463986E0,0E0,0E0,0E0,0E0,0E0,0E0,0E0,0E0],"parents":[2147483647,0,0,1,1,2,2,3,3,4,4,5,5,6,6],"right_children":[2,4,6,8,10,12,14,-1,-1,-1,-1,-1,-1,-1,-1],"split_conditions":[-3.533025E-1,-4.993567E-1,2.4174895E0,1.9358097E0,6.859224E-1,-1.2666109E0,6.204263E-1,6.7387656E-3,-1.3172385E-1,-3.1113787E-2,-3.026252E-1,-5.3544607E-2,9.267901E-3,-3.9980173E-1,9.9945836E-2],"split_indices":[1,1,2,9,4,2,4,0,0,0,0,0,0,0,0],"split_type":[0,0,0,0,0,0,0,0,0,0,0,0,0,0,0],"sum_hessian":[3.9660308E3,1.5455941E3,2.4204365E3,1.4067754E3,1.3881879E2,2.4150703E3,5.3661466E0,1.3493337E3,5.7441593E1,1.0793454E2,3.088425E1,1.4395578E2,2.2711145E3,4.172949E0,1.1931978E0],"tree_param":{"num_deleted":"0","num_feature":"10","num_nodes":"15","size_leaf_vector":"1"}},{"base_weights":[-4.038982E-4,9.555618E-2,-5.972732E-3,1.4674309E-1,-1.3006644E0,-5.3732157E-1,-2.0612027E-3,1.0419045E-1,-4.337502E-2,7.812155E-2,-4.768123E-1,-3.2553226E-1,3.4609705E-1,2.0699339E-1,-1.5475611E-3],"categories":[],"categories_nodes":[],"categories_segments":[],"categories_sizes":[],"default_left":[0,0,0,0,0,0,0,0,0,0,0,0,0,0,0],"id":78,"left_children":[1,3,5,7,9,11,13,-1,-1,-1,-1,-1,-1,-1,-1],"loss_changes":[2.1184616E0,1.5730959E1,7.7861586E0,1.2358044E1,3.9252872E0,2.6610605E1,7.978167E0,0E0,0E0,0E0,0E0,0E0,0E0,0E0,0E0],"parents":[2147483647,0,0,1,1,2,2,3,3,4,4,5,5,6,6],"right_children":[2,4,6,8,10,12,14,-1,-1,-1,-1,-1,-1,-1,-1],"split_conditions":[-1.2992374E0,1.6337996E0,-1.296965E0,3.4089187E-1,-1.2283444E0,1.4555236E0,-1.2862272E0,1.0419045E-1,-4.337502E-2,7.812155E-2,-4.768123E-1,-3.2553226E-1,3.4609705E-1,2.0699339E-1,-1.5475611E-3],"split_indices":[2,4,3,6,9,6,3,0,0,0,0,0,0,0,0],"split_type":[0,0,0,0,0,0,0,0,0,0,0,0,0,0,0],"sum_hessian":[3.9622253E3,2.1644066E2,3.7457847E3,2.096496E2,6.791073E0,2.6376575E1,3.719408E3,1.24054436E2,8.559515E1,1.0752386E0,5.715834E0,2.0193323E1,6.1832533E0,1.558452E1,3.7038235E3],"tree_param":{"num_deleted":"0","num_feature":"10","num_nodes":"15","size_leaf_vector":"1"}},{"base_weights":[-3.5175928E-4,-3.931999E-3,1.2824234E-1,-6.566681E-4,-3.3441824E-1,2.0586479E-1,-1.0601592E0,1.5550072E-2,-4.052122E-3,-4.6314156E-1,2.9088942E-2,1.3816401E-1,-4.5147143E-2,-4.8100471E-1,1.00437164E-1],"categories":[],"categories_nodes":[],"categories_segments":[],"categories_sizes":[],"default_left":[0,0,0,0,0,0,0,0,0,0,0,0,0,0,0],"id":79,"left_children":[1,3,5,7,9,11,13,-1,-1,-1,-1,-1,-1,-1,-1],"loss_changes":[1.8237816E0,4.1714644E0,1.0116433E1,2.575416E0,1.9879633E1,9.286597E0,5.644943E0,0E0,0E0,0E0,0E0,0E0,0E0,0E0,0E0],"parents":[2147483647,0,0,1,1,2,2,3,3,4,4,5,5,6,6],"right_children":[2,4,6,8,10,12,14,-1,-1,-1,-1,-1,-1,-1,-1],"split_conditions":[2.1629703E0,2.0879374E0,1.5251054E0,-9.2247635E-1,-7.2729886E-1,-2.3871659E-1,2.9479173E-1,1.5550072E-2,-4.052122E-3,-4.6314156E-1,2.9088942E-2,1.3816401E-1,-4.5147143E-2,-4.8100471E-1,1.00437164E-1],"split_indices":[8,8,0,2,2,6,5,0,0,0,0,0,0,0,0],"split_type":[0,0,0,0,0,0,0,0,0,0,0,0,0,0,0],"sum_hessian":[3.9592224E3,3.8529211E3,1.0630129E2,3.816103E3,3.6818047E1,1.0055983E2,5.7414618E0,7.499082E2,3.0661948E3,9.002E0,2.7816048E1,5.847571E1,4.2084114E1,4.0248146E0,1.7166475E0],"tree_param":{"num_deleted":"0","num_feature":"10","num_nodes":"15","size_leaf_vector":"1"}},{"base_weights":[-4.9704174E-4,-1.7644344E-2,2.2518113E-2,-1.0516739E-2,-6.1674464E-1,-1.268923E-1,5.566442E-2,3.7487417E-2,-1.0331426E-2,2.2567174E-1,-3.4348562E-1,-7.3435986E-3,-3.349877E-1,1.427861E-2,2.2358803E-1],"categories":[],"categories_nodes":[],"categories_segments":[],"categories_sizes":[],"default_left":[0,0,0,0,0,0,0,0,0,0,0,0,0,0,0],"id":80,"left_children":[1,3,5,7,9,11,13,-1,-1,-1,-1,-1,-1,-1,-1],"loss_changes":[1.5626285E0,9.682529E0,8.3792715E0,7.274418E0,2.013939E1,3.1116243E1,7.667586E0,0E0,0E0,0E0,0E0,0E0,0E0,0E0,0E0],"parents":[2147483647,0,0,1,1,2,2,3,3,4,4,5,5,6,6],"right_children":[2,4,6,8,10,12,14,-1,-1,-1,-1,-1,-1,-1,-1],"split_conditions":[2.7946708E-1,2.5492784E-1,-1.140711E0,-1.1767222E0,-1.0478166E0,-1.1883903E0,2.3442342E0,3.7487417E-2,-1.0331426E-2,2.2567174E-1,-3.4348562E-1,-7.3435986E-3,-3.349877E-1,1.427861E-2,2.2358803E-1],"split_indices":[4,4,6,6,8,7,3,0,0,0,0,0,0,0,0],"split_type":[0,0,0,0,0,0,0,0,0,0,0,0,0,0,0],"sum_hessian":[3.957545E3,2.2680105E3,1.6895343E3,2.2423506E3,2.5660097E1,3.0625043E2,1.3832838E3,3.3588644E2,1.906464E3,7.0260825E0,1.8634014E1,2.7846112E2,2.7789307E1,1.3683424E3,1.4941372E1],"tree_param":{"num_deleted":"0","num_feature":"10","num_nodes":"15","size_leaf_vector":"1"}},{"base_weights":[-4.2683916E-4,-1.0270802E-1,3.872998E-3,-1.2302097E0,-1.8707655E-2,4.9398768E-1,-4.702409E-4,5.7510342E-2,-4.9421242E-1,3.3793277E-1,-3.378087E-2,-3.2106614E-1,2.4093805E-1,-1.6010925E-1,6.5511925E-4],"categories":[],"categories_nodes":[],"categories_segments":[],"categories_sizes":[],"default_left":[0,0,0,0,0,0,0,0,0,0,0,0,0,0,0],"id":81,"left_children":[1,3,5,7,9,11,13,-1,-1,-1,-1,-1,-1,-1,-1],"loss_changes":[1.7397553E0,1.5092067E1,8.081485E0,6.8703537E0,1.6206255E1,1.6984999E1,5.32788E0,0E0,0E0,0E0,0E0,0E0,0E0,0E0,0E0],"parents":[2147483647,0,0,1,1,2,2,3,3,4,4,5,5,6,6],"right_children":[2,4,6,8,10,12,14,-1,-1,-1,-1,-1,-1,-1,-1],"split_conditions":[-1.7353978E0,-1.3849945E0,-1.6905613E0,-1.7048861E0,-1.2364446E0,-8.500006E-1,-1.6088563E0,5.7510342E-2,-4.9421242E-1,3.3793277E-1,-3.378087E-2,